<?xml version="1.0"?>
<opencv_storage>
<opencv_ml_ann_mlp>
  <format>3</format>
  <layer_sizes>
    400 64 34</layer_sizes>
  <activation_function>SIGMOID_SYM</activation_function>
  <f_param1>1.</f_param1>
  <f_param2>1.</f_param2>
  <min_val>-9.4999999999999996e-01</min_val>
  <max_val>9.4999999999999996e-01</max_val>
  <min_val1>-9.7999999999999998e-01</min_val1>
  <max_val1>9.7999999999999998e-01</max_val1>
  <training_params>
    <train_method>BACKPROP</train_method>
    <dw_scale>1.0000000000000000e-03</dw_scale>
    <moment_scale>1.0000000000000001e-01</moment_scale>
    <term_criteria>
      <epsilon>1.0000000000000000e-04</epsilon>
      <iterations>10</iterations></term_criteria></training_params>
  <input_scale>
    7.2535168713238445e+00 -4.5068855336025904e-01
    4.8425083631756500e+00 -5.1316069167972411e-01
    3.6803394095006960e+00 -5.6905181480721356e-01
    3.1696531381575541e+00 -6.2579631229490729e-01
    2.9764414570173914e+00 -6.8640794429284957e-01
    2.7273756179896265e+00 -8.4062313021601975e-01
    2.4818758153972569e+00 -9.9256429428461401e-01
    2.4761736418890221e+00 -1.0361487563550049e+00
    2.3790846592015997e+00 -1.0326188196050392e+00
    2.3139423675871371e+00 -1.1204258812079666e+00
    2.3173465831255955e+00 -1.1588149895910371e+00
    2.4074062184892693e+00 -1.1413604913812057e+00
    2.5539627304187755e+00 -1.1215755734472239e+00
    2.5646930654263125e+00 -1.0052266060703732e+00
    2.7053744413985426e+00 -8.2468054245600775e-01
    3.1677084025321389e+00 -6.4481685437033109e-01
    3.6870052598178717e+00 -5.2561728464297020e-01
    4.9547527450216569e+00 -4.8068533397021923e-01
    6.9934596311670889e+00 -4.3999914108982274e-01
    9.9867884577318069e+00 -4.2522756988766508e-01
    6.6888054574461986e+00 -4.4929950841723859e-01
    4.0872170598273092e+00 -5.7147499723305140e-01
    2.9968597465445024e+00 -6.6445603663432851e-01
    2.5718822402993022e+00 -7.5139902060826613e-01
    2.4835282552765583e+00 -8.6454000639278727e-01
    2.4676036611216361e+00 -1.1296189175157729e+00
    2.5026362951307064e+00 -1.4640971383806547e+00
    2.4301769905890152e+00 -1.4996939535885430e+00
    2.3219839414629506e+00 -1.3507037368707822e+00
    2.2968956671516838e+00 -1.3418110035677726e+00
    2.3488159672503430e+00 -1.4311821185855083e+00
    2.4228028592099751e+00 -1.5251893921423065e+00
    2.5850280641914116e+00 -1.6955876591667529e+00
    2.6480408490907368e+00 -1.6536786740853355e+00
    2.4907384983239473e+00 -1.1564927461940204e+00
    2.6802578105903661e+00 -8.0501408679259523e-01
    3.0625702402752335e+00 -6.1410364877035195e-01
    4.1603341790658153e+00 -5.3227807729478782e-01
    6.1370666729580927e+00 -4.5455350989994669e-01
    9.5060858912779000e+00 -4.2210532240797066e-01
    7.5508469842178769e+00 -4.6003559515903614e-01
    4.2140728469106712e+00 -5.7688569727012451e-01
    2.9923313703492522e+00 -6.8939590745118462e-01
    2.5030360785848602e+00 -7.9410339216675407e-01
    2.4299626062488358e+00 -9.2741615791419962e-01
    2.5107008032599869e+00 -1.2158684568598233e+00
    2.5832984752415569e+00 -1.5199955982163955e+00
    2.4958371783624349e+00 -1.3740203103456359e+00
    2.5676241473017560e+00 -1.1593282563777574e+00
    2.5981569564871565e+00 -1.0756460202459110e+00
    2.5695156217087498e+00 -1.1354799694323734e+00
    2.5862533185855314e+00 -1.3365799495499073e+00
    2.6141362287278587e+00 -1.6097652549749888e+00
    2.7177033904458021e+00 -1.8029439374398148e+00
    2.5333681957179386e+00 -1.3464545791191749e+00
    2.6593133913919735e+00 -9.0281393977656654e-01
    3.1218197435753301e+00 -6.6600624863259028e-01
    4.3879374311023627e+00 -5.5196409429073512e-01
    6.4769435075044770e+00 -4.5342342067466207e-01
    9.3162075115987495e+00 -4.1180433210890227e-01
    8.1094842095812378e+00 -4.5446786727400773e-01
    4.4065736980441068e+00 -5.4343678609392243e-01
    3.0742446816922708e+00 -6.7542258367120978e-01
    2.4863657648795372e+00 -7.7743241264332230e-01
    2.4231454702438477e+00 -9.0831626801378162e-01
    2.4561733277861553e+00 -1.1120884751064730e+00
    2.4342190590853132e+00 -1.2046605246702911e+00
    2.4952349676729062e+00 -1.0180961989444748e+00
    2.8755874627437086e+00 -7.9343995978056736e-01
    2.9647075151587137e+00 -6.7895224794325493e-01
    2.8005766469066646e+00 -7.3404829070904187e-01
    2.7273816510846443e+00 -8.9539283103917233e-01
    2.5019729329480449e+00 -1.1856783819533123e+00
    2.4656967100906519e+00 -1.4068606199556166e+00
    2.3785946156157030e+00 -1.2099831794660549e+00
    2.4991443455347424e+00 -8.7788575151921688e-01
    2.9055558735116107e+00 -6.6093859090270368e-01
    4.2037486662212835e+00 -5.5692642298446571e-01
    6.3229628187057267e+00 -4.4271681429797671e-01
    9.2055569047758805e+00 -4.0353681165802968e-01
    8.4631523408497138e+00 -4.4845924637060885e-01
    4.4727284952810544e+00 -5.4255695099103418e-01
    3.0799362919238291e+00 -6.7089328435458651e-01
    2.4756348915323758e+00 -7.6757249073726408e-01
    2.4254872200764255e+00 -9.1027673076236304e-01
    2.4526529285752705e+00 -1.0770994112727843e+00
    2.4050841418709168e+00 -1.1205334585884903e+00
    2.5692556047945083e+00 -9.3152559086657305e-01
    2.9429663194828639e+00 -6.8366773914736934e-01
    2.8932817192206839e+00 -6.5096839328102696e-01
    2.7230580997923215e+00 -6.9620149777162588e-01
    2.7025679879143194e+00 -7.8077722409188355e-01
    2.5505568067187299e+00 -1.0295012635335334e+00
    2.4395809411661564e+00 -1.2105077296605400e+00
    2.3853756140186624e+00 -1.1003983059558036e+00
    2.5071325812972347e+00 -8.5951565264040286e-01
    2.7891573194437465e+00 -6.6472345925892495e-01
    3.9028342275496328e+00 -5.6991286091696403e-01
    5.7872226939348170e+00 -4.5307881753497781e-01
    8.7866060031044242e+00 -3.9510339101020536e-01
    8.8513982312799460e+00 -4.4927739722122972e-01
    4.5627557205629827e+00 -5.2914811977591014e-01
    3.1272717866290773e+00 -6.6618827928973035e-01
    2.4649188682985614e+00 -7.5698884632407970e-01
    2.4254194378258087e+00 -9.0605786264552546e-01
    2.4396061357155943e+00 -1.0605111837619574e+00
    2.4137525010512797e+00 -1.0781177688004253e+00
    2.5970082492096758e+00 -8.8831764310457317e-01
    2.8154654994480355e+00 -6.9033138870845723e-01
    2.6079497492673704e+00 -7.2566881805095496e-01
    2.5502710563773112e+00 -7.3754900947535151e-01
    2.5484506244663185e+00 -7.7447035551416854e-01
    2.5740556602745186e+00 -9.3712849796022080e-01
    2.4396980178034773e+00 -1.0551004914675974e+00
    2.4141514292073185e+00 -9.8465917805012093e-01
    2.5730917836038425e+00 -7.9900885029993252e-01
    2.7928912092934657e+00 -6.3450174787053348e-01
    3.7854111970845845e+00 -5.5507141962763795e-01
    5.5063828685426248e+00 -4.5055805401874371e-01
    8.4620738833952043e+00 -3.8571247485551657e-01
    9.1897488544005590e+00 -4.4996913496351143e-01
    4.7982660575218530e+00 -5.1648051168243547e-01
    3.2181401129689200e+00 -6.5898753052152814e-01
    2.4672006288170607e+00 -7.4838138183318703e-01
    2.4134698532407577e+00 -8.9857913644283349e-01
    2.4271674170269169e+00 -1.0632729444418434e+00
    2.4193514021987483e+00 -1.0741892728189466e+00
    2.6031140900124945e+00 -8.8755986058634495e-01
    2.7236036179206224e+00 -7.5170206724379374e-01
    2.4439404304905157e+00 -7.7078558156094046e-01
    2.4248582354330268e+00 -7.8668333734145468e-01
    2.5197561827176820e+00 -7.9813498541772354e-01
    2.5963789282031966e+00 -9.0991855363379637e-01
    2.4381422567360760e+00 -9.9348817151920310e-01
    2.4329166814117706e+00 -9.1455783127098655e-01
    2.5864619201944072e+00 -7.5271415680406661e-01
    2.8165338351052025e+00 -6.0898857257999206e-01
    3.7999963094858820e+00 -5.3547517056449634e-01
    5.4640150701348995e+00 -4.3956648408515353e-01
    8.2127996423463880e+00 -3.8011907956474950e-01
    9.6007874916596627e+00 -4.4427175996039431e-01
    5.0484188038008888e+00 -5.0445177240818861e-01
    3.3194797287452729e+00 -6.4917081175769809e-01
    2.4930266789956033e+00 -7.3874393723029963e-01
    2.4103195738255221e+00 -8.9224642099721529e-01
    2.4240768138163817e+00 -1.0868783625022151e+00
    2.4392360646539615e+00 -1.1224256291667758e+00
    2.6092577929706922e+00 -9.5117231544833492e-01
    2.6784948682649898e+00 -8.5906470627927045e-01
    2.4066355750118205e+00 -8.6749084246180697e-01
    2.3977332617055089e+00 -8.9038321035613721e-01
    2.5031011309112348e+00 -9.2020872693179701e-01
    2.6011807668876381e+00 -1.0064649896864435e+00
    2.4745970874306096e+00 -1.0378637518091314e+00
    2.4600691574217102e+00 -9.1265448379869663e-01
    2.6096496326564838e+00 -7.3323934603581165e-01
    2.9005333989080615e+00 -6.0062120946237418e-01
    3.9128476000966050e+00 -5.2611330122422439e-01
    5.6418471109412351e+00 -4.3688852356318691e-01
    8.3883197967380880e+00 -3.7963196035118552e-01
    1.0148863461391940e+01 -4.3791119110778154e-01
    5.2493944757379021e+00 -4.8721890840201665e-01
    3.4175858168977289e+00 -6.2531180667983854e-01
    2.5348798912665931e+00 -7.1880367749633090e-01
    2.3878721842766897e+00 -8.8070900114081740e-01
    2.3595108735862893e+00 -1.1201281686075557e+00
    2.3725644964862043e+00 -1.2078187195686318e+00
    2.4702500222307862e+00 -1.0951413702577895e+00
    2.4467890328371333e+00 -1.0521785937853567e+00
    2.3448798488160683e+00 -1.1076055289960143e+00
    2.3799496420684827e+00 -1.1663839938648770e+00
    2.4036267065524157e+00 -1.1753956874845701e+00
    2.5019327310412667e+00 -1.2523659998842576e+00
    2.4329697419573786e+00 -1.1935919899993725e+00
    2.3952598680002319e+00 -9.7517194255911743e-01
    2.5670852855906188e+00 -7.4535783917738352e-01
    2.9173784807485830e+00 -6.0615859936846350e-01
    3.9369270849213125e+00 -5.1833484915984696e-01
    5.6491475018253032e+00 -4.3165483488519912e-01
    8.3426538325143849e+00 -3.7204196680358192e-01
    1.0816180072211074e+01 -4.4370044039241241e-01
    5.4785456304051063e+00 -4.7830170016024132e-01
    3.5055350278895236e+00 -6.1561160633110878e-01
    2.5548588266848968e+00 -6.9983097163397368e-01
    2.3996015934662021e+00 -8.5575277216662238e-01
    2.3493378844161472e+00 -1.1396267334143446e+00
    2.3834538605189568e+00 -1.2778557094595016e+00
    2.4217814900712185e+00 -1.2006170750977101e+00
    2.4144188388943841e+00 -1.2070256707698570e+00
    2.3880391546421049e+00 -1.3378583609085217e+00
    2.4262016397473891e+00 -1.4433661630307630e+00
    2.4249644177527769e+00 -1.4333162527775833e+00
    2.4882331635594510e+00 -1.4918637332014208e+00
    2.4360570934764660e+00 -1.3682212176791511e+00
    2.3587915842873461e+00 -1.0502118707358088e+00
    2.5319215539818005e+00 -7.7637129159177143e-01
    2.8903880181333390e+00 -6.2491059041117092e-01
    3.8552359968230907e+00 -5.2411647009556017e-01
    5.5223688725383910e+00 -4.3096135711953354e-01
    8.1811426029454708e+00 -3.6712289605336157e-01
    1.1132476381678391e+01 -4.4085636184986415e-01
    5.7561959138783019e+00 -4.7205456189037137e-01
    3.6221650805072976e+00 -6.0302993944983863e-01
    2.5882098670170048e+00 -6.8485469392758569e-01
    2.4066495881857608e+00 -8.3786940633763229e-01
    2.3554995770036777e+00 -1.0884989491497727e+00
    2.3845825276299308e+00 -1.1974455291018911e+00
    2.4205862213399900e+00 -1.0943618723277651e+00
    2.4176576285495344e+00 -1.0582481068347451e+00
    2.3550151216724955e+00 -1.1377928709785206e+00
    2.3166017067289535e+00 -1.1815524200472851e+00
    2.4112126729290422e+00 -1.2501456845643846e+00
    2.4967488615196194e+00 -1.3713948034157126e+00
    2.4515951172074999e+00 -1.3222298501346512e+00
    2.4242633638376456e+00 -1.0381439960246917e+00
    2.5679869138752616e+00 -7.6786663003597322e-01
    2.8664635204767177e+00 -6.2250531828557742e-01
    3.6854928380070784e+00 -5.2818173420052794e-01
    5.2398012667340970e+00 -4.4487546602662953e-01
    7.8595214143312653e+00 -3.6150174318697914e-01
    1.1159007760056582e+01 -4.4368320275624779e-01
    5.9906543448426355e+00 -4.6699467627781238e-01
    3.7269474107371847e+00 -6.0272523410095813e-01
    2.6042280276364607e+00 -6.8116636219921689e-01
    2.4086111156129664e+00 -8.3403789925268412e-01
    2.3526665443857682e+00 -1.0421906198559323e+00
    2.3942629335624983e+00 -1.0869843638350705e+00
    2.5633738520002924e+00 -9.1848320369057368e-01
    2.6881202570872738e+00 -8.3399012368836778e-01
    2.5185517240187454e+00 -8.4354056913505626e-01
    2.4363137598193672e+00 -8.8724537185859353e-01
    2.4918791121405679e+00 -9.4939161338998623e-01
    2.4877631091725481e+00 -1.0654197481763525e+00
    2.3741718449839615e+00 -1.1008545068884175e+00
    2.4374060500132519e+00 -9.4235407257335779e-01
    2.6107864573592980e+00 -7.3441095758311647e-01
    2.7724195024798157e+00 -6.1068698230350082e-01
    3.4783318590682946e+00 -5.3896895220342089e-01
    4.8913280612371235e+00 -4.5899502438205186e-01
    7.6441547185089682e+00 -3.6791574254191767e-01
    1.1016121636462218e+01 -4.5223278304067527e-01
    6.2322252068185877e+00 -4.6638180370562288e-01
    3.8464433553012216e+00 -6.0430423351765605e-01
    2.6444638589650573e+00 -6.8325385043892595e-01
    2.4256106357859304e+00 -8.4727115481249937e-01
    2.3758690644994793e+00 -1.0548831682992579e+00
    2.4329439089651093e+00 -1.0626493227652860e+00
    2.7023037496694693e+00 -8.5345737984954373e-01
    2.8136199541989009e+00 -7.0611479173188030e-01
    2.6231142870538893e+00 -7.3116817710994264e-01
    2.5390276658430366e+00 -7.7807583430627913e-01
    2.6151578403065256e+00 -8.1034303932750007e-01
    2.5047194523755296e+00 -9.6991870524310775e-01
    2.3649723209112694e+00 -1.0619462605385472e+00
    2.4570022499906488e+00 -9.3423901353334138e-01
    2.6262340284688772e+00 -7.4560514601103911e-01
    2.7474075567763845e+00 -6.2376611869437659e-01
    3.3280018185298355e+00 -5.5325441756160787e-01
    4.6295107788796717e+00 -4.8195505399805849e-01
    7.3540203555514854e+00 -3.7978809444384354e-01
    1.0675075744687462e+01 -4.4600148821660135e-01
    6.4320445989769786e+00 -4.6288467326615518e-01
    3.9646577474361395e+00 -6.0132932120282045e-01
    2.6833826439207393e+00 -6.8712550172458675e-01
    2.4269207343684989e+00 -8.6891324680927329e-01
    2.3610266932313624e+00 -1.0954810293085946e+00
    2.4493881936978110e+00 -1.0976706160482190e+00
    2.7070395338685223e+00 -8.5597717710143828e-01
    2.7998930930952683e+00 -6.7150610690506840e-01
    2.6095431193020739e+00 -7.1352496593677561e-01
    2.5819598617354118e+00 -7.5112401919027205e-01
    2.6133638838044617e+00 -7.6175792670057829e-01
    2.4981663385581179e+00 -9.4401013320719873e-01
    2.3478406104853309e+00 -1.0805158279502329e+00
    2.4289519184045232e+00 -9.6220399029763293e-01
    2.5948768502852366e+00 -7.5832960403087790e-01
    2.7210182102225136e+00 -6.3577362506511648e-01
    3.2098051534552496e+00 -5.6282658845743516e-01
    4.3898126968419389e+00 -4.9489444141158040e-01
    6.8677049328262898e+00 -3.7636134043562358e-01
    1.0519352488222570e+01 -4.4231028438318210e-01
    6.5544571206841447e+00 -4.7044675251061258e-01
    4.0309345350975185e+00 -6.2055938196595850e-01
    2.7000089112636689e+00 -7.1597263948157974e-01
    2.4304531443099902e+00 -9.3251474213601504e-01
    2.3905985008710777e+00 -1.2050905526392732e+00
    2.5036628265825644e+00 -1.2323277235733694e+00
    2.6439347440747398e+00 -8.9783087382974380e-01
    2.8015890429038861e+00 -6.8792747183405778e-01
    2.7023767089667619e+00 -7.2538401857722767e-01
    2.6177026177678067e+00 -7.4073438937834923e-01
    2.5910815947188488e+00 -7.5938717173135595e-01
    2.5037690455795811e+00 -9.5637628339562586e-01
    2.3223876690840419e+00 -1.0810942667528660e+00
    2.4149702450132904e+00 -9.8876184231433684e-01
    2.5948178473259649e+00 -7.7347723263116186e-01
    2.7177398734375071e+00 -6.4790671011386525e-01
    3.1988254906867288e+00 -5.7183343616271287e-01
    4.3337452030214214e+00 -4.9550155316201872e-01
    6.6697590405219271e+00 -3.7802996016680007e-01
    1.0673844229329628e+01 -4.4107478500617170e-01
    6.4061847414208932e+00 -4.7107257636873678e-01
    3.9304697906075705e+00 -6.2762851109421403e-01
    2.6621944572339920e+00 -7.3942992110378258e-01
    2.3868607087265370e+00 -9.8345824087973388e-01
    2.4254214047837341e+00 -1.3523137633513547e+00
    2.5089355906970741e+00 -1.3840440950180541e+00
    2.5715039948441505e+00 -9.9018923946444881e-01
    2.7671172015267347e+00 -7.2890721318370932e-01
    2.6235013924751653e+00 -7.2660098252061944e-01
    2.5595206020642403e+00 -7.3775305736837615e-01
    2.5846240943117902e+00 -7.7333625557295360e-01
    2.4836608225863901e+00 -1.0000473592711903e+00
    2.3227043106659475e+00 -1.1049455738517320e+00
    2.4187475248404500e+00 -1.0054262437794534e+00
    2.5660309194197848e+00 -7.8306862450935277e-01
    2.7050350367866050e+00 -6.6044666156900589e-01
    3.2671741648132393e+00 -5.8048304679704643e-01
    4.4486566958227822e+00 -4.9274391123290101e-01
    6.7580302964236010e+00 -3.8535584641103249e-01
    1.0968711210505088e+01 -4.4084859470430665e-01
    6.9596092017702968e+00 -4.5909341523687014e-01
    4.2147138726640998e+00 -6.0539725576214054e-01
    2.7710143091946886e+00 -7.1736673766233139e-01
    2.3969500382432685e+00 -9.5712127537513159e-01
    2.4369826088135458e+00 -1.3923182142511614e+00
    2.5247678705348440e+00 -1.5010983188182307e+00
    2.5440817990312792e+00 -1.1305700421293261e+00
    2.7898576517519111e+00 -8.4594473009888871e-01
    2.6769854975245435e+00 -7.5801302351037836e-01
    2.6479258845032714e+00 -7.6750150077434842e-01
    2.6679301118987433e+00 -8.8774686210520670e-01
    2.4662371829826237e+00 -1.0830963148723414e+00
    2.3830885253416945e+00 -1.1864675314985555e+00
    2.4443262617425026e+00 -1.0204371897173310e+00
    2.5111802243154315e+00 -7.8967788397883143e-01
    2.6755586346568623e+00 -6.7375013774434611e-01
    3.4233120953362222e+00 -5.9181843504606291e-01
    4.7883975685829148e+00 -4.8004378180766183e-01
    7.1507625277035247e+00 -3.9234347412859810e-01
    1.1514007968233720e+01 -4.5422564768402840e-01
    7.5885854864757638e+00 -4.5563025080924141e-01
    4.6329264935273624e+00 -5.6699114775794979e-01
    3.0165633800824931e+00 -6.7439852934549027e-01
    2.5032007577770705e+00 -8.9277367103439043e-01
    2.4487741368818199e+00 -1.3217562661450819e+00
    2.5295114313130442e+00 -1.5577356321844420e+00
    2.4946439716261732e+00 -1.3490643802609894e+00
    2.5463202593755416e+00 -1.1652954690044453e+00
    2.5561006641035551e+00 -1.0896654665462839e+00
    2.5800306668555488e+00 -1.1177395621978152e+00
    2.5700285526999385e+00 -1.2305901962323016e+00
    2.4701108000955045e+00 -1.3560794855692073e+00
    2.5177998148034666e+00 -1.3922649442292758e+00
    2.5090900919964909e+00 -1.0472803621702922e+00
    2.5198270457590470e+00 -8.1557534538074072e-01
    2.7819895362150477e+00 -7.0494398993255791e-01
    3.5436928809944965e+00 -6.1044711475664182e-01
    4.8833354226608296e+00 -5.0055035319698293e-01
    6.9980039644066707e+00 -4.0559367720162315e-01
    1.1448568079348298e+01 -4.4011625707776114e-01
    8.1426361295645915e+00 -4.4267016438939238e-01
    5.1117970325024444e+00 -5.2040691000728534e-01
    3.3422122489481656e+00 -6.0349871113082010e-01
    2.6812085149079001e+00 -7.7789378129998688e-01
    2.4414201205766748e+00 -1.0885355148171971e+00
    2.5011367933206157e+00 -1.3810516364573555e+00
    2.4049902751931964e+00 -1.3769998469296101e+00
    2.3400388487320836e+00 -1.3314335773077854e+00
    2.3348338737499650e+00 -1.4075009315482059e+00
    2.3229564653702401e+00 -1.3837828101091287e+00
    2.3401098773203035e+00 -1.3579979367751360e+00
    2.3847724808422632e+00 -1.3935928805788365e+00
    2.4490308135974730e+00 -1.2458957570898554e+00
    2.5409448829467154e+00 -9.2257698532822441e-01
    2.7169885291736531e+00 -7.2559266763940533e-01
    2.9560946083178150e+00 -6.2739787305197459e-01
    3.4278223694579255e+00 -5.4312998450142502e-01
    4.4935562805231060e+00 -4.8558915920337636e-01
    6.3232594922299858e+00 -3.9676814512472625e-01
    1.1410614948073880e+01 -4.2840478421180528e-01
    9.6529300750675553e+00 -4.4433541872079924e-01
    6.9949110804733658e+00 -4.6849770898077497e-01
    4.7332765535792998e+00 -5.0122507798440463e-01
    3.5662955075752496e+00 -6.1984028912902955e-01
    2.7393833795298570e+00 -7.8432309517098364e-01
    2.6173083294035280e+00 -9.1583757721966486e-01
    2.5784768632004389e+00 -9.9445640624073384e-01
    2.4222896643125424e+00 -1.0815705352874152e+00
    2.3445442439574133e+00 -1.1919046798664381e+00
    2.3434747458159610e+00 -1.1561737160579693e+00
    2.4489540940954266e+00 -1.0326028032530254e+00
    2.5958396221005833e+00 -9.5856845977483307e-01
    2.6672393491066630e+00 -8.3620572028736284e-01
    3.1279711722867152e+00 -6.8186166736072673e-01
    3.6458817115610498e+00 -5.6213863819557841e-01
    3.8797324952022811e+00 -5.0794963981473928e-01
    4.4245214195645577e+00 -4.6597306285188195e-01
    5.5717492027616569e+00 -4.3887006203208645e-01
    7.5195658700520989e+00 -3.9981195632168404e-01</input_scale>
  <output_scale>
    5.2631578947368418e-01 4.9999999999999994e-01 5.2631578947368418e-01
    4.9999999999999994e-01 5.2631578947368418e-01 4.9999999999999994e-01
    5.2631578947368418e-01 4.9999999999999994e-01 5.2631578947368418e-01
    4.9999999999999994e-01 5.2631578947368418e-01 4.9999999999999994e-01
    5.2631578947368418e-01 4.9999999999999994e-01 5.2631578947368418e-01
    4.9999999999999994e-01 5.2631578947368418e-01 4.9999999999999994e-01
    5.2631578947368418e-01 4.9999999999999994e-01 5.2631578947368418e-01
    4.9999999999999994e-01 5.2631578947368418e-01 4.9999999999999994e-01
    5.2631578947368418e-01 4.9999999999999994e-01 5.2631578947368418e-01
    4.9999999999999994e-01 5.2631578947368418e-01 4.9999999999999994e-01
    5.2631578947368418e-01 4.9999999999999994e-01 5.2631578947368418e-01
    4.9999999999999994e-01 5.2631578947368418e-01 4.9999999999999994e-01
    5.2631578947368418e-01 4.9999999999999994e-01 5.2631578947368418e-01
    4.9999999999999994e-01 5.2631578947368418e-01 4.9999999999999994e-01
    5.2631578947368418e-01 4.9999999999999994e-01 5.2631578947368418e-01
    4.9999999999999994e-01 5.2631578947368418e-01 4.9999999999999994e-01
    5.2631578947368418e-01 4.9999999999999994e-01 5.2631578947368418e-01
    4.9999999999999994e-01 5.2631578947368418e-01 4.9999999999999994e-01
    5.2631578947368418e-01 4.9999999999999994e-01 5.2631578947368418e-01
    4.9999999999999994e-01 5.2631578947368418e-01 4.9999999999999994e-01
    5.2631578947368418e-01 4.9999999999999994e-01 5.2631578947368418e-01
    4.9999999999999994e-01 5.2631578947368418e-01 4.9999999999999994e-01
    5.2631578947368418e-01 4.9999999999999994e-01</output_scale>
  <inv_output_scale>
    1.8999999999999999e+00 -9.4999999999999996e-01
    1.8999999999999999e+00 -9.4999999999999996e-01
    1.8999999999999999e+00 -9.4999999999999996e-01
    1.8999999999999999e+00 -9.4999999999999996e-01
    1.8999999999999999e+00 -9.4999999999999996e-01
    1.8999999999999999e+00 -9.4999999999999996e-01
    1.8999999999999999e+00 -9.4999999999999996e-01
    1.8999999999999999e+00 -9.4999999999999996e-01
    1.8999999999999999e+00 -9.4999999999999996e-01
    1.8999999999999999e+00 -9.4999999999999996e-01
    1.8999999999999999e+00 -9.4999999999999996e-01
    1.8999999999999999e+00 -9.4999999999999996e-01
    1.8999999999999999e+00 -9.4999999999999996e-01
    1.8999999999999999e+00 -9.4999999999999996e-01
    1.8999999999999999e+00 -9.4999999999999996e-01
    1.8999999999999999e+00 -9.4999999999999996e-01
    1.8999999999999999e+00 -9.4999999999999996e-01
    1.8999999999999999e+00 -9.4999999999999996e-01
    1.8999999999999999e+00 -9.4999999999999996e-01
    1.8999999999999999e+00 -9.4999999999999996e-01
    1.8999999999999999e+00 -9.4999999999999996e-01
    1.8999999999999999e+00 -9.4999999999999996e-01
    1.8999999999999999e+00 -9.4999999999999996e-01
    1.8999999999999999e+00 -9.4999999999999996e-01
    1.8999999999999999e+00 -9.4999999999999996e-01
    1.8999999999999999e+00 -9.4999999999999996e-01
    1.8999999999999999e+00 -9.4999999999999996e-01
    1.8999999999999999e+00 -9.4999999999999996e-01
    1.8999999999999999e+00 -9.4999999999999996e-01
    1.8999999999999999e+00 -9.4999999999999996e-01
    1.8999999999999999e+00 -9.4999999999999996e-01
    1.8999999999999999e+00 -9.4999999999999996e-01
    1.8999999999999999e+00 -9.4999999999999996e-01
    1.8999999999999999e+00 -9.4999999999999996e-01</inv_output_scale>
  <weights>
    <_>
      1.3772883301585057e-03 -2.7585535504054373e-03
      -1.2251682751154956e-02 -5.5110823697477246e-02
      -8.8592271967222035e-03 1.1784992595881836e-02
      2.9285756967262769e-04 8.7365757694421523e-02
      2.4795014052918216e-02 -4.5797442909748402e-02
      4.9241379998833656e-03 4.7011718354402057e-02
      -5.4959079548038319e-03 2.2851575029813723e-02
      -2.3638962530828721e-02 -6.1055802887883440e-02
      -3.4231013052210932e-03 1.6723427210068215e-02
      -2.3930691239537810e-02 -2.4862590728548045e-02
      -6.2474111386205108e-02 -1.2741601223266095e-02
      7.1774745820222131e-03 -9.3765169478778991e-03
      -1.0793583332448953e-02 4.1269186494349248e-02
      1.2964539284101814e-02 1.1485089978911905e-02
      -6.2616727366995653e-03 -1.9323557899902335e-02
      -6.7991300865383993e-03 -1.6652919224636811e-02
      -1.5971042073095590e-02 9.5356479410350723e-03
      -3.2848142151906894e-02 -2.2791527710693309e-02
      -1.7582594678180751e-02 -4.4218812889377616e-02
      -1.0454471301737850e-02 1.1342648268702194e-02
      4.5379741450818710e-02 2.4232765854995640e-03
      8.8339383352599010e-03 1.3457984060030853e-02
      -2.3646370078169811e-02 -1.0675364127690575e-02
      1.3580340857824563e-02 9.9845635395754192e-03
      -8.6359796474756237e-03 -6.7530413665738273e-04
      -2.3220487468757916e-02 -2.7670000385795705e-03
      2.0623593527414958e-02 -2.5769749601346564e-02
      7.1429564638634630e-03 -2.9339207274465581e-02
      -2.1051621079203214e-03 9.1648047780444261e-03
      -7.1176710548534715e-03 1.4656935464338069e-02
      2.2942331150745004e-03 -1.5888208269508668e-03
      2.2356627192260732e-02 1.9447151173404568e-02
      -2.7618622076242428e-03 -1.2547137053679875e-02
      -6.8111929461668469e-03 -1.1589862901929216e-02
      8.3391054336681113e-03 1.3082155014174531e-02
      -1.4129172362000216e-03 1.9367573386760858e-02
      4.8473199968909007e-03 -1.7943501603723374e-02
      -7.1400128905175905e-03 2.8555307947089548e-02
      2.1086490842434302e-02 8.8336932562975475e-03
      1.2568512538294855e-02 -1.1597695948238304e-02
      8.7726954010658546e-03 -9.0328885631155865e-03
      -1.4789942367619680e-02 -1.7011296811131001e-02
      -2.9306885147693900e-02 1.2914770902249821e-02
      -1.5130371271450604e-03 -1.5770949916433116e-02
      -5.2161897708428333e-04 2.5219796613266544e-02
      5.0179921432957336e-03 1.3354581001716206e-02
      -1.7871743033788610e-03 1.3781391389496390e-02
      6.6478767400751752e-03 -2.5254505769964533e-02
      -4.6693844423720916e-03 -2.3120913503153824e-02
      -1.7730206643547027e-02 -1.4064702714089531e-02
      1.5748056453799202e-03 -1.9135802363487123e-02
      -2.3269590136899932e-02 -1.5475983117631409e-02
      3.0381523287158856e-02 -3.4224098344783640e-03
      -6.7343051720100610e-03 3.0173065244530502e-02
      -3.4927566024924153e-02 -3.9893944647852739e-03
      3.3051286412437340e-02 4.0821645668137514e-02
      9.3874155789427493e-03 1.2647039742136249e-02
      2.2704543959897656e-03 5.1665154393065946e-03
      1.1630771148180110e-02 7.1104256743823738e-03
      -1.0915143554034414e-02 -3.3548102662905891e-03
      -9.3263887570423625e-03 1.2598209536635617e-02
      8.7292753360600200e-03 3.6437551803015646e-02
      -1.3562339493139871e-02 -2.8619747964110539e-02
      2.2829251960183941e-02 6.9011336037710586e-03
      3.2339847407529699e-03 -1.3531048666463286e-02
      -2.2611411202326704e-04 -1.3255500134478040e-02
      -3.9848740944865282e-03 1.0884105282939925e-02
      8.5962482696331603e-03 4.0124594270682561e-03
      1.2213685340686616e-02 -5.8620297643278132e-03
      -4.0842653309534271e-03 2.5298739683109122e-02
      1.7089894257522852e-02 -2.2341781369910720e-03
      1.6796858866733556e-03 4.3706260834799554e-03
      -1.0680944939708463e-02 -6.0480304675296194e-03
      2.5821531529943462e-03 -2.9280279019878650e-02
      -3.6381614357788562e-02 1.7944150536695402e-02
      -1.6816922831915226e-02 -2.2125086031748967e-02
      -7.1057208250860744e-03 1.9511612518057202e-02
      2.2861637537379318e-03 1.5924170808329575e-02
      -6.1838905206238115e-03 -6.9737413526544572e-03
      1.4653761991756543e-02 -7.5700066467119442e-03
      4.7155542839173994e-03 -1.9338766267293635e-02
      -1.4025727591111838e-02 -1.3646304409983623e-02
      1.9273609530360669e-03 -6.8440402236274829e-03
      -1.1176622323329614e-02 -2.4649539547954347e-02
      1.1670715425066031e-02 7.6789359725162659e-03
      -8.5895613069182364e-03 1.8801899144221156e-02
      -3.8717602160987963e-02 -1.6715060727807391e-02
      2.7801218720449879e-02 3.3040990577086801e-02
      2.4342435938813890e-02 5.6442211902818940e-04
      4.2714930742937113e-03 5.2542870298173993e-03
      -6.4210657107035152e-03 3.4632985982108520e-03
      -2.5182277181291790e-03 1.9704130198242039e-04
      -6.5690340723538986e-03 -8.2356872245564262e-04
      1.7508720406953161e-02 2.8999257600731004e-02
      -1.9554893853254290e-03 -8.9201323717964780e-03
      1.5653992069433745e-02 2.6660815455061819e-02
      2.0207679131001566e-02 -1.4761946590801836e-02
      2.9296311580071194e-03 -1.8198804408752368e-02
      -7.6767203548003581e-03 1.0012217532195750e-02
      -6.1549437823994720e-03 -2.3290261631946241e-02
      2.3566979430520597e-02 -1.1413330921866834e-02
      5.0542250307061085e-03 3.5372932854958093e-02
      9.2239722693423110e-03 -4.5184990061273054e-04
      9.1758943385214248e-03 1.2746798784493045e-02
      -1.5855025526812182e-02 3.9349628398945838e-03
      -2.1403689619878229e-02 -1.5034780374161906e-02
      -3.4013921335733166e-02 2.1543615775839330e-03
      -2.3927648733138769e-03 -1.4672304109721070e-02
      -1.7825536801283497e-02 2.2414082924986992e-02
      -8.1685001869951229e-03 1.5835906460867955e-02
      7.4364106838398199e-03 -9.5183288255587199e-03
      1.7979273850320374e-02 -8.5709971427860958e-03
      -7.1619018603417571e-03 -1.5969465876431884e-02
      -4.5489639229228393e-03 -1.1773237374503517e-02
      -1.2155070398492322e-03 -7.4984368271245926e-03
      -5.7746720403458220e-03 -4.1326421502240900e-04
      1.2229037746730405e-02 2.8501079614498374e-03
      1.9274460604598767e-02 1.7977577647511959e-02
      -9.7101320927359194e-03 -6.7925119030636501e-03
      1.1668891998809189e-02 3.0449632188788395e-02
      7.7717944972265579e-03 -5.7078769242618907e-03
      1.9606554576355414e-03 -1.2667391660663219e-02
      -5.3599224950687157e-03 -3.9017389804807574e-03
      7.4909703921712681e-03 -9.5758266466386341e-03
      -2.7603034550686190e-02 1.0132098686884000e-02
      2.6696867280756289e-04 3.5490249982082667e-02
      1.3382772131785582e-02 -2.3728336149717203e-02
      4.6505970586756019e-03 1.8719981897365373e-02
      2.0361671144507650e-02 -7.0213649111580435e-03
      1.0152280227666040e-02 -3.0836000588719010e-02
      7.6157058619818747e-04 4.7398602266720442e-03
      -2.3603573127337889e-02 -1.8104192929857273e-02
      1.9783662974016864e-02 -2.4962810060501380e-02
      -1.2454245919478621e-02 2.0643291076549358e-02
      -5.7458409587856423e-03 -1.9094518291908498e-03
      -5.8722410145768573e-03 9.9025459082576145e-04
      2.4555790388787715e-06 5.6843276628047446e-03
      -2.3756962342720973e-02 -5.7775233838184888e-03
      -1.5115849253358444e-02 -4.2976374072868865e-03
      -8.5937001846675687e-03 -2.2742673030543725e-02
      -9.4354593555337363e-03 3.0780516002859901e-02
      -4.2817915262174837e-03 2.3995954314485736e-02
      9.7045441644627306e-03 5.0611009270431495e-03
      -7.2271951458427524e-03 -1.7486480388154660e-02
      5.8396836708301820e-04 2.7072297112836802e-03
      -9.8270789412987190e-03 -1.7263785400473994e-02
      -1.9095519059552010e-03 -2.6741288571947804e-02
      -1.9961351944402322e-02 -4.4090621110470518e-03
      8.1631214932228139e-03 -4.5885451201397453e-04
      2.3532266426204304e-02 1.1615878784049842e-02
      -1.8272156700077882e-02 4.9752735908125617e-03
      1.0633229167248128e-02 1.5947090251204190e-02
      -5.0981299950195293e-03 -1.3022620501769559e-02
      -4.7807122607260687e-03 -1.0850629864001789e-02
      1.5273098880639829e-02 1.5994857761485883e-02
      -2.1878950903569876e-02 -2.1627904781377362e-02
      -4.4043586290208228e-02 1.5351461769000511e-02
      1.3771751547574585e-02 1.2552681221335883e-02
      -2.1313539499033750e-03 -3.0649052471090989e-02
      1.4533269813279018e-03 2.0343594919708382e-02
      4.6891831262429982e-03 -2.9702171116392555e-02
      9.0014150246549261e-03 -3.0087940253186653e-02
      8.4363398400259613e-03 -1.7710752645795469e-02
      -4.3671188096758504e-02 -2.5396071701116352e-02
      1.3593968817625545e-02 1.4418240105731492e-02
      -3.5815056008865510e-02 6.3838520127455917e-02
      -1.7500977620676266e-03 -3.1912042092141851e-02
      -6.4544148153401195e-03 -8.9218214464459357e-03
      -6.9233293137341652e-03 1.3268830629541350e-02
      1.9806205898962258e-03 -3.7255530081250618e-03
      4.8629144597824381e-03 -2.3049615377333934e-02
      5.9959089831508440e-03 -1.5963741229362755e-02
      -7.0337311011111634e-03 4.7318942966553937e-02
      -2.4136550290494978e-03 7.9561192593673689e-03
      -9.0328678024612868e-06 -2.0601665729516612e-02
      -2.8614683831853102e-02 -4.8443971494135122e-03
      -4.4923063519214823e-02 4.1056457922557521e-02
      -5.7584413808124801e-03 -1.0008167992141236e-02
      -3.1678231629508460e-02 -1.4376667084509269e-02
      1.9463211106630164e-02 1.9801902219121342e-02
      1.6266894502783378e-02 3.3191061752029848e-05
      2.7676067549763195e-02 1.8984985835605449e-02
      -3.7788020057686861e-02 -2.8669452658974685e-02
      7.8934377292029876e-03 1.5104092970900538e-02
      -3.9806006883523239e-02 2.4372225884754482e-02
      -3.4057974934196857e-02 -4.0416949825426388e-02
      4.1176869930070525e-02 9.5135779322905872e-03
      -8.2775379412699480e-05 -8.2928212490974759e-03
      -2.7420470704373326e-02 -7.3053184087219373e-03
      1.6348524912382832e-02 5.2180765047744174e-02
      -1.0348196939163140e-02 -3.3005075402086047e-02
      -9.4417717726546866e-03 3.6227774813078872e-02
      2.5493531697428660e-02 -5.6381960930604463e-03
      2.5822336634138139e-02 -4.1713681240211457e-02
      2.0332826410422006e-03 -1.9991445683384634e-02
      -2.6158725512702794e-02 -1.7594620114494260e-02
      -1.4227966695325734e-02 2.5448232863515500e-02
      -5.6305240483926162e-02 6.2628187300668534e-02
      -5.1681502424000721e-03 -1.7305853507537668e-02
      2.3823280003956318e-03 -9.6024549758323453e-03
      -2.9623087657609015e-02 1.8807327841911262e-02
      9.4704770896343656e-03 2.2064117626122013e-02
      6.1592232663347057e-04 -3.4347945829527181e-02
      1.6005721706889998e-02 3.8259037760889722e-02
      -2.6819066707401938e-02 3.6633756524182909e-02
      -1.7214695030292815e-02 1.7704301374170658e-02
      -1.1312788276621741e-03 5.1553440112328403e-03
      -8.5234508025367253e-04 1.3638015783896673e-02
      -3.4369526091520948e-02 -2.1368746589018085e-03
      9.7082612593667964e-03 -6.9792176282178155e-04
      -3.2063488471599975e-02 6.5713634387780081e-03
      1.9534053848226509e-02 2.3979734963231549e-02
      -1.8272207033685271e-03 1.4607717519286455e-02
      -5.1092208854536456e-03 3.0382757359925364e-02
      -3.3467240167880774e-02 -9.0541672463912270e-03
      1.6785475296677808e-02 6.4817001826601309e-03
      -7.4883877897157627e-02 -1.1374910823562846e-03
      -5.0726137495093825e-02 -6.2524281311765989e-02
      2.7752206033916368e-02 8.2729369409733754e-03
      2.6666234295559352e-02 6.2319986819798102e-03
      -2.3567879515518309e-02 -2.1208790856576121e-02
      2.0180929151482532e-02 7.3366277586649653e-02
      -2.7705182258972533e-02 -3.3790692266399934e-02
      -2.5921892425526210e-02 2.0356457933469720e-02
      1.4021460343998175e-02 7.2295080445562206e-03
      1.9768974843175628e-02 -2.2581168763817751e-02
      3.1412574207927237e-02 -7.1401224084441462e-03
      -2.0113788270985335e-02 -3.2098796962530558e-03
      2.6914102373291230e-02 2.5673366021323141e-02
      -4.9739386187355378e-02 1.8270790553512887e-02
      -1.6666595898449675e-02 -3.5566535291967987e-03
      -6.9625995913751731e-04 -6.8349212938322986e-03
      4.0065773324741306e-03 -1.2982772073687247e-02
      6.9542256319194669e-03 4.8157909540537745e-02
      1.6957839446422509e-03 -1.7700716813049040e-02
      6.9711437440467504e-03 3.2447088244695561e-02
      -1.7254079433229961e-02 2.3796830196227033e-02
      -1.4453337540239556e-02 -9.0903278743580639e-03
      -3.3095978083849784e-03 -2.4824731130810771e-02
      -2.2707367077697202e-02 -2.0759422810039920e-02
      -1.5219229400119081e-03 -4.5508339751749845e-02
      3.4703159175415499e-02 -3.0466961322186754e-02
      6.5652579515859547e-03 1.2207069893836157e-02
      4.0701589956566595e-03 -9.1467867007874828e-04
      -4.5105160324170335e-02 9.0682485174031456e-03
      1.2368397933439161e-02 1.1865282992823616e-02
      -3.1234278246468326e-02 2.5183267276536078e-02
      2.7129043236308128e-02 2.1330022305127150e-02
      -2.6234078242725899e-02 1.3618548812483202e-02
      -3.2054011973358769e-02 -4.3576041713773134e-02
      1.5240739386739855e-02 -2.0555113032943814e-02
      1.3064724085447661e-02 -4.6763058548210190e-03
      -4.3785573178988617e-02 1.8120407176566182e-03
      -3.1641235613512377e-03 2.5162267797886908e-02
      -2.6526133540306175e-02 -4.8808549117577080e-02
      3.8625814404741096e-02 2.4929013626030512e-02
      -4.6864206640209027e-03 2.1270747660812866e-02
      -1.9461131410468805e-03 3.8475106068356903e-04
      2.0972612566068739e-02 4.2501904811789296e-02
      4.3976855122323600e-03 6.6773095546255800e-03
      1.2544955844250897e-02 3.6196939674768988e-02
      -1.1360584701619408e-02 -1.7660731265482593e-02
      1.1127869107448592e-02 -2.7098186068286609e-02
      -3.2075603447473358e-02 9.5216747487272217e-03
      1.8586340699850799e-02 -4.4562112340033287e-03
      2.4812662118194784e-03 6.4620046988204324e-02
      1.0002545699025001e-02 8.0990657035483488e-03
      -1.0466336689693623e-02 1.4760438656077783e-02
      6.0674645516927389e-02 -4.5163471274259409e-03
      1.0781828811262269e-02 -6.4479146117750533e-02
      -9.4190515016744861e-03 -8.7700957221231429e-03
      -5.6838100528103421e-03 -3.7143780592270699e-02
      5.0215013018828740e-02 -4.0149167687725036e-02
      1.4155154012575444e-02 -1.3342279460875012e-02
      2.3656210623782911e-02 2.9960426580214482e-02
      -3.9864290615527924e-02 -2.1054399854677174e-02
      -7.0199342474214735e-02 1.1380296663675094e-02
      3.7806437757437007e-02 8.4073629208521357e-03
      -1.8341632654103084e-02 -1.9583329428472018e-02
      3.0438656062280092e-02 1.4634445261122491e-02
      2.2464065739449229e-02 8.6137590103936325e-03
      2.4037731297367256e-02 2.7999116912893102e-02
      1.2770022175182348e-02 1.7613131679678436e-02
      1.8703200632147832e-03 -7.2999072610398343e-03
      1.4123417392412076e-02 3.0554671440339153e-02
      -1.2179093932408812e-02 -1.4162732542520883e-02
      7.0462083769880111e-03 -3.8932543914249641e-02
      5.2566706431208768e-02 -2.1161002909369539e-03
      4.8493101922785373e-02 2.7731813333877163e-02
      -1.2864091765678549e-02 4.7065933634796019e-02
      -3.2531426413161249e-03 1.7886922294875141e-02
      3.7691200230332844e-02 4.6281833851114916e-02
      1.8278810613937036e-02 -6.2979209189227411e-03
      3.3017832856749051e-02 -3.6670574361964865e-02
      1.6119694456750691e-03 -1.0213036322465053e-02
      -3.2401461456429005e-02 -7.6204014806907281e-04
      4.0581628100660756e-03 2.4336643746098422e-03
      8.0134636570691163e-03 5.8962932591055811e-02
      -1.8783659688993181e-03 -2.1399545230692815e-02
      -7.7264873543519963e-03 4.7764659167971346e-02
      7.2125606166446685e-02 3.5898571918863494e-03
      2.3507881782141153e-03 -5.6824288328537205e-02
      9.2579608311370656e-04 -2.1194690414802965e-02
      2.5342956318516598e-02 -4.7229761840742977e-02
      -2.6057510110726066e-02 -2.9985956761946903e-02
      2.7983028427463523e-02 2.0566981796221916e-02
      9.3456508454689991e-03 1.4940301262352369e-02
      -2.6384365019878717e-02 -3.7131071465714274e-02
      -2.3969789024063593e-02 -4.7602192678913885e-02
      6.9464828483677132e-02 1.0447399757489088e-02
      9.4277888130804687e-03 -9.7697257203291799e-03
      -7.3749536688703932e-03 -1.5816998021982664e-02
      1.9017112682017379e-02 -2.9213763234164216e-02
      1.6419073068806037e-02 4.1497135636540831e-02
      -1.2823059729211819e-02 -1.8536786383836691e-02
      7.5836648048781558e-03 8.7835644751000502e-03
      2.4467145039070719e-03 1.6931709342851695e-02
      -4.9283329117562197e-02 -4.0511247193509230e-02
      4.6523044845769149e-02 2.1839337751135387e-02
      2.3250512229320053e-02 -6.5043885175602015e-02
      3.8900610627922244e-02 3.6945285946965230e-02
      -2.6127617596646960e-02 3.2797739328043515e-02
      1.2778500702262286e-02 8.8531891772346376e-03
      2.2012831201446561e-02 5.2977319411792408e-02
      2.8533302937190194e-03 -1.2014028447020429e-02
      8.5197213662384225e-03 -4.9395178643905531e-02
      -2.2703187431774071e-02 6.8811645469982804e-03
      2.6819604701569402e-04 -8.8679808644892780e-03
      4.3496778051398538e-03 5.7903887912241388e-03
      1.6285204706832528e-02 4.0682338649915308e-02
      -1.5130814233925278e-02 -4.3495995175607274e-02
      -2.0920575099265801e-02 4.9049678761162188e-02
      8.0096196946270320e-02 -4.0200456209786278e-03
      -2.9296063189359709e-03 -5.6027216440581437e-02
      1.3929441888357869e-02 -1.1926341839605876e-03
      1.8891808163787448e-02 -5.9910745291016067e-02
      2.9678250219423684e-03 -2.4432927525247488e-02
      5.2555130906346670e-02 -3.6433996975258218e-02
      7.8222925544284422e-03 1.8248669655533310e-02
      -3.0564779258834374e-02 -3.7369524718560983e-02
      -1.8985882214401919e-02 -2.7304268317849555e-02
      6.5967575387574848e-02 -6.2826893183453780e-03
      1.2593835568382563e-02 1.6903778145813422e-02
      -3.3277074824722586e-02 -7.2376718120922270e-03
      -2.3256075871748935e-02 -4.1629184794579929e-02
      1.6659317404405745e-02 4.0964168243832186e-02
      -3.4365461180380100e-02 -2.2932133667575939e-02
      1.4297947662285451e-02 1.4886833659030997e-02
      2.0111805810287646e-02 1.1265379906616562e-02
      -3.8044967455763593e-02 -4.5002635313060972e-02
      4.9557364194829388e-02 6.8416784101569391e-03
      3.9268360842751766e-02 -4.8440409433481407e-02
      1.3113090748341555e-02 4.9394653567931004e-02
      1.5456820802470881e-02 -5.0632025121533095e-03
      2.8429772912138933e-02 4.7920113270276824e-03
      3.1774794114891577e-02 1.5796443996285586e-02
      2.2973924325379737e-02 2.0987897988336706e-02
      -3.9782232997129470e-02 -1.5629975705411726e-02
      -1.1360603537883153e-02 1.1155538366136895e-02
      3.0488770062782517e-02 -1.1984163548218763e-02
      -3.6408129635741742e-03 3.9265642708238213e-03
      2.8080295571477541e-02 4.7738009652234599e-06
      -7.5486569515599410e-03 -3.0893455829697290e-02
      -1.6220615368449480e-02 3.6483048260746491e-02
      1.3034665365860135e-02 -1.2108055687743318e-02
      -9.7879621856528584e-03 -2.2546135473932753e-02
      3.6637205120463108e-03 -8.9808787879454705e-03
      6.7214386700539626e-03 -3.0724919764438269e-02
      1.3686160673147992e-02 -5.8136346633698835e-02
      3.1657036709339670e-02 1.8169528114702679e-02
      5.3997499666404818e-03 -6.1520309637933335e-03
      -1.7150577670774100e-02 -2.4678185911286798e-02
      -4.1612468589899136e-02 3.9800098892862762e-03
      3.4104111851350712e-02 2.3429907213255046e-03
      -5.0655182236480981e-03 3.4272225349208117e-02
      -1.4656231744603189e-02 2.9407786034239613e-02
      -3.1734355418830913e-02 4.7734562180568639e-03
      -2.1014948483392089e-02 1.7267232077136613e-02
      -3.4795126373932450e-02 7.7515553814444128e-03
      3.9005303230486482e-02 1.9539742551661923e-02
      3.0316817089617670e-02 -4.2363376705563155e-04
      -3.0408867091891150e-02 3.3135663413701344e-03
      3.8135403528453182e-02 2.5930850241544311e-02
      5.1769568071679671e-02 -3.8309795648082054e-02
      2.4724280149244953e-03 1.4153770905719006e-02
      4.3108957369213635e-02 -8.8966759739954261e-04
      6.0359888355558345e-03 -1.3942546097726764e-02
      4.1767191764715460e-02 -1.8656206358309976e-03
      -1.8109750081721287e-02 1.9571623920929020e-02
      -2.6384356580675828e-02 2.5140799732619574e-03
      6.1909918340367978e-02 3.3097210475566019e-02
      -1.2399003386812488e-03 -3.9159169717623704e-03
      -2.1800170604886603e-02 -1.8584532762380395e-03
      1.2297196511164080e-02 2.8539488522847632e-02
      2.4210680128712032e-02 -8.5126368728270091e-03
      6.3470036755706753e-03 4.5751645580706310e-02
      -5.0247847616726009e-02 -7.7610238232318392e-03
      1.7812910060283148e-02 2.6946812068162698e-02
      -2.5002148127955237e-05 -2.8044721230527186e-02
      1.6370215082315901e-02 1.9813701982604244e-02
      -7.6833117394267863e-03 -4.4927585494184921e-02
      -7.8454867907938233e-03 7.2871407728482593e-02
      -2.8920431280955106e-02 -2.2076112942288891e-02
      3.6525562775934196e-02 4.7914638542314175e-02
      -6.6964599029911656e-02 1.8241078113997722e-02
      1.4977116953701210e-02 4.7076228446703656e-03
      4.1222368030676346e-03 3.0892567618704753e-02
      3.0742836970567444e-04 1.3807754151409508e-02
      -3.2364138629728666e-02 1.5599557283341732e-02
      -4.5209566682099779e-02 -5.2235616508619735e-02
      -2.1794947694728261e-04 7.3090740050272126e-03
      1.2951434874567708e-02 -3.2511546271287825e-03
      -7.4186182747807312e-03 2.3974443868044565e-02
      -3.6156894491576802e-02 3.3761664384993624e-02
      4.1458251324696813e-02 7.8323275455018087e-03
      3.2134639647955959e-02 -1.8984705653081666e-02
      -3.2950571615187128e-02 1.1039207124224256e-02
      -1.3873476080559045e-02 -1.2022449143474286e-03
      -2.6206930807388548e-02 -3.2836598262382138e-02
      -1.9814275059191117e-02 3.7949303432424052e-03
      -4.9886954385824002e-02 3.6570310027077502e-02
      5.0664833941057022e-03 1.2005042253219149e-02
      3.5434293639574274e-02 -1.4495044063594874e-03
      -4.1816139452659849e-02 -1.7998297211011385e-02
      -9.8458597386126487e-03 1.0677698891739832e-02
      1.0331100827106617e-02 -9.5473708734323901e-03
      2.6266735425443527e-02 3.3325848866000464e-02
      2.7569177333835355e-02 2.4328023105564204e-02
      1.2755024206898162e-02 -1.9864311277225793e-02
      1.4532266012305915e-02 2.0900919944125341e-02
      -3.1157227492099711e-02 -3.1823559515724888e-02
      1.9893827389607446e-02 5.1120808180275611e-02
      2.1959161760997021e-03 5.8962662495476333e-02
      -4.7045562378122838e-02 4.4958961252859947e-02
      -4.5110782435701401e-02 -2.9217906478591581e-02
      1.3094371802246759e-02 3.9795717164310997e-02
      -1.9966905902598121e-02 3.0195758300475002e-02
      -1.0313488270747368e-02 -8.9179675482836170e-03
      -5.0945857032572454e-03 -1.7156906726608301e-02
      1.4584130971664701e-02 -3.0373597606905660e-02
      -1.9053214465416850e-02 3.8990429303421226e-02
      1.9658088899217291e-03 -2.4813060413782353e-02
      3.3688626753836097e-02 3.3987514274040468e-03
      -3.6598566667659760e-02 9.7605509875698798e-03
      -3.0963222029298100e-03 -1.3376928373104289e-02
      1.2664554866561321e-02 4.2671708299201871e-03
      2.7296364304529989e-03 7.1227280607039818e-03
      1.7635498230287427e-02 1.7395874317108945e-02
      -1.4186011700760377e-02 4.1873282711260118e-02
      -4.2757494894546791e-02 1.6556232566307390e-02
      -4.0144293009558546e-02 -2.6384080488823746e-02
      -3.6049235682635482e-02 3.6365316688354108e-03
      -3.4830492713475020e-02 3.3240233977870952e-02
      4.1048294322995213e-02 4.6580311250313478e-02
      -1.6259524885804184e-02 -4.6008725236559040e-03
      -4.6237495018599591e-02 -4.6382448442715664e-03
      -9.6028919201128909e-03 -1.2281789419753506e-02
      -1.0276717287654219e-02 -1.9747307361689406e-02
      2.6686543007078973e-02 2.7816506500973320e-02
      2.2300867768170467e-02 -1.4733220992277963e-02
      1.3850641711907244e-03 -4.1962035288916448e-02
      6.1771365176486136e-04 1.1529610561653894e-02
      -4.8120599504029846e-02 -2.2741176919855829e-02
      2.8106836354346819e-02 2.3267616368378981e-02
      1.5211033444969704e-02 6.9796957171163118e-02
      -1.2406616439114846e-02 3.9507189906535005e-02
      9.9077371474233979e-03 -8.8702241354777795e-03
      2.2276769601271416e-02 4.8544174091230703e-03
      -1.6797598334137392e-02 1.4229994413418065e-02
      -3.3527357687338097e-02 -1.0064721765906651e-02
      -1.5416722203508515e-02 -3.3359936613280794e-02
      2.9544526050599765e-02 -4.7664601414627167e-02
      -1.5977456484330987e-03 2.7764960765065756e-02
      -2.2537644318462054e-02 -2.3095112211487447e-02
      2.7965742653152673e-02 -3.0915488498957162e-02
      -2.6702330205236685e-02 1.7524131940782353e-02
      3.2374196573115861e-02 -1.9692222655240781e-02
      1.3560304398298167e-02 -6.8537362429562047e-03
      -3.2551193707172736e-02 8.7896789421953239e-03
      2.5284946339051300e-02 4.0166076553055020e-02
      -2.1822375211256781e-02 2.8067553767247611e-02
      -5.0411982955020432e-02 -9.1588383825925157e-03
      -2.9841721380531414e-02 -8.2533947726657758e-03
      -1.2680196470322383e-02 2.2107660328315021e-03
      -2.0181620246377412e-02 2.5168355911719263e-03
      4.6720496149319272e-02 9.0783915780078186e-03
      -1.2512936509025993e-03 1.1490390267386498e-03
      -2.0620947353717438e-02 -7.6346569583955375e-03
      1.6036772254853711e-04 -5.2535566946732499e-03
      2.9383781580221021e-03 -2.2927157889265304e-02
      2.0449541632705542e-02 2.0362489004051115e-02
      9.3152672862212241e-03 -1.2984494035984504e-03
      -1.7541869105119550e-02 -2.8343776455790188e-02
      -1.6011247785819555e-02 4.0663301994766907e-02
      -2.6575957040005222e-02 -8.1558505441700450e-03
      2.3956401353783009e-02 2.7318571547489467e-02
      1.9658567202176753e-02 4.4632959784879772e-02
      -1.7050249902641800e-03 1.6069949009157068e-02
      1.2697519474689141e-02 -3.5443828735546683e-03
      1.3522304959656978e-02 4.4132565367738397e-03
      -2.0879329922565963e-02 5.2873642809072585e-03
      -3.6361188915739064e-02 -3.2190813362675846e-02
      -2.9444239826745159e-02 -2.1585153479421668e-02
      3.7202917737971099e-03 -1.7349126174438279e-02
      -2.8172567882415378e-03 7.6198689146911068e-03
      -8.5964023783124174e-03 -1.1209670371544732e-02
      1.5551925186491520e-02 -2.4290853839095194e-02
      -2.0017203897579234e-02 1.4020903082502379e-02
      5.9722970671228955e-03 -4.0384815439265418e-03
      6.4497207214241018e-03 -1.7283820232513972e-02
      -1.7591058231935623e-02 -1.9953181234537046e-03
      1.5525047095754757e-02 3.0407134228504613e-02
      -3.2649384373073319e-02 3.9668685304196172e-03
      -4.8151091034861530e-02 7.9893279590599747e-03
      -9.7306549934877765e-03 5.8150782845710841e-03
      -1.2943545968759710e-02 1.2039639239712666e-02
      -9.6617730000040317e-03 -2.0986775712174426e-02
      1.9566193767723908e-02 5.6158076388286163e-03
      1.4531167361553216e-02 -9.8281192991763241e-03
      -7.4683581675076098e-03 -4.5740183869103102e-03
      7.8278057076330235e-03 -1.3531710984071037e-02
      1.2513596555000592e-02 -7.5374941782417135e-03
      9.3568340906098404e-03 1.8777202100786344e-02
      8.2051197865950845e-03 -1.3663926161657930e-02
      -2.6985486514328170e-02 -2.5421277989990974e-02
      -1.9346920995564391e-02 1.7888170976919041e-02
      -2.7782504203427327e-02 -1.1834104435208517e-03
      2.4340164555035709e-02 1.7381454316115118e-02
      7.9306575917821812e-03 3.2212521703090934e-02
      -2.1842179733800263e-03 9.4538315600757091e-03
      -2.5419735956606518e-03 -7.3559359564274668e-03
      1.9145684308794046e-02 -2.3128628678566274e-03
      -2.1175255171287249e-02 6.2151977048151693e-03
      -2.8107805294963255e-02 -1.7657038477982289e-02
      -3.7801611986105252e-02 -1.8958694163917204e-02
      1.1944121312475534e-02 -3.4248513569668346e-03
      6.5626872351816669e-03 4.7361115206237319e-03
      -1.4126563476563605e-03 2.0987940225488676e-02
      1.9776663702430374e-02 -8.7336995639499294e-03
      -2.0123927856931040e-02 -2.5691463519483984e-03
      -8.6137652724794962e-03 6.3676515404041800e-03
      4.7990516117964940e-03 -1.2894235821755714e-02
      -1.4112548160153162e-02 -9.3071421117146033e-04
      2.2442212217291441e-02 1.1793285255923321e-02
      -1.3451936647860954e-02 1.0817920795725369e-02
      -4.0954832797631971e-02 -1.4713597988041294e-03
      -1.4199908153094560e-02 1.7845575562383632e-02
      1.3897609100394749e-03 1.7137097644953997e-02
      2.4904246222338085e-03 -4.0078266440300670e-03
      5.5333619785267194e-03 7.2160035979469406e-03
      7.5369299794576057e-03 -3.7579832537966945e-03
      -1.2211718893305235e-02 -1.6405241115350772e-02
      1.4247447972830951e-02 -8.1595404217307335e-03
      1.2744137975779347e-02 -1.4893112117702834e-02
      -1.5129591449190058e-02 1.6473062042776848e-02
      -7.6363028600387860e-03 -2.1024384441075676e-02
      -1.8021171293351144e-02 1.0576682988684054e-03
      -1.8215638332310630e-02 2.6723770683528304e-03
      -1.8786410447853480e-02 1.1932478919495467e-02
      2.0308464065057798e-02 1.9968765870923222e-02
      7.1794501363164828e-03 3.2860800080323813e-02
      2.9185672984632506e-03 6.3319601002648608e-03
      1.1972266338550865e-03 3.8147438599596098e-03
      6.3001709821712566e-03 1.4920612079894063e-02
      -1.2690278619062592e-02 6.5334536293544894e-03
      -2.3071271636772740e-02 -8.5001951501069220e-03
      -2.9020542504021352e-02 -2.7785454497316349e-02
      -8.4726506861129668e-03 6.2689253149928606e-03
      1.4181578877128533e-02 3.2745129387314752e-03
      2.6834810161390902e-03 1.3702038651649796e-02
      6.1411480612999295e-03 -1.0435132422498329e-02
      -1.3290009082370933e-02 -4.4303553377371407e-03
      -3.3910927649171397e-03 1.4079996313880756e-02
      -3.6107470819444934e-03 1.3355641634194441e-02
      -2.7184905173772127e-02 9.3629811088958449e-03
      2.9249324555773327e-02 5.2972913003605021e-03
      -7.9913854482803002e-03 6.2182864201206257e-03
      -2.8191615364250088e-02 -2.0829773237543148e-02
      -5.6178705743071015e-03 5.5793321436611318e-03
      6.9593743496304261e-03 1.6070394956432869e-02
      4.8502204446418595e-03 -6.6006618846405083e-03
      8.3580625941803120e-03 1.2519420799446889e-02
      6.4231932020448286e-04 3.3421912384366185e-03
      -1.8551656792452815e-03 -5.0731633205826049e-02
      4.7158575680163418e-03 9.5537822148373790e-03
      -1.4613828005131668e-02 -2.3669093317420727e-02
      -3.4894040472724187e-02 1.5700530090527704e-02
      -1.6854245211062841e-02 -3.1859686007985152e-02
      -4.5489767842026290e-04 2.3468248583299645e-02
      -9.5924541859594859e-03 1.7681848878274040e-02
      -6.8389565835497192e-03 2.0408898384526024e-02
      2.6743843295752748e-02 3.4889650463562328e-03
      1.7711585987780017e-03 1.2411321362268636e-02
      -3.6416546627683925e-03 -1.2073596644598902e-03
      -8.8545152861779462e-03 -2.0733967428092213e-02
      -8.2032633914129738e-03 8.6421474121092922e-03
      2.1777219890701107e-02 3.8177609487322975e-03
      1.6308115532270039e-02 3.3516962730794236e-03
      -2.5186890139948789e-02 -1.5624093035241949e-02
      -9.2062106750312768e-03 2.0981310629541328e-02
      1.3030246741271318e-03 1.9077631358082655e-02
      9.3372993512914546e-03 1.5027216108048847e-02
      1.2936135346309203e-02 -3.4191268547571268e-03
      6.0078165921425414e-04 -1.0001634752421123e-02
      -5.7101156992317341e-03 2.5452593000869890e-02
      -1.5993999428648355e-02 3.6454095790628291e-02
      -1.8374477479358168e-02 1.8650962995639725e-03
      8.8605598074785047e-03 -9.2525664344885617e-03
      -3.7738058855507719e-03 9.2115200216957346e-03
      -9.2625369314922826e-03 -2.2353234897422082e-03
      -2.2197658845318088e-03 -3.7987347990099576e-02
      1.4608369584195445e-02 8.4737953570275248e-02
      1.0735175774748893e-02 -5.2258680841691665e-04
      7.2152354469319042e-03 8.7941737169539100e-03
      -1.1872837563975745e-02 2.8775774169086044e-02
      2.6524800406349607e-03 -9.5770630032574106e-02
      1.0426894876464461e-02 -1.2291505014907543e-02
      -2.6373427826941440e-02 -3.2492596915424637e-02
      -4.7678513461338196e-02 2.9533461478205604e-03
      1.8448068053074109e-02 -2.0825208451011315e-03
      -5.9252548648105596e-03 2.1073965792357388e-02
      -1.8252012291196208e-02 9.3734808789144725e-03
      1.9811320525074281e-03 -1.2559557903860492e-02
      -9.5397704138087491e-04 -2.3230945324465404e-03
      -7.9740819875586729e-03 6.2685130191685191e-03
      -1.9929774263134876e-02 -2.5012283903022129e-02
      -1.6794476322830793e-02 -4.3613773329488625e-02
      -3.4898215161020214e-02 6.9704619207225076e-03
      2.1823850771953514e-02 -2.0777594545877721e-03
      -8.3267019235341063e-04 -1.4520287436032019e-02
      -2.1934230003118692e-02 1.0364553923400350e-02
      -3.0705261205240298e-02 1.7623864779716909e-02
      -1.0806195860030721e-02 2.1345009500142308e-02
      5.3549114681657704e-03 -3.5554129884127900e-03
      2.0442216087149363e-02 -2.8143666655263286e-02
      -3.7038388825250072e-03 1.6224131652850429e-02
      -3.7782900381312053e-02 8.2290570836300713e-03
      -9.8988334144549592e-03 1.6104639754285104e-03
      -2.1830919769238299e-02 1.2729427193800673e-02
      9.4371482081394356e-03 1.2429118380217598e-02
      1.1417840826321654e-02 -1.9756482966529081e-02
      -9.2292284596932981e-03 -4.6106794425890239e-02
      -2.3554445692002862e-03 2.4277402640633817e-02
      -1.8805029274343484e-04 6.4734052121484656e-02
      1.3312523222679713e-02 -3.5543285573553608e-02
      6.8237689787826964e-03 5.1241160445235211e-02
      5.9199926133490137e-03 1.4905453138594836e-02
      -1.8726028481614327e-02 -5.4354232394424246e-02
      7.9312146835383689e-03 6.4628469287069537e-03
      -1.7032859767945684e-02 -1.7407151115403103e-02
      -6.2119614446866103e-02 2.7198498705729478e-03
      7.6636086914838109e-03 -3.7987675173624677e-03
      -6.7692358969746588e-03 3.1885185129176076e-02
      1.2028911929026258e-02 6.8198388298001972e-03
      -9.3012243504241518e-03 -1.9573784645880710e-02
      -7.3128578102624403e-03 -1.4844803735632676e-02
      -1.5147777060328591e-02 -1.1309039459017943e-02
      -2.7004389910905164e-02 -2.5087778539543948e-03
      -9.5576513812801987e-03 -2.4839916806381427e-02
      -5.8974953666363289e-03 2.5001526898689552e-03
      3.4885364850283929e-02 -5.8995239852659602e-03
      3.0180216679159044e-02 3.1043676184342832e-02
      -1.3860332374528404e-02 -1.0019006308680210e-02
      2.7720466021783734e-02 2.6071071120747202e-02
      -1.2670269589583106e-02 1.7801911725143900e-02
      -1.5741350164458125e-02 -7.2843165075418548e-03
      1.3599009254179615e-02 -2.4930425235490563e-04
      1.4668125798714599e-02 -2.2662881905573879e-02
      -1.1643079776642248e-02 1.1690487527884378e-02
      -3.8345947619210312e-03 2.8044217364391531e-02
      -4.1651031109779819e-03 -1.2352113599411886e-02
      1.4591475360752460e-02 4.2899621488158698e-03
      1.4902670165447232e-02 1.5498029111554781e-02
      -1.7563520897289190e-02 -5.2862795636849725e-03
      1.2819864531202473e-02 3.4283157891976421e-03
      -1.4541602351068963e-02 5.6911469896530793e-03
      1.9162386070407451e-02 -1.0034951469375537e-02
      -2.9349328450550338e-02 3.5021155327201951e-02
      5.7515793580370485e-03 1.0744090153575142e-02
      -6.7166837888506361e-03 7.2453039412375496e-05
      -1.4297498030109667e-03 -4.0357766755330622e-03
      -8.8893991042605074e-03 -2.2009302784245212e-02
      -3.6173243595786997e-02 1.5142854338369862e-02
      -1.2557037281956807e-02 -1.4391138669105614e-02
      -1.1780617145375163e-02 8.8724161961465809e-03
      1.2867659024040910e-02 4.0424701461563815e-03
      -1.7098932652956780e-02 -8.2078859881237892e-03
      1.3600160893116919e-02 -2.5096387643881855e-02
      1.6649381921006130e-02 -5.7358383182281869e-03
      -1.0720507689651550e-02 -3.3731303470969122e-03
      -2.5924637421198668e-04 3.0321259726371098e-03
      -1.0755744264687285e-02 -1.6410104092902788e-02
      1.3483781277448616e-02 9.9083381381320709e-03
      -1.1051587190780084e-02 2.3787804118497079e-02
      -1.6420537007802851e-02 2.2773549677021759e-02
      3.1685310257554618e-02 2.4365505353074569e-02
      6.1365912443858018e-03 -2.4098729097225633e-03
      3.5853431235628517e-03 -1.1278800407568467e-02
      -2.4597551178165808e-03 -8.2302498432655288e-03
      -4.7916820288952154e-03 -3.3386283070174316e-03
      -2.1177842529392192e-02 1.7862056843667845e-02
      3.2987888696725323e-02 1.0089366605763948e-02
      -1.8320930560934937e-02 -1.7767507865909995e-02
      3.6095541680159063e-02 6.7274274085272374e-03
      9.7305224681853032e-03 1.0553172309190829e-02
      -2.2211683870864089e-02 7.1770863287629709e-03
      1.3762619701840501e-02 -1.3494279078192596e-05
      -8.6724298973823114e-03 -1.8862309526591729e-02
      1.6704015150412109e-02 7.7176373152229461e-03
      -2.3375357007031704e-02 2.0340955000986760e-02
      1.4576746692153105e-02 -1.5854252102867502e-02
      -8.1740579000117372e-03 8.7212886840343506e-03
      -2.7142625827001957e-02 -8.3436470484239827e-03
      3.9876734479262817e-03 -2.3859298687001217e-02
      -3.7679343555038589e-02 4.2635835469785936e-02
      -1.4240183449405570e-02 -1.0928729341749021e-03
      -1.0957477358514685e-02 -1.7836867619245356e-02
      7.1384143323676603e-03 1.0990868350942807e-02
      -2.6321893242345278e-02 -1.8082871834864438e-02
      9.6324623323282010e-03 -7.9137041414259705e-03
      2.4626129356191417e-02 -1.2515046260188930e-02
      -1.1155321414111616e-02 1.0859130320278472e-02
      -5.7033616578838504e-03 8.8783308857248670e-03
      2.9662455463941428e-03 -3.4417069824015344e-02
      -2.0191694412610103e-03 1.7890949048187669e-02
      -7.8710606571721978e-03 1.6015275461757839e-02
      -2.1840204615203394e-02 2.8386826645445000e-02
      2.4433140782820769e-02 2.2744506137358234e-02
      2.2843267774707528e-02 5.2095803906741190e-03
      6.8954894385332708e-03 4.2627703138076666e-04
      -6.4678320335029319e-03 -8.2792110938900848e-03
      1.1376700803006541e-02 8.9643922890350163e-03
      -1.4495940820156365e-02 6.1282653312490611e-03
      4.4059971691982766e-02 1.5159558443442241e-02
      -7.2499505195137400e-03 -5.0004394128601443e-03
      3.3234502909320077e-02 1.4282718481280703e-02
      1.3499171764092047e-02 -9.2075588899496047e-03
      -2.3524298838538463e-02 -3.8626293757098190e-03
      3.2490401072065717e-03 7.4773620054481293e-03
      -1.9261497118619547e-02 -2.7963504296557969e-02
      9.7404816291754830e-03 6.3784531853476470e-03
      -1.3253457450657979e-02 3.9385753712119269e-02
      1.8303981379139012e-02 -1.2656232896119899e-02
      -4.1189784612124317e-03 1.1889841914694950e-02
      -3.5041903345521166e-02 -5.9340089612286689e-03
      -2.0297940228249144e-03 9.4716194553312756e-04
      -2.7624350494691415e-02 3.4573909367548041e-02
      1.5584500881026927e-03 4.4141674870658704e-03
      -2.7693440663717088e-04 -1.7486226751379997e-02
      7.0410285456220991e-04 1.8614710819240991e-02
      -1.2207759788650168e-02 -9.8166746120609532e-03
      1.6841359731311013e-03 -1.6733668819809532e-03
      1.6098839361478538e-02 -1.4585645697335186e-02
      -1.1252875600069131e-02 1.4930982240157599e-02
      -1.5821699613355663e-02 -1.4622023845788914e-03
      6.9205170208328773e-03 -2.9976584331486575e-02
      8.0012242471151108e-03 8.6916677206179613e-03
      1.9989169938827604e-02 3.2271078772307962e-02
      -1.2322288423043467e-02 3.5990946609242555e-02
      1.2908473750616075e-02 2.7405692008335931e-02
      1.4581257882760610e-03 5.5509835799426059e-03
      1.8243708907279046e-04 -3.9142743666226313e-03
      4.4556901520845012e-03 5.3514251205361747e-03
      1.1416653553563702e-02 1.3924178914227535e-02
      -2.9870544731379702e-02 9.2929382758898393e-03
      3.4980550253718018e-02 2.7658465581460085e-02
      1.3943296679661337e-02 -2.3487551660865295e-02
      1.2885774654242635e-02 7.4726435530977822e-03
      2.4272158092809897e-02 -1.6315130210398595e-02
      7.1099931169060788e-03 -2.8596676875250245e-02
      9.6231710699873230e-03 1.1836225986545035e-02
      -3.3854119775972767e-02 -2.1812392677853169e-02
      5.7190858420346604e-03 -4.5027270363290611e-03
      -2.3125800399151249e-02 3.7214888531905313e-02
      9.6799605833106390e-03 -1.0542756947044967e-02
      -2.0053508181044014e-02 1.4648386240512920e-03
      -3.1480701728400007e-02 -6.7747421059708660e-03
      -5.7938015654475815e-03 1.8138192946397978e-02
      -2.4562221295474283e-02 7.5447021455580781e-03
      -6.0009918976712201e-03 -4.7395534968685234e-03
      -1.2896072822211861e-02 3.0617305210961046e-03
      -2.2150954784958370e-03 2.3899461976917565e-02
      -5.7432696050688983e-03 -1.8827615437349940e-02
      -9.3497716971825233e-03 -1.0675121759891554e-03
      -3.0968986798226197e-02 3.1699045577863313e-03
      -2.0041743945278488e-02 5.0285868058144792e-03
      -2.9808889562733640e-03 -1.7494485494536298e-02
      1.5323858131142960e-02 -2.4014061200322994e-02
      -1.0144547519341676e-02 -9.1335733392144767e-03
      2.7099173554626613e-02 4.0481191353384273e-02
      -1.7941036732842607e-02 1.6189222764263086e-02
      2.7604993518493364e-02 1.9626429689698615e-02
      -1.3652586989783675e-02 -4.9153798313627088e-03
      1.6184089469591052e-02 -2.3617992628329150e-02
      2.3893116588912500e-03 1.6835152144897440e-02
      2.5483354590869513e-02 7.1739535645887944e-03
      -3.2051256904349554e-02 7.4611843453383838e-03
      3.1872334415893162e-02 3.6560410252765012e-02
      1.6191923415014228e-02 -1.4533745334900715e-02
      2.0463110986578422e-03 1.1470349872825743e-02
      3.5862812167528901e-02 -1.0000488272910647e-02
      -1.2640914205224313e-03 -3.0223752322128108e-02
      1.6505716605523604e-02 -2.3290548802578592e-02
      -3.6811301946909888e-02 8.5850043098117978e-04
      5.5167678830505638e-03 1.8241033703045195e-02
      -4.8344721300916389e-02 7.5628198092958968e-02
      1.2443144165920709e-02 -2.4301780830693367e-02
      -3.2644705847202533e-02 -9.2616098834745458e-03
      -8.8455401703527690e-03 -1.7307197972186369e-03
      -5.7099612642329553e-03 -1.9461917785863668e-02
      -2.4985579489605017e-02 2.4679706839124604e-03
      1.9520381861050009e-02 1.6878609037775234e-02
      3.7519827958232326e-04 2.0790341537555670e-02
      4.4018128219369410e-03 -3.6252416989096032e-04
      -2.0899916435803828e-02 -2.1968880360000453e-02
      -3.2260834457590946e-02 8.4936793909461648e-03
      -5.8942292301463861e-02 6.0159435275359698e-02
      -1.0050703210736528e-02 2.6848767681480829e-02
      -8.9222828935435917e-03 7.4988674635194479e-03
      2.2786578620892544e-02 2.7124263429583188e-02
      -2.3901447795036054e-02 1.2340981097764263e-03
      2.8566184271816588e-02 2.5062280042555580e-02
      -1.2766069507703778e-02 -2.1711674167816736e-02
      2.2353721728477494e-02 2.9942732124637546e-02
      -3.8336369516598544e-02 1.3048418066860206e-02
      -3.4128875256261404e-02 -6.4594842424587323e-02
      -3.8889861329817611e-03 6.4410799109624701e-03
      1.4620235452833348e-02 -8.1142986376947258e-03
      -3.1052033412321767e-02 -1.9750826575972908e-04
      4.0910251453510627e-02 7.6035911939318343e-02
      -1.0799293248346078e-02 -2.6319670973884140e-02
      -2.6115501752300768e-03 2.2023015502725451e-02
      4.5679949555686397e-02 1.0537044645972126e-03
      3.0067151448358719e-02 -3.1700256195605708e-02
      1.0691618625739838e-02 -4.4358788286005521e-02
      -1.3403185260032121e-02 -2.7339656354553800e-02
      -1.6101511263862368e-02 4.7628369148357177e-02
      -5.3378007074193698e-02 6.5167582418745998e-02
      -8.9645856900008938e-03 -2.5889876016631445e-02
      -3.4174770590775054e-02 -8.3761874278416061e-04
      -2.0835099720675036e-02 1.0216767837641548e-02
      1.5778701937112231e-02 -1.6566961991619965e-02
      -3.2216687813852798e-02 -9.8630835614646889e-03
      3.1365145282224380e-02 1.9470634959342217e-02
      1.0994571374601289e-02 4.6794672445992461e-02
      2.4533809823484902e-02 6.1689558772179834e-03
      -3.8870580870055328e-02 -3.1631249265428762e-02
      -1.7694684993312591e-02 6.9559193444235501e-03
      -7.5377393972590745e-02 2.5515119205251860e-02
      -5.6712502201805796e-03 2.6536683656618744e-02
      -1.1130610346837615e-02 3.3118468451986405e-02
      3.1473703583114701e-02 2.3652441111542927e-02
      -1.3238041988797935e-02 8.5997664544910802e-03
      2.1544821238285963e-02 2.9926980848586020e-02
      -1.8487190491877008e-02 -4.0066121617121836e-02
      3.3083553443552662e-02 3.9524810943819981e-02
      -4.4576870420630028e-02 2.0726186929225054e-03
      -2.9839335968777733e-02 -7.1135011454317942e-02
      1.9764199288123075e-03 -1.3210178667519874e-02
      3.0624713990562425e-02 -6.0704324841357538e-03
      -3.6068126675278957e-02 -3.1064804406953455e-02
      3.7176299500806524e-02 6.4316934197991546e-02
      -1.1648297973611334e-02 -1.8852776213491886e-02
      3.7965467411088961e-03 3.7635575665344742e-02
      2.9677861906044423e-02 2.6465133320686732e-02
      1.2441062766368477e-02 -4.6723381957536225e-02
      3.9706670472354919e-02 1.5370230117990071e-03
      -1.0122459046782986e-02 -2.4916599613585694e-02
      2.0463071027423389e-02 7.1285318165313125e-02
      -3.9858007851524248e-02 -5.9201699958456328e-03
      -2.3471996018888251e-02 -1.4882477522103746e-02
      -3.4833857940789338e-02 -7.0180065095190947e-03
      3.3482688585572705e-02 2.3678472095541576e-03
      2.1954354845648838e-02 7.4518150051387034e-03
      -9.6461073389243097e-03 1.2582466729222565e-02
      -2.5203301264800654e-02 1.7498840337475112e-02
      1.8921568240220555e-02 -9.9564925037714854e-03
      1.8636476503898446e-02 -1.9743865512143480e-02
      -5.5249103007227331e-02 -2.6074674082192849e-02
      -1.3076767169798562e-02 1.8564961772530864e-03
      1.2610076080682412e-02 -3.4820196296144988e-02
      -1.6817702586831997e-02 -2.6701415275258874e-02
      2.3522548567738135e-02 4.2784336719428766e-02
      -2.6833267772918074e-02 -1.3729288307347409e-02
      -3.4292405435078367e-02 1.9385902071713767e-02
      1.0303850417251521e-02 -1.8097069792327638e-02
      -6.0254203995329367e-02 -1.2140797276213935e-02
      5.0230236700356734e-03 5.0993117596227093e-02
      -6.2740008380280049e-04 -1.4747603410959934e-02
      8.4688754696573276e-03 6.5678957904664621e-04
      3.0065839650124982e-02 9.4687759663107957e-03
      -1.4866909175029154e-02 5.2437856680095452e-03
      -2.1646510913815468e-02 2.1595666416848675e-03
      -1.1503776459132401e-02 -1.0304147368477778e-03
      -4.1631678452464349e-02 -3.8920998192889418e-02
      5.4393956840251174e-02 4.2562893613288612e-02
      7.7073992031294780e-02 2.6131681463149588e-02
      -7.7490640693059047e-03 1.0108381290990600e-03
      1.8312510681996325e-02 1.4799941467264618e-02
      -1.6677685558627125e-02 7.2313424978870996e-03
      2.8491031957806615e-02 3.0770808812382415e-02
      -4.3533758394709212e-03 -2.7767617546890059e-02
      -1.2377851360793068e-02 -1.2499064952003019e-02
      -6.1459754205017585e-02 -1.7805119185675682e-03
      4.3453108224551402e-02 -1.7067339049305543e-02
      1.8925538615393631e-02 4.4688970805556505e-02
      1.8239301693301672e-02 -5.3451886917169041e-03
      -1.2122166086912145e-03 2.0478417755664252e-02
      7.3922251856781168e-02 1.2437390453281603e-02
      1.2032200727911672e-02 -4.9388050518743405e-02
      -2.5343878378404395e-02 -4.4172733034912259e-02
      1.2298739876697854e-02 -4.9268441967769368e-02
      -1.2789918589950460e-03 -2.9566120992370416e-02
      2.2675318737430387e-02 1.5660851270945589e-02
      4.3050416119831215e-02 3.5382541367405186e-02
      -1.8017409944351540e-02 -3.1280865040274081e-02
      -4.4297430955331965e-02 -2.2560425868418013e-02
      3.0368855570650020e-02 -2.1988529175347490e-02
      -8.9795984984643393e-03 -2.8166678797549867e-02
      1.4085283739038227e-02 3.6654561521406233e-02
      5.5404254695964319e-03 7.4839390965839095e-03
      1.7770226249185589e-02 2.8588970617831323e-02
      -2.0329347087470338e-03 -1.8060785415997403e-02
      -1.1706725707181861e-02 -1.6896048593140332e-02
      -2.9915807019573519e-02 2.4500245886080789e-02
      -3.8529941051361698e-02 -4.4686805589564803e-02
      1.0222748867019413e-02 -3.3709124284143133e-02
      7.2595080330731185e-02 -1.6609187940893628e-02
      6.9384090053304898e-02 -2.2719833333868871e-03
      -1.7935434017860904e-02 3.7472331824325411e-02
      1.0303934805684810e-02 2.5185342107877585e-02
      -1.3161673974492678e-02 2.3766366447792276e-02
      8.3655065156646724e-03 6.8010392873119638e-04
      2.0601560669770431e-02 -2.6027114333795350e-04
      -7.7202361706483922e-03 -1.5388780001270301e-02
      -5.4420981902911926e-02 9.4528581652881041e-03
      1.7166452646038610e-02 -1.1842907709673988e-02
      1.3648565686267303e-02 5.4255497218381445e-02
      5.1795336730140066e-03 -3.0279985933995217e-02
      2.9846252571091823e-02 6.0264772281245875e-02
      1.0376392494339293e-01 3.3817541467094481e-02
      -7.3861421929850217e-04 -6.6053562530384247e-02
      -1.3534528802329701e-02 -2.9716782062936452e-02
      4.0611422185401119e-02 -5.6446851277051527e-02
      -3.0961467178807583e-02 -2.2497238488985933e-03
      4.4994816850307241e-02 3.1477627880750321e-02
      9.5165140811591612e-03 2.3047551867713442e-02
      2.1004976761130247e-03 -2.7089823179713937e-02
      -3.0594603674361960e-02 -2.1991101089686087e-02
      3.7474968463133321e-02 -5.6267300406731367e-03
      4.7415716609267376e-02 -3.4004728546805793e-02
      1.1772314797955891e-02 -8.8645815190492724e-04
      -7.0989979290708716e-03 -1.0317810541074840e-02
      4.3604735197718708e-02 2.7838474794756103e-02
      -4.2975248426729874e-02 -2.0447257394649442e-02
      9.9940870779369629e-03 -9.0876037472231597e-03
      -2.5308847549982581e-03 3.4458692312042141e-02
      -1.6921364518110132e-02 -2.9773097547766143e-02
      4.2303772423420628e-02 -2.1651729361389521e-02
      4.8743405539394644e-02 -6.9849257960986816e-02
      4.6591700299923038e-02 1.4081449264140766e-02
      -4.0829616557071507e-04 1.5580703750714459e-02
      1.0481552232707298e-02 3.4161948755369584e-02
      -7.1430815558721789e-03 1.6368200410845107e-02
      5.6302639785194468e-03 7.5256884081122202e-03
      -1.0657620829740776e-02 -4.5413865861869051e-03
      -2.0651054332215979e-02 -1.2927117580403978e-02
      -2.4702498263531096e-02 8.9374833618312381e-03
      1.3338815427297481e-02 -1.2706884107176340e-03
      2.0442487199840289e-02 3.5618455838281396e-02
      3.4969989700425765e-03 -4.0673530421880322e-02
      3.4461353804009220e-02 4.5008073212911510e-02
      6.9827003657714826e-02 5.8438346703340192e-03
      8.1067046939414748e-03 -3.6386075947512198e-02
      -1.2238445578816280e-02 -2.9392791305283376e-02
      3.6752860256782219e-02 -5.0943562007083311e-02
      -1.2259212411484556e-03 -3.0242529949823845e-02
      4.9764244665454982e-02 4.9327313847215115e-02
      4.3779561485145111e-03 6.3551742367133858e-03
      8.3991808372539997e-03 -2.4277552568298454e-02
      -3.9949634282745353e-02 1.7028898983178962e-03
      2.0199834447791346e-02 2.0203010937055458e-02
      4.9745733312025704e-02 -4.0517227463082233e-03
      2.5407302502271027e-02 8.2161954384819807e-03
      -1.8833492725830295e-02 -7.1091943048020630e-03
      1.1060833892789808e-02 3.7750478414188264e-02
      -3.5476947901728589e-02 -1.3436062216910591e-02
      2.0071299553226996e-02 -2.1025682221077814e-03
      1.4797364396404783e-02 3.1485784890060681e-02
      -1.0092167454065338e-02 -2.1813318421290209e-02
      3.9653689013107125e-02 -1.7978660076116467e-03
      6.1537864863965307e-02 -7.9347828842694978e-02
      8.9532760324624004e-03 1.5692170437167551e-02
      2.0755228500988467e-02 -2.4169816553413995e-02
      2.9231712595301645e-02 3.9861790359492236e-02
      4.4848734929259069e-04 -5.0741460661640663e-03
      1.5715381358098572e-02 5.0400023455173582e-02
      -2.7475866940735987e-02 4.9815776290109103e-03
      -1.6638976124664531e-03 7.3797267919069815e-03
      -1.3539370405462660e-02 2.2198292561400094e-03
      2.3940691751610909e-02 -1.3967103619369717e-02
      3.9100628690249356e-02 -1.1656798328038226e-02
      2.4792977538591374e-02 -2.5892270847466238e-02
      2.6569014289084477e-02 4.2889565804984141e-03
      2.0461239351314872e-02 -4.5647218057889141e-02
      7.4408391990406419e-03 -3.1538669251639562e-02
      -2.0630245314962395e-02 -4.6416834383799184e-02
      -1.5055301149798373e-02 -2.8086448103002305e-02
      3.5926943937843223e-02 -8.6064408260841926e-02
      5.8883562227950324e-03 3.3207017149997832e-02
      9.3826884817891469e-03 -6.8434716463833785e-03
      -3.0039032447013573e-03 -1.5835169239764520e-02
      -8.7255534399179421e-02 2.5064661948522745e-02
      9.3516453962305349e-03 1.3346330279926918e-02
      -1.3788051916139974e-02 2.0399005204321179e-02
      3.6171861626099457e-02 6.0906209995828534e-02
      -8.5257702753505204e-03 3.0441456178459055e-02
      -2.0515876752103871e-02 4.2016768224198711e-02
      7.4993969286476772e-03 -1.0050314667329833e-02
      1.6944508074248920e-02 5.5049289628540925e-03
      1.4953383087411445e-02 3.7861880884796067e-04
      -1.0450566485665167e-02 -7.7640054768952638e-03
      3.5595546432664847e-02 7.5017807729655410e-03
      9.4931979223093196e-02 -8.7809858153352956e-03
      4.8999969940581381e-03 7.7491594252667795e-03
      1.9784183348378555e-02 1.1041527355673960e-03
      1.6577834646648467e-02 1.7362488206637609e-02
      1.8310785434851960e-02 -2.1297578623143031e-02
      2.5928603741895092e-02 4.5107664814263593e-02
      -1.5379777809169831e-02 3.2102361432479215e-02
      2.8130808440054552e-02 2.3030023110279439e-02
      -3.6319264174627774e-02 7.2299015333023332e-03
      3.4747423564319084e-02 -3.8226962919689737e-02
      2.4910312542400760e-02 -1.5247601631345016e-02
      2.6898663732649177e-02 -1.4876057234602391e-03
      4.2507704389312680e-02 -1.2351681771492391e-03
      -3.0312942483551081e-04 4.8349213128604691e-03
      1.7374065602789628e-02 -2.1374768088155395e-02
      -2.6973513290287677e-02 -4.5022501188062516e-02
      -4.3495497857350768e-02 -1.8531173671537081e-03
      -8.2472069670449476e-03 -6.7655549167170176e-02
      2.2310482905764852e-02 4.8362337907601229e-02
      3.4356201123489895e-02 -1.6235728569533505e-02
      1.0730884820694028e-02 1.8909032281751288e-02
      -6.8228341104625764e-02 1.6167744092821356e-02
      1.4437115260256279e-02 -1.7679977187232004e-02
      -3.4804257901886286e-02 5.7189269507264360e-03
      3.5039947534843949e-02 6.7390553765517031e-02
      -5.2377824350704769e-03 7.3364058434020191e-02
      -3.7313173030339972e-02 -8.8623284018839558e-03
      2.4796960816609186e-02 -7.5010328982759436e-03
      -1.6810528575226093e-03 -1.1438657539191953e-02
      -7.1760395329363508e-03 -5.1373023799617175e-02
      -2.8433955700683581e-02 1.3540013495777499e-02
      -5.3602332926245113e-03 -1.2415002214439211e-02
      7.5495150364022476e-02 2.3775767711952271e-02
      -1.3461474508019088e-02 3.0170938306637866e-02
      -1.5861083720537763e-02 2.5081338772819225e-03
      -5.3168655445622005e-03 -6.8878613699618410e-03
      5.1392478481658559e-02 -1.1048892313356455e-02
      -8.3986482747272009e-03 4.4049443123018360e-02
      1.7964772595574673e-02 3.5018944872486545e-02
      5.5539911123956148e-02 -1.7199269771141439e-02
      -6.5004362650583278e-02 5.3600124713753725e-04
      5.0727131131828081e-03 1.2289742290371045e-03
      1.8787863638891025e-02 -1.8977889932413190e-02
      2.5835336889423955e-02 3.8754676463336142e-02
      1.9297761047738067e-02 1.9723970099968638e-02
      -7.4390841335595188e-03 7.4668182128477829e-03
      3.1201746932309239e-02 2.4999554950183162e-02
      -3.9559481651754345e-02 -3.7918095928196137e-02
      -1.3556308865435752e-02 4.5760258271185808e-02
      -1.0632617431651401e-02 1.7358925791230433e-02
      -4.0133858102544974e-02 6.4762816730998304e-02
      1.0653597244612227e-02 1.0190193883168842e-02
      1.0204714388120120e-02 4.1609292896264402e-02
      -5.5168014633081852e-02 2.2648263935487654e-02
      -2.6555713850609938e-02 -4.4238185856963777e-02
      -4.1624030932317042e-02 -2.8824353170025990e-02
      1.8129301214713910e-02 1.8734341623933153e-02
      1.4151187346013902e-02 3.3803361898588118e-02
      -2.5191076395898983e-02 -5.2636242864286045e-02
      3.3064965775428348e-02 6.1831957565946583e-03
      -2.7656069432476133e-02 -2.2865953951877165e-02
      9.9469106411511094e-03 -4.3084563634714849e-02
      -1.2441601150779646e-02 1.2143966441063220e-02
      -2.1237518521197717e-02 6.3235860674669356e-03
      4.3756997416619696e-02 5.7434045696619425e-02
      -1.5651242887645099e-02 5.0072731422442653e-02
      -3.4500836610488653e-02 3.4552482640675267e-03
      -2.2763146793338255e-03 -5.7248597924839644e-03
      2.9140741558491511e-02 -3.5239873131498660e-03
      -2.1138296588950618e-02 5.4201613408782046e-02
      2.8778719943634495e-02 5.4724684652186627e-02
      1.0458482691659750e-02 -3.8133350292636439e-02
      -4.4386288971578494e-02 -8.2515483746279771e-04
      -1.1232547271766396e-03 7.9802445955692979e-03
      1.4016795046077371e-02 -2.9209222987742280e-02
      1.3109190413486856e-02 6.2262901501033835e-02
      1.0778213085872727e-02 3.2855141703572677e-02
      1.1379257738017572e-03 -2.4892544237122404e-02
      1.4417981996514322e-02 2.1960133806850121e-02
      -5.6418611473171218e-02 -3.3636599685519672e-02
      1.3928974488291810e-02 3.5665704188809329e-02
      1.4501552451018291e-02 6.1102782889380119e-02
      -3.3310221825834777e-02 5.4382988378044721e-02
      1.3210868537337064e-02 3.5225618154370891e-02
      -1.2976252596222861e-03 2.3577437429178626e-02
      -4.4000337667648430e-02 1.0168791387199158e-02
      -2.8250870904026563e-02 -1.8587157354954868e-02
      -3.4106109602957527e-02 -2.8842109556771595e-02
      2.0540365325136492e-02 -1.1733778036565251e-02
      2.1866726016280234e-02 4.7521665556455234e-02
      -4.8823711265927059e-03 -4.4230398268356078e-02
      2.1219448014536377e-02 -1.0016515900576787e-02
      -1.0016728231699657e-02 1.8456741472048132e-02
      1.5489149870616279e-02 -1.6543500384815845e-02
      1.1614043660727774e-02 1.9541952332371656e-02
      -6.3135827598729405e-02 9.0589819717227273e-03
      2.4147119805403766e-02 3.1101590390974886e-02
      -2.0144394982642224e-02 4.9590489221299106e-02
      -4.4866985289959561e-02 -5.7530777791654376e-03
      6.4823396243006979e-04 -1.9484456694692735e-02
      2.4222114760375533e-02 -1.0644704416577569e-02
      -8.8168201026120104e-03 2.0104842391403584e-02
      2.0817831969235225e-02 3.3118540048124680e-02
      2.5413671610146193e-02 -1.8894501306291125e-02
      -2.1621423964273866e-02 -1.2038278385436267e-02
      -2.0744060915563769e-02 7.4738851628498399e-03
      2.7416089929473631e-02 -3.7900459551677389e-02
      5.3388158559004107e-03 5.4026949379234752e-02
      -1.8342756591572525e-02 3.6694395495874312e-02
      -1.5123243791832620e-02 -2.9967218312033913e-02
      5.5281640114307716e-03 2.5158092598305280e-02
      -4.2386385432667047e-02 -3.0851159684569567e-02
      3.3435081631366631e-02 2.8570744425949431e-02
      2.2958185066718657e-02 2.9150129422992183e-02
      -3.1551708782282174e-02 5.6024922679593858e-02
      1.3733163964453070e-03 2.0906429807862701e-02
      2.8813784256382854e-02 6.0205135031407703e-03
      -3.0646506949542261e-02 1.6177438306872689e-02
      -3.9849372050467284e-02 -2.6531993316031961e-02
      -5.2930855175598368e-02 -8.6502302224650517e-03
      5.5744463051725143e-03 -1.5421148174495660e-02
      7.9772295411721320e-03 2.1942064145892184e-02
      -2.3294188129468047e-03 -4.3684348471150838e-02
      5.9061785999860363e-03 -1.9628174980237466e-02
      8.4154917729771829e-03 3.1453753511455955e-02
      1.6954357123142932e-03 1.2798098142113688e-02
      1.7523565487486636e-02 1.6939001127661054e-03
      -3.7490304035325175e-02 -2.8233187822925610e-03
      -1.4483761218344997e-03 1.7716268916393184e-02
      -2.3951456648746081e-02 7.6031761413287288e-03
      -5.2788627144668546e-02 3.0245293778493998e-02
      -2.2164842335586393e-03 3.5661942957803147e-03
      8.7640960362855985e-03 5.6922509028155561e-03
      -2.4295784777433652e-03 4.3236404952539291e-03
      2.9253189399428146e-02 3.1263724549649777e-02
      2.7453228846969290e-02 -2.4661549297164399e-02
      -2.3522572268612173e-02 -7.9014345766407965e-03
      -1.7964242589929690e-02 -2.4295811029227211e-02
      1.4987088686822988e-02 -6.5971413538586220e-03
      1.0457526769929069e-03 5.2157799845620169e-02
      -1.2378650148805082e-03 4.1488711611961460e-03
      -1.7754007225485913e-02 -1.2359588237290234e-02
      -3.6130362897014026e-03 1.8473064715960760e-02
      -5.3789107770563553e-02 -2.1682658753316805e-02
      1.7017371492264472e-02 2.2156023341092443e-02
      -1.0370195188153972e-03 7.5348156413732308e-03
      -1.4337514342621833e-03 3.7431403501355050e-02
      9.3050297152863018e-03 1.7407878782312737e-02
      3.9562035349896052e-02 3.6432698635426345e-04
      -2.1289094750935413e-02 5.4463620326339612e-03
      -2.7412940522475761e-02 -2.0647067602205076e-02
      -4.4606381835718231e-02 -9.9891954973422830e-03
      1.4110648638270855e-02 -5.4303307406939868e-04
      2.0536272748069764e-02 1.6258608293394119e-02
      -1.6075933056178119e-03 -1.2645778610034976e-02
      2.1363788326818695e-02 -2.7618975916377336e-02
      5.7661088916126819e-03 1.8849863781266810e-02
      -1.2657077448708202e-02 2.4380670950247215e-03
      -6.8281989917763639e-03 9.6600843326800113e-03
      -2.8241592296953673e-02 2.4259681671609966e-03
      2.2525854395199420e-02 3.7501775248038141e-03
      -9.6381119055101994e-03 1.3053683738637144e-02
      -5.0007724996069411e-02 2.6312064001544171e-02
      -1.1097988493502657e-02 1.6203550663124146e-02
      6.4817269968975204e-03 1.0006805207383465e-02
      5.7670672059065703e-03 1.4293478817281241e-02
      2.6350373383474499e-02 2.7329290425678922e-02
      1.8950631813430565e-02 -1.9345577010504576e-02
      -2.9788828802841633e-02 -1.0654353909216008e-02
      -1.1093399762185700e-02 -1.0891092384777923e-02
      1.2505317344548329e-02 1.1031462711741662e-03
      -1.4103589233857496e-02 4.4177323927041948e-02
      -8.6642304062949128e-03 -1.6269318849285851e-02
      -1.4511054951183339e-02 -8.1924829600460555e-04
      -7.0997869199858100e-03 1.5648550217864193e-02
      -4.4477469924631891e-02 -1.1566272690823845e-02
      2.4189317279873807e-02 1.6505005905705087e-02
      1.4214130755403232e-03 7.8182712806624203e-03
      3.4059080120437376e-03 2.8521855295202389e-02
      5.2601279714930161e-03 8.3419338121490435e-03
      2.5618742392482768e-02 2.0946585106271917e-03
      -6.1794841779493296e-03 1.4386226791255233e-02
      -2.2787250161433029e-02 -8.2782401774874007e-03
      -3.8025805713259642e-02 -1.5022267045275569e-02
      1.3423007440409074e-02 1.4629707315391302e-02
      2.5291740733901051e-02 1.1137241988823080e-02
      1.0668806523604009e-02 -1.6321226285886747e-04
      2.0247659167971317e-03 -1.9217498556909775e-02
      2.5684110429865601e-03 6.5382674060878981e-03
      3.2618551999026345e-03 -1.6759427375918176e-03
      -1.4518548173383779e-02 2.5479888301729200e-02
      -2.3757788168253174e-02 1.8478252141249332e-02
      3.1670938961188236e-02 -1.4195897592309279e-03
      -2.7063021313490660e-03 8.5227964341927556e-03
      -4.0767554925469934e-02 -9.7517502196484904e-03
      -1.0103616978714451e-02 1.3307062487638674e-02
      -6.5174472890987105e-04 1.5317993523539769e-02
      1.5394431373806508e-03 -1.2838012179254411e-04
      1.9686168175639576e-02 2.3281695931383361e-02
      4.6097969797107936e-03 -2.3435321232202389e-03
      -8.9677947786214844e-03 -3.0338858962275277e-02
      -4.1537905066642688e-03 4.8771863871584151e-03
      -1.2329722863079170e-02 3.3232307072093934e-03
      -2.5563882784660832e-02 1.4308259715262216e-02
      -1.4398057633054668e-02 -3.8208998631322773e-02
      -1.0802477733839902e-02 -2.4527396576745982e-03
      -9.5915783879119143e-03 2.9653300878717908e-02
      -1.9291230487960484e-02 -2.5521337099430079e-03
      2.9063270918931995e-02 -2.7018562522863436e-03
      7.2678882412625309e-03 1.2994448303784555e-02
      2.3190359553725013e-03 7.1669009763235926e-03
      -7.4531237819140542e-03 -1.3697728395433329e-02
      1.1307458198356341e-02 -1.9738473259365069e-04
      6.3598831422696468e-03 7.4172305919547269e-03
      -4.5659133359294861e-03 1.4288812558441541e-02
      -2.8397251044236911e-02 -3.3107503863044137e-03
      1.5793616662741452e-02 2.0916374413957953e-02
      -4.2841256575083548e-03 4.4226529659722215e-03
      -3.9497356646868848e-03 2.6074229531632266e-03
      -2.5594908836759194e-04 -1.8715031482658840e-02
      1.7650113265662262e-03 -1.3417663055415684e-02
      -1.5447457022019491e-04 7.7090677494448178e-03
      -1.3517757510458566e-02 2.7955755304930656e-02
      -2.3040561300687930e-03 9.3714827120218828e-03
      2.7561595286342666e-02 4.5532827042387061e-03
      -2.3800046718140105e-03 1.5709300431286398e-02
      -1.5833935762079400e-02 1.5253213427160198e-02
      9.8156886037083970e-03 -2.6529139433229366e-02
      2.1032910082694509e-02 8.1736683039994998e-02
      -5.6342626167059521e-03 6.2922878374357272e-03
      1.6662875287433435e-02 -5.6167599615711142e-04
      -1.2336275730004691e-03 1.3828082515409665e-02
      5.4467823559986072e-03 -9.8839684167117359e-02
      9.1635310127471965e-03 -2.2155959350974672e-02
      -2.8819157854074642e-02 -3.0957450554839384e-02
      -5.1043564702804592e-02 2.0365567183912490e-02
      1.7376157012105955e-02 -1.0083689765699384e-02
      5.8653315162470873e-03 5.8575349724385786e-03
      -1.1405783734422194e-02 1.4208601101400193e-02
      8.0807071096751536e-04 -1.5175371922777080e-02
      -1.1627880853687815e-02 -3.7825872700526734e-03
      -7.4897152210516319e-03 1.7904009139008091e-03
      -4.4941441398364925e-03 -9.8793238126944592e-03
      4.9036604525523886e-03 -3.0729582917862347e-02
      -2.8279711760494486e-02 -6.4379484901332983e-03
      2.0510975530919941e-03 -3.9854550213277292e-03
      -1.2777258884503869e-02 -2.8353894336565242e-02
      -1.6922910115504172e-02 8.2272109797934829e-03
      -8.7092345166581882e-03 3.1049852725475884e-02
      -6.6371150472888866e-04 1.9043244240707975e-02
      1.2171646578103811e-02 3.5982579667730792e-03
      6.6444712802461300e-03 -2.1346637488064719e-02
      -1.4833014779836728e-02 1.8903717784884529e-02
      -9.8771407896889457e-03 -1.0756385403161645e-02
      1.1033218203686780e-02 -7.1694890882501696e-03
      -3.1610611595633262e-02 1.2339645418845819e-02
      1.0421141870018386e-02 1.7535266335733619e-02
      4.9658413097848706e-04 -1.6823054265953603e-02
      -1.1374595023593776e-02 -1.2468036708505329e-02
      1.0475352517648926e-02 1.5752542139891652e-02
      5.9520069515994149e-03 9.3321743628558426e-02
      1.1775998792322889e-02 -1.8919884025675012e-02
      5.8036384788411523e-03 3.6225828063532556e-02
      6.6508549668997654e-03 -9.8863214139582444e-04
      -1.6210939026070615e-02 -7.4115205486792762e-02
      -1.8064623240364971e-03 -4.9877924187365667e-03
      -1.1985571639112442e-02 -1.3945369874556461e-02
      -6.3914979226619359e-02 2.3530025184595031e-03
      2.2074285844103491e-02 8.0044000765366852e-04
      -2.1490381648257180e-03 2.8708186444883838e-02
      4.1118467611226802e-03 -1.9354505951719881e-02
      -2.5223093578000857e-02 -2.7036152545173782e-02
      -1.5972320670004207e-02 1.0405392440339333e-03
      -9.0925986562291079e-03 -2.1803394031670656e-02
      -2.1618966907807794e-02 1.3576809823520426e-02
      -2.0736682851318091e-03 -7.1146235292150707e-03
      -9.9323752387273211e-03 1.1943258546561197e-02
      1.1440978178079247e-02 1.9481382702929686e-03
      7.7658963111401462e-03 2.2986321907437456e-02
      1.1398216749036693e-03 -5.4897806972265348e-03
      2.2060617384353869e-02 2.1677847159560740e-02
      -2.1369696170664581e-03 5.3777432467403451e-03
      -7.3178401755572327e-03 5.5465662356284648e-03
      2.9559498820135033e-02 -1.5985948906475499e-02
      1.5231990047902887e-02 -1.2856209000554656e-02
      -3.2733564379323066e-03 -9.3534223945622684e-03
      -9.3765911316320816e-04 1.8872520915074128e-02
      -1.1396748462169079e-02 -3.4320921867752184e-03
      3.6714729592539595e-03 -9.6460857256104506e-03
      3.8558485291503878e-03 1.6587157115168496e-03
      -2.0150105518349528e-02 -8.3009211841041722e-03
      -2.2891048234794831e-03 -2.5107124495940187e-03
      -1.6187740612646717e-02 1.1652285753232077e-02
      -1.5589840000283023e-03 1.0765276522903407e-02
      -1.5867067519881282e-02 1.6222109517778627e-02
      1.7329037697099228e-02 -4.0606624944949142e-03
      -1.5353943447652823e-02 -8.5613819469013593e-03
      -1.0012954246535210e-02 -4.3153899000943725e-04
      -5.2402784377070365e-03 -1.6962862939401398e-03
      -1.7331070830880944e-02 2.7938058000353511e-02
      -1.2560788450084045e-02 9.1872382356649983e-03
      -5.3211674996562364e-03 -2.7452126285987272e-03
      -5.8129359444264042e-03 2.1380658274615526e-04
      -1.6342418820743800e-02 -1.5799832431616957e-02
      4.3118314161591708e-03 4.8869785489570033e-03
      1.0936509533043690e-02 2.3598893287655426e-03
      -1.9779841390673795e-02 -4.7491798111931639e-03
      -8.6820297692392079e-03 5.1795719310432121e-03
      9.1794464862654714e-03 -1.3857262556418627e-02
      1.7119039308738985e-02 1.0718379652126993e-02
      -6.0089227656511266e-03 5.0484079040900845e-03
      -1.1726674098904578e-02 5.0194182625130544e-04
      6.2026953335635173e-03 -9.5006252339987498e-04
      1.3577650336184495e-02 -5.8858686498516289e-03
      1.1078188426887549e-02 -1.0762180841342100e-02
      -5.0079349541157676e-03 -1.2406329545688391e-02
      9.5991736641627273e-03 1.1567118141693842e-02
      -2.4068321326693638e-02 1.4458625475670292e-02
      1.2645256452977370e-02 1.9528789224734947e-02
      -5.7701587835924028e-03 1.8017514246103264e-03
      2.7198286878430292e-02 -2.1923131766890844e-03
      -3.3583990173207986e-03 -9.7529789310312129e-03
      -2.2437854620820756e-02 3.1671615857398463e-03
      5.5592447804981508e-04 2.4286169214470345e-04
      -1.3313087385890675e-02 4.2059426222302275e-04
      -4.0025071932856997e-03 2.1500277255776572e-02
      -1.9598998639412842e-02 2.3338312683419430e-03
      2.3218638867822935e-02 -1.6558838357763613e-02
      -1.1950991521956273e-02 -8.4865963769299724e-03
      -1.1331516213811853e-02 7.6022323185958056e-04
      3.5170199470882274e-03 -7.9915907839120176e-04
      -1.7168293411622047e-02 3.1905692809311569e-02
      -9.7093100658780084e-03 7.0672744014193146e-03
      8.9175816190430728e-03 -1.5141136806666575e-02
      -3.8852456301365053e-03 3.9937110066416027e-03
      -1.6512180722648317e-02 -2.2576404656937010e-02
      -3.1407073859926020e-03 5.7067660597499362e-03
      1.3705497794502881e-02 7.1748593426682519e-03
      -2.0257397140478181e-02 2.4539645887760131e-03
      -1.1285150528529346e-02 1.0190069119063665e-02
      6.3968944432695697e-03 -2.7574101916870496e-02
      1.2580045911340060e-02 1.5189385279680787e-02
      5.1706589910951346e-03 1.4480982693259047e-02
      -1.4483646060934401e-02 1.8126587839727544e-02
      3.6223003370892204e-03 6.6694368265923110e-03
      1.3650312488757506e-02 4.5117998098662274e-03
      1.0281906117618735e-02 6.4377698243452972e-03
      1.1916555666717694e-03 5.7161650171891538e-04
      3.7793371578038890e-04 2.6674356947689611e-02
      -1.6571755396937025e-02 9.0098908696582426e-03
      3.3377229944779326e-02 1.8559855516028269e-02
      -2.5797610750196527e-03 2.6054013179696673e-03
      1.3831854901915882e-02 -2.8284968202791512e-03
      1.3373291415062043e-02 -2.0827479052114743e-02
      -1.6556265909758505e-02 -3.3128944583249217e-03
      -6.8885259752483252e-03 2.9661593165866075e-03
      -2.8772328060353968e-02 -1.6886339106550338e-02
      -1.7343749635740055e-04 2.4917077562926286e-04
      -1.2304563262569259e-02 1.0811160647739062e-02
      1.9202216050415520e-02 -1.3108222610802248e-02
      5.2802025487191026e-03 2.4294322231946633e-03
      -1.1796545612564571e-02 -1.7034574912974760e-03
      2.1024138101501028e-03 -6.1065887131163590e-03
      -1.2461896625045470e-02 1.2982726563858448e-02
      5.4611634151639334e-03 7.0711229310263029e-03
      8.1214202437915311e-03 -6.0509373951923651e-03
      -1.2232159881463650e-02 2.6738514480866175e-02
      -2.2703354904849188e-03 -5.9819399387759289e-03
      -1.1557206455902343e-03 -4.7553061671886943e-03
      -1.7454482149032444e-03 1.5690311919819766e-03
      -7.6167820162703877e-03 9.4101314405367637e-03
      -2.3125697963711389e-02 -9.1087123255801129e-03
      3.2209287480895500e-03 -2.0776920623066280e-02
      1.7359870674550328e-02 -4.7227137918457660e-03
      1.3778810164365279e-02 3.1879500603569248e-02
      -1.5439679107955361e-02 2.2180320814353900e-02
      1.4026086143523566e-02 3.3561969872100778e-02
      -6.8433851133728428e-03 9.0360600860893252e-03
      -9.7829568641154014e-04 -4.7357888282984590e-04
      6.5817548152409091e-03 1.3926501432529362e-02
      -1.7207968679927139e-02 1.9323144822339437e-02
      -3.7227320074408092e-02 1.4052563965988314e-02
      2.5603958904511639e-02 2.7775334506734469e-02
      8.9502807836237923e-03 -2.7355651088955959e-02
      5.4163432154676781e-03 -3.9278723361099036e-03
      2.0704836607632594e-02 1.1741946073317052e-02
      -7.8613766941369630e-03 -2.4641375242322655e-02
      -2.4449856493095664e-03 2.9315254623421744e-02
      -2.3835210378154670e-02 -1.6904445052121398e-02
      1.8067732063101253e-02 -1.5712587505846774e-02
      -6.6343344006632747e-03 4.6729589317233301e-03
      9.5057556496023626e-03 -7.8448477054346450e-03
      -1.4917820622921448e-03 1.7704899644675493e-02
      9.0048528281081591e-03 1.2619445162318967e-02
      -1.9766210685567900e-02 -1.0633801269609295e-02
      4.2621600638836970e-03 -4.1759822240842164e-03
      -2.2984880495356266e-02 -2.4177623493592124e-02
      2.3476546594891788e-03 3.7113852959634341e-03
      1.2543289745495059e-02 1.7552364694439802e-02
