<?xml version="1.0"?>
<opencv_storage>
<opencv_ml_ann_mlp>
  <format>3</format>
  <layer_sizes>
    400 64 65</layer_sizes>
  <activation_function>SIGMOID_SYM</activation_function>
  <f_param1>1.</f_param1>
  <f_param2>1.</f_param2>
  <min_val>-9.4999999999999996e-01</min_val>
  <max_val>9.4999999999999996e-01</max_val>
  <min_val1>-9.7999999999999998e-01</min_val1>
  <max_val1>9.7999999999999998e-01</max_val1>
  <training_params>
    <train_method>BACKPROP</train_method>
    <dw_scale>1.0000000000000000e-03</dw_scale>
    <moment_scale>1.0000000000000001e-01</moment_scale>
    <term_criteria>
      <epsilon>1.0000000000000000e-04</epsilon>
      <iterations>10</iterations></term_criteria></training_params>
  <input_scale>
    7.9660706679325770e+00 -3.0855008365976305e-01
    6.6648817179382522e+00 -3.4609938371906912e-01
    5.1735985083081486e+00 -3.7989665460004962e-01
    4.0930429060655085e+00 -4.3192408636452373e-01
    3.4890033902755624e+00 -5.1103008852320475e-01
    2.9010982317872043e+00 -6.5907703786149485e-01
    2.5112007459343113e+00 -8.0124805632623375e-01
    2.5015331483989156e+00 -8.4331024358270568e-01
    2.4224319202991551e+00 -8.3491548712016539e-01
    2.3298441288132326e+00 -8.7156836446070940e-01
    2.3229901038341856e+00 -9.1463446426519934e-01
    2.3815437299198132e+00 -9.0410156146635079e-01
    2.5192316353175679e+00 -8.7779608722197366e-01
    2.5442151897409624e+00 -8.0888086907196710e-01
    2.7613643730661113e+00 -6.7711822436322344e-01
    3.5662655378424128e+00 -5.0771574653429319e-01
    4.5511981966357746e+00 -3.8629858260744782e-01
    6.1887938970470282e+00 -3.3487070683484510e-01
    8.3989467215451814e+00 -3.0436872385862684e-01
    1.2098311398582283e+01 -2.9164413625251900e-01
    6.9587513342446696e+00 -3.1656337666754825e-01
    5.3912030404176212e+00 -3.7609294465448145e-01
    3.9829813542417729e+00 -4.4755496434599268e-01
    3.2064607307157496e+00 -5.4283303494422064e-01
    2.7506651057066662e+00 -6.9463134408498084e-01
    2.4784257855971696e+00 -9.6396487688596777e-01
    2.3985921285033953e+00 -1.2239115290923699e+00
    2.3756844872461316e+00 -1.2721887672360390e+00
    2.3133047814358667e+00 -1.1599294432958134e+00
    2.2683578117917138e+00 -1.1487183404580001e+00
    2.2907727717828807e+00 -1.2197747019825751e+00
    2.3538325811702587e+00 -1.3144596916984870e+00
    2.4209439929314445e+00 -1.3656169518781915e+00
    2.4084064209752922e+00 -1.2630337653679578e+00
    2.4305806552576867e+00 -9.5525710194653135e-01
    2.8884732088897875e+00 -6.6345836854479834e-01
    3.5997697427956132e+00 -4.7558227337158421e-01
    4.8425466553353305e+00 -3.8563910803174650e-01
    7.0058078620660673e+00 -3.2081740821646498e-01
    1.0982288547780948e+01 -2.8492331750965116e-01
    7.0625691133584789e+00 -3.2267527039264404e-01
    5.2555052741787271e+00 -3.9651401895516342e-01
    3.8055318096604691e+00 -4.8798974070608397e-01
    3.0002831464020998e+00 -6.1320903276987426e-01
    2.5921100343814896e+00 -8.0973611740516793e-01
    2.4449213587083549e+00 -1.1453590470442587e+00
    2.4884452521390776e+00 -1.4574227610993105e+00
    2.4586364032559831e+00 -1.3800790168410917e+00
    2.4699381701181586e+00 -1.2085098734204271e+00
    2.4255977863462133e+00 -1.1399768637264351e+00
    2.4263493995912766e+00 -1.2344505054669848e+00
    2.4887471184431122e+00 -1.4032059826791363e+00
    2.5672398918964312e+00 -1.5814322260000060e+00
    2.5473782192831789e+00 -1.5745395340516866e+00
    2.4083865732637073e+00 -1.1475050758272560e+00
    2.6791717361931520e+00 -7.9044217839936604e-01
    3.3180003514220853e+00 -5.6621203263844078e-01
    4.7754427896055747e+00 -4.4645710589396786e-01
    7.0489385690016064e+00 -3.3214855248192798e-01
    1.0222638787171581e+01 -2.7606985251661348e-01
    6.8939466922804948e+00 -3.0787556440579478e-01
    5.2991677467514986e+00 -3.8377805474588395e-01
    3.8659179034277682e+00 -4.7304843519155138e-01
    2.9978799876153772e+00 -5.9811461897982299e-01
    2.5415406004823256e+00 -7.8662793780920903e-01
    2.3896593997920177e+00 -1.1016424050894653e+00
    2.4178015456780360e+00 -1.3298477890989571e+00
    2.4179428704398922e+00 -1.1911771742621582e+00
    2.4930494468196369e+00 -1.0058293033371384e+00
    2.4037906795277912e+00 -9.3056506068977018e-01
    2.3659811280073542e+00 -1.0030390063468715e+00
    2.4126567437908628e+00 -1.1517259581435568e+00
    2.4685596447120104e+00 -1.3881005569446676e+00
    2.4581521529968482e+00 -1.4520880002480794e+00
    2.3211815484496792e+00 -1.1232810700229714e+00
    2.5401095477225857e+00 -7.8045655131323310e-01
    3.0765872141579020e+00 -5.8049217381271079e-01
    4.3554055363254394e+00 -4.5821233563966268e-01
    6.5297556582195959e+00 -3.3536353913443034e-01
    1.1182305039775434e+01 -2.7865698510770737e-01
    7.0158831151555976e+00 -3.0830098789295640e-01
    5.0942048380340115e+00 -3.9307285900432454e-01
    3.7572696980255240e+00 -4.8030943433257839e-01
    2.9951330736961670e+00 -5.9450909822931430e-01
    2.5716115592997797e+00 -7.7775156709633508e-01
    2.3888449772081723e+00 -1.0480104743740259e+00
    2.4064136370741784e+00 -1.2299786689103400e+00
    2.4604089141383403e+00 -1.1054012783124521e+00
    2.4756514130963176e+00 -9.2974567611288372e-01
    2.3913480886890142e+00 -8.9388667235257746e-01
    2.3643222627506293e+00 -9.6274921074075015e-01
    2.3980775191184560e+00 -1.0431948692325355e+00
    2.4425493064499069e+00 -1.2437476297442558e+00
    2.4308260155998926e+00 -1.3186091389173946e+00
    2.3326328989249085e+00 -1.0708354618517644e+00
    2.5327283100034057e+00 -7.8746079560160753e-01
    2.9759175111412843e+00 -5.9714054479779444e-01
    4.1286734190325234e+00 -4.8115300852134474e-01
    6.2343584678539985e+00 -3.5107244636789758e-01
    1.0473773949615676e+01 -2.7782200264466650e-01
    6.5540683683886201e+00 -3.1046712221544454e-01
    4.9220748467656961e+00 -4.0711128834502869e-01
    3.7237857319797101e+00 -4.9623968734741836e-01
    2.9450821178795237e+00 -5.9201928175263319e-01
    2.5743640944225397e+00 -7.7805906661463509e-01
    2.3868080582226274e+00 -1.0371203462008387e+00
    2.3883149466589160e+00 -1.1826100326405482e+00
    2.4606199201386385e+00 -1.0574297409834357e+00
    2.4639203265966492e+00 -9.2734086257936232e-01
    2.3548045485227980e+00 -9.4862186235647039e-01
    2.3378057651844384e+00 -9.6323807240003223e-01
    2.3557030090727906e+00 -1.0014900435150751e+00
    2.4560482049371539e+00 -1.1594000122861328e+00
    2.4213026860042999e+00 -1.2022779914672279e+00
    2.3621736646790512e+00 -1.0040642259968229e+00
    2.5615326236358160e+00 -7.5897094877287563e-01
    2.9728302250018013e+00 -5.8744204299583314e-01
    4.0848768655974386e+00 -4.7843460203762239e-01
    5.8032892425046452e+00 -3.4494122707834690e-01
    8.8730769430135048e+00 -2.7112270090612284e-01
    6.0474228143719069e+00 -3.0308991359148785e-01
    4.6236961183359311e+00 -4.0039118029827508e-01
    3.5880829382349915e+00 -4.9142126751834819e-01
    2.8897183500519588e+00 -6.0501552189630092e-01
    2.5232286902574712e+00 -7.8874229848916444e-01
    2.3626260452758414e+00 -1.0616579991612576e+00
    2.3717857032654108e+00 -1.1967995343334059e+00
    2.4452635095783939e+00 -1.0806693163259347e+00
    2.4161506580948848e+00 -9.8515394844246706e-01
    2.2735208239217641e+00 -1.0002723901171975e+00
    2.2868517878141201e+00 -1.0151580400545064e+00
    2.3375857763755379e+00 -1.0298691148505141e+00
    2.4232735953396110e+00 -1.1430278636698223e+00
    2.3591932323715548e+00 -1.1748256118641309e+00
    2.3356416289718118e+00 -9.8633833123777448e-01
    2.5162666873946522e+00 -7.3574882375274542e-01
    2.9326311340338505e+00 -5.7682689710072965e-01
    3.9237927898454106e+00 -4.5842685537653122e-01
    5.5078075744207533e+00 -3.4854537758526538e-01
    8.2916391232414917e+00 -2.6564262108337167e-01
    6.7684090279447036e+00 -3.0364942338977252e-01
    4.9563632808704146e+00 -4.0752521512935563e-01
    3.6804347214788313e+00 -5.2449805608765598e-01
    2.8321058923670899e+00 -6.3476765608658980e-01
    2.5132671735298842e+00 -8.3506281640421953e-01
    2.3976020874089254e+00 -1.1400030646088184e+00
    2.4329699818345651e+00 -1.2680273023042741e+00
    2.4726893992507386e+00 -1.1353605569234668e+00
    2.4431044322524835e+00 -1.0731559558873629e+00
    2.3088416634254170e+00 -1.0878565859045690e+00
    2.3282939543315297e+00 -1.0927207192625576e+00
    2.4121678219154292e+00 -1.1336214131386360e+00
    2.4775038687222750e+00 -1.2335772533653886e+00
    2.4003362353603901e+00 -1.2308432273285894e+00
    2.3348613663791689e+00 -1.0116718761007937e+00
    2.5140986672673056e+00 -7.5628945153085503e-01
    2.9519113512458799e+00 -5.9963963399747910e-01
    4.0876746061054972e+00 -4.7936896193338113e-01
    5.9340329197718118e+00 -3.3932287544294765e-01
    9.1313708618084810e+00 -2.6704922719850716e-01
    6.7245692439231837e+00 -2.7912542240672422e-01
    5.1619428975896877e+00 -3.6967921440648660e-01
    3.7855229528602998e+00 -4.9705803145288019e-01
    2.8064554524805048e+00 -6.0435899519093128e-01
    2.4611132839875918e+00 -8.0331335428675332e-01
    2.3244500189568678e+00 -1.1111923343401378e+00
    2.3854536873591918e+00 -1.3061953318762174e+00
    2.4296420766840652e+00 -1.2233669758270755e+00
    2.3829578514288157e+00 -1.1859323958690395e+00
    2.3295790745804057e+00 -1.2706866993070081e+00
    2.3613075811146853e+00 -1.2883636569826797e+00
    2.3922683555958737e+00 -1.2859478493074370e+00
    2.4774632047188154e+00 -1.3688661106697992e+00
    2.3994533030026410e+00 -1.2743203840433848e+00
    2.3262469878084757e+00 -9.9371100308097293e-01
    2.5005793089841566e+00 -7.3352442131293305e-01
    2.9637304866247463e+00 -5.8238960992231958e-01
    4.1024230910360400e+00 -4.6351072048401926e-01
    5.9427688485100143e+00 -3.3101672212129163e-01
    9.2342615831127919e+00 -2.5406895107061828e-01
    7.5034129860408783e+00 -2.8235468795976620e-01
    5.5522535734931422e+00 -3.6754413061698293e-01
    4.0027116430868368e+00 -4.7463106550399486e-01
    2.9696512181248802e+00 -5.7654056655505204e-01
    2.5622538219884463e+00 -7.6428595474501726e-01
    2.3345934172575693e+00 -1.0688001514341563e+00
    2.4004270702178476e+00 -1.3033703969840207e+00
    2.4386589999238368e+00 -1.2876885069469990e+00
    2.4451297663471490e+00 -1.3329151541129387e+00
    2.4179281528133170e+00 -1.4505322935392564e+00
    2.4660960334414677e+00 -1.5073910299138367e+00
    2.4570463512753280e+00 -1.4468216084978158e+00
    2.5201775421360764e+00 -1.4863346310893539e+00
    2.4521088135537830e+00 -1.3166471183618440e+00
    2.3819519700257379e+00 -9.8713267237323155e-01
    2.6269811709756095e+00 -7.1107430726748444e-01
    3.2008001350369213e+00 -5.6524877916512339e-01
    4.4287704938979573e+00 -4.4647352665640666e-01
    6.3880136707686939e+00 -3.2097698720875079e-01
    1.0037856152811958e+01 -2.6220153367316296e-01
    7.9041206999216866e+00 -2.7429565203784612e-01
    5.8004985582551409e+00 -3.7151888785424070e-01
    4.0307224515886251e+00 -4.7545747827309853e-01
    2.9572462102232469e+00 -5.7999852748842673e-01
    2.5209325317988105e+00 -7.8049899929366129e-01
    2.3272641406943189e+00 -1.0840544240681027e+00
    2.4213518993295295e+00 -1.3305588481740427e+00
    2.4410035390235905e+00 -1.3126311108283413e+00
    2.4095555025054125e+00 -1.3021660018276493e+00
    2.3772261505442311e+00 -1.3818203012246344e+00
    2.3845684800795350e+00 -1.4201325103841635e+00
    2.4237076186645328e+00 -1.4086106663683819e+00
    2.5278638393643669e+00 -1.5239565165847078e+00
    2.4578590264198263e+00 -1.3911111918200747e+00
    2.3791786403742088e+00 -1.0333114176912161e+00
    2.5651735434750034e+00 -7.2960193554995856e-01
    3.1257507604488044e+00 -5.7015582349544658e-01
    4.2592819355846085e+00 -4.5205181102361208e-01
    6.0605589326016887e+00 -3.2064837425421777e-01
    9.1593201208687649e+00 -2.5513473919453150e-01
    8.0503611626060074e+00 -2.6952076345558701e-01
    5.7624524558453238e+00 -3.5945189256758536e-01
    4.0761652297022968e+00 -4.6706093116595487e-01
    2.9834690223010139e+00 -5.7396366691798062e-01
    2.5066140111520330e+00 -7.7236985678383030e-01
    2.3321982977616873e+00 -1.0838932511670125e+00
    2.4123961213875704e+00 -1.3089232475024111e+00
    2.4192621532845298e+00 -1.2082766294452221e+00
    2.3881103805741541e+00 -1.1275281724012172e+00
    2.3227024097923814e+00 -1.1340421569281958e+00
    2.3339980964306211e+00 -1.1696999139505535e+00
    2.3675519964304721e+00 -1.1968686456914746e+00
    2.4397621674967431e+00 -1.3380819104684967e+00
    2.3666784189211554e+00 -1.2907628972128029e+00
    2.3375810226852467e+00 -1.0155975533291017e+00
    2.5222483008379699e+00 -7.3131965437227031e-01
    3.0297315111418910e+00 -5.6756424621304791e-01
    4.1062178669041929e+00 -4.4799520512270341e-01
    5.8974051292033653e+00 -3.2615587259773388e-01
    8.9033966082671210e+00 -2.5983416115562691e-01
    8.2293126675096726e+00 -2.7853059601903746e-01
    5.9196638359647773e+00 -3.6807274907602311e-01
    4.1525771037569834e+00 -4.7664322306595286e-01
    3.0104661317522230e+00 -5.7425711111226929e-01
    2.5389159068543514e+00 -7.7147203785665963e-01
    2.3618835000232363e+00 -1.0990403684604051e+00
    2.4422208740812175e+00 -1.2995326620890222e+00
    2.4602958565930164e+00 -1.1238246000491685e+00
    2.4589687498981481e+00 -9.8836750752868663e-01
    2.3934283410777040e+00 -9.7035581567202345e-01
    2.3722702880538358e+00 -9.7773606847627137e-01
    2.4123166098800861e+00 -1.0230755221041612e+00
    2.4372300599824821e+00 -1.2021845457049840e+00
    2.3562115953597171e+00 -1.2061842068962938e+00
    2.3686595646436586e+00 -9.7211507379349638e-01
    2.5633345806369934e+00 -7.2174535482750402e-01
    3.0936266047521448e+00 -5.7113482427648588e-01
    4.1920830667383573e+00 -4.4545595299894675e-01
    6.2945882699201849e+00 -3.3027316916721927e-01
    9.8089653225448465e+00 -2.6883963730430760e-01
    7.9993216385390502e+00 -2.7527320077807177e-01
    5.8047128274506816e+00 -3.6132456670234658e-01
    4.1254693659450492e+00 -4.7519436156100209e-01
    3.0156281597387227e+00 -5.8568505022984929e-01
    2.4923269167951463e+00 -8.0256088372812617e-01
    2.3353828518824682e+00 -1.1698753920215759e+00
    2.4147425185792573e+00 -1.3242346450278757e+00
    2.4462172832757720e+00 -1.1071100198929975e+00
    2.4231991589694832e+00 -9.4505209451974903e-01
    2.3582605989423828e+00 -9.3810543555843517e-01
    2.3618848080625758e+00 -9.6294795715298542e-01
    2.3563874202130357e+00 -1.0047551049737509e+00
    2.4039458430956469e+00 -1.1960816698260588e+00
    2.3455856858453790e+00 -1.2467138629865924e+00
    2.3336096971473164e+00 -1.0122812127158614e+00
    2.5091637537805584e+00 -7.4859825542037839e-01
    3.0444963970613017e+00 -5.8328328969795173e-01
    4.0659142642659614e+00 -4.4967174279470112e-01
    6.0806224250521499e+00 -3.3326581533400718e-01
    9.7584556865828294e+00 -2.6991624983773749e-01
    7.9330363118046971e+00 -2.8057343908617816e-01
    5.7284611352992290e+00 -3.6637269170564835e-01
    4.1856517301768941e+00 -4.7899514924822062e-01
    3.0873125729314035e+00 -5.8836823021043716e-01
    2.5161659559971739e+00 -8.2809568331906924e-01
    2.3530074175932283e+00 -1.1982578990774559e+00
    2.4685434863757649e+00 -1.3823695092286523e+00
    2.4847173357514376e+00 -1.1255597573509368e+00
    2.4364986912607018e+00 -9.4661689707226404e-01
    2.3793570726122790e+00 -9.5814524055755157e-01
    2.3917100326889260e+00 -9.6745143714458548e-01
    2.3739271141728038e+00 -9.9882539630093004e-01
    2.4365930324216070e+00 -1.2103436418227496e+00
    2.3559819564009166e+00 -1.2689525368978338e+00
    2.3506800146702802e+00 -1.0399891041918201e+00
    2.5755834705793235e+00 -7.5299653111160680e-01
    3.1208682212616918e+00 -5.8715631504949806e-01
    4.1935704619314933e+00 -4.5184300861786703e-01
    6.2101195398084803e+00 -3.2385540759375048e-01
    9.3199376606708082e+00 -2.6805435397570188e-01
    7.9260052169603039e+00 -2.8022912815392370e-01
    5.5861239648435994e+00 -3.7393835791661467e-01
    4.0436224433816870e+00 -4.8201445633845114e-01
    3.0322178129920538e+00 -5.9142062010980279e-01
    2.4837732168930287e+00 -8.2477758311101845e-01
    2.3764877283454044e+00 -1.2334624171187181e+00
    2.5029759306300479e+00 -1.4472290399847254e+00
    2.5090473607013486e+00 -1.1825840785767112e+00
    2.4767941836943383e+00 -9.7670122345229715e-01
    2.3879820913246754e+00 -9.6126404104214602e-01
    2.3638393445109247e+00 -9.7389329083050002e-01
    2.4042086536761831e+00 -1.0181631859666416e+00
    2.4582242803218488e+00 -1.2385802449356904e+00
    2.3707310519972391e+00 -1.2856871850245797e+00
    2.3655415790959506e+00 -1.0396366590716948e+00
    2.5720556271545676e+00 -7.4740603741481060e-01
    3.0751088482552311e+00 -5.9575668140040960e-01
    4.1689147941008109e+00 -4.6547979572778608e-01
    6.1484881116811296e+00 -3.3087213994974546e-01
    9.2745977175124299e+00 -2.7159604622352751e-01
    7.0393343710402734e+00 -2.6930816895846554e-01
    5.3836031597790299e+00 -3.6235629701890604e-01
    4.0614206427930890e+00 -4.7701541025381311e-01
    3.0519036578965131e+00 -5.8702241789979492e-01
    2.5040680586424400e+00 -8.0652599111694012e-01
    2.3514662273440656e+00 -1.1950187341013434e+00
    2.4523860070473806e+00 -1.4213008903028139e+00
    2.4909262015771891e+00 -1.2033450789658382e+00
    2.5071705619461171e+00 -1.0077358832212326e+00
    2.4248611777368261e+00 -9.3773591895693631e-01
    2.4215254093987015e+00 -9.4511519788631670e-01
    2.4725870907184988e+00 -1.0710516775549681e+00
    2.4440976447201095e+00 -1.2582937691363927e+00
    2.3541462557718007e+00 -1.3010937185088274e+00
    2.3615771609384240e+00 -1.0371363442937698e+00
    2.5146622604284952e+00 -7.4525945316520525e-01
    2.9696948624244306e+00 -6.0099818523298432e-01
    4.1074987567662742e+00 -4.7590982446049762e-01
    5.9113148289200872e+00 -3.2710346795350037e-01
    8.5178137360865289e+00 -2.6777027168811096e-01
    6.9401347283735824e+00 -2.7822509357744662e-01
    5.5985075656227927e+00 -3.5613602867078115e-01
    4.5080112727264057e+00 -4.6336646839726953e-01
    3.3558276016036097e+00 -5.6565387246842769e-01
    2.6419816811005390e+00 -7.5915972790450492e-01
    2.4045524685527671e+00 -1.1266826685879119e+00
    2.4156488382549406e+00 -1.3425265836305991e+00
    2.4716905143166725e+00 -1.2547181355673269e+00
    2.4714338740665984e+00 -1.1310951868273609e+00
    2.4648620154968932e+00 -1.0844471366396713e+00
    2.4978379008932152e+00 -1.1061014428733258e+00
    2.5205109791216356e+00 -1.2267764645257535e+00
    2.4433616816563068e+00 -1.3325733954587302e+00
    2.4368936778217756e+00 -1.3407546949399638e+00
    2.4547943314426326e+00 -1.0115500707944745e+00
    2.5876310696031348e+00 -7.4848500878551727e-01
    3.1204441211860967e+00 -6.0705866296658584e-01
    4.2828431094584900e+00 -4.7608164078311049e-01
    6.1788549426084911e+00 -3.3638321662897736e-01
    8.5869792831873379e+00 -2.8141462418246743e-01
    7.2303280719511216e+00 -2.7138050879052689e-01
    6.0833552977243484e+00 -3.3604346176670091e-01
    5.0713805506852729e+00 -4.1195216716490451e-01
    3.7817681012995177e+00 -4.8956502147792075e-01
    2.8684175172522659e+00 -6.5858177359242265e-01
    2.4324299421998772e+00 -9.4188094362341690e-01
    2.3945766029424669e+00 -1.1647827836990288e+00
    2.3747832401753217e+00 -1.1586306431868294e+00
    2.3232297350477698e+00 -1.1315495880794371e+00
    2.2992559256641680e+00 -1.1580454388903088e+00
    2.2793187035235594e+00 -1.1140320172368166e+00
    2.3069634095218694e+00 -1.1440896636460112e+00
    2.3404756536234568e+00 -1.1799104289631381e+00
    2.3990023120958175e+00 -1.1178699926902094e+00
    2.4729063188556331e+00 -8.5947038107977813e-01
    2.7566143512474910e+00 -6.6195669152405112e-01
    3.2658255032106274e+00 -5.3882675448576722e-01
    4.2777857930470287e+00 -4.2273559028272018e-01
    5.9081786895591151e+00 -3.2042112945837953e-01
    8.1519719848670054e+00 -2.7134879142443213e-01
    9.0723170262533017e+00 -2.7729818928475564e-01
    8.4588007216796051e+00 -3.1421320567446104e-01
    6.9232283967746424e+00 -3.4774448714196743e-01
    5.1322425295252305e+00 -4.0354445830810842e-01
    3.7258653190099507e+00 -5.1853707543910521e-01
    2.7961073172548687e+00 -6.6899084537478692e-01
    2.6490304302914991e+00 -7.8092301211118853e-01
    2.6216841666856325e+00 -8.0463483928877777e-01
    2.4600385923146901e+00 -8.4427043480623509e-01
    2.3712576648184287e+00 -8.7825664606318843e-01
    2.3752951608249333e+00 -8.4968932729917834e-01
    2.5419102600561443e+00 -8.0535081168395195e-01
    2.6719129394202099e+00 -7.7843829000999187e-01
    2.6915765498668791e+00 -7.3353786186984871e-01
    3.0269969755150958e+00 -6.1784708829307677e-01
    3.5825117712396120e+00 -5.0495802964563519e-01
    4.3663005060116182e+00 -4.1771602085904885e-01
    5.4480202463883289e+00 -3.5618714338154023e-01
    7.0195748025366838e+00 -3.1349443856309034e-01
    9.2875062125385455e+00 -2.8950124928443005e-01</input_scale>
  <output_scale>
    5.2631578947368418e-01 4.9999999999999994e-01 5.2631578947368418e-01
    4.9999999999999994e-01 5.2631578947368418e-01 4.9999999999999994e-01
    5.2631578947368418e-01 4.9999999999999994e-01 5.2631578947368418e-01
    4.9999999999999994e-01 5.2631578947368418e-01 4.9999999999999994e-01
    5.2631578947368418e-01 4.9999999999999994e-01 5.2631578947368418e-01
    4.9999999999999994e-01 5.2631578947368418e-01 4.9999999999999994e-01
    5.2631578947368418e-01 4.9999999999999994e-01 5.2631578947368418e-01
    4.9999999999999994e-01 5.2631578947368418e-01 4.9999999999999994e-01
    5.2631578947368418e-01 4.9999999999999994e-01 5.2631578947368418e-01
    4.9999999999999994e-01 5.2631578947368418e-01 4.9999999999999994e-01
    5.2631578947368418e-01 4.9999999999999994e-01 5.2631578947368418e-01
    4.9999999999999994e-01 5.2631578947368418e-01 4.9999999999999994e-01
    5.2631578947368418e-01 4.9999999999999994e-01 5.2631578947368418e-01
    4.9999999999999994e-01 5.2631578947368418e-01 4.9999999999999994e-01
    5.2631578947368418e-01 4.9999999999999994e-01 5.2631578947368418e-01
    4.9999999999999994e-01 5.2631578947368418e-01 4.9999999999999994e-01
    5.2631578947368418e-01 4.9999999999999994e-01 5.2631578947368418e-01
    4.9999999999999994e-01 5.2631578947368418e-01 4.9999999999999994e-01
    5.2631578947368418e-01 4.9999999999999994e-01 5.2631578947368418e-01
    4.9999999999999994e-01 5.2631578947368418e-01 4.9999999999999994e-01
    5.2631578947368418e-01 4.9999999999999994e-01 5.2631578947368418e-01
    4.9999999999999994e-01 5.2631578947368418e-01 4.9999999999999994e-01
    5.2631578947368418e-01 4.9999999999999994e-01 5.2631578947368418e-01
    4.9999999999999994e-01 5.2631578947368418e-01 4.9999999999999994e-01
    5.2631578947368418e-01 4.9999999999999994e-01 5.2631578947368418e-01
    4.9999999999999994e-01 5.2631578947368418e-01 4.9999999999999994e-01
    5.2631578947368418e-01 4.9999999999999994e-01 5.2631578947368418e-01
    4.9999999999999994e-01 5.2631578947368418e-01 4.9999999999999994e-01
    5.2631578947368418e-01 4.9999999999999994e-01 5.2631578947368418e-01
    4.9999999999999994e-01 5.2631578947368418e-01 4.9999999999999994e-01
    5.2631578947368418e-01 4.9999999999999994e-01 5.2631578947368418e-01
    4.9999999999999994e-01 5.2631578947368418e-01 4.9999999999999994e-01
    5.2631578947368418e-01 4.9999999999999994e-01 5.2631578947368418e-01
    4.9999999999999994e-01 5.2631578947368418e-01 4.9999999999999994e-01
    5.2631578947368418e-01 4.9999999999999994e-01 5.2631578947368418e-01
    4.9999999999999994e-01 5.2631578947368418e-01 4.9999999999999994e-01
    5.2631578947368418e-01 4.9999999999999994e-01 5.2631578947368418e-01
    4.9999999999999994e-01 5.2631578947368418e-01 4.9999999999999994e-01
    5.2631578947368418e-01 4.9999999999999994e-01 5.2631578947368418e-01
    4.9999999999999994e-01 5.2631578947368418e-01 4.9999999999999994e-01
    5.2631578947368418e-01 4.9999999999999994e-01 5.2631578947368418e-01
    4.9999999999999994e-01 5.2631578947368418e-01 4.9999999999999994e-01
    5.2631578947368418e-01 4.9999999999999994e-01 5.2631578947368418e-01
    4.9999999999999994e-01</output_scale>
  <inv_output_scale>
    1.8999999999999999e+00 -9.4999999999999996e-01
    1.8999999999999999e+00 -9.4999999999999996e-01
    1.8999999999999999e+00 -9.4999999999999996e-01
    1.8999999999999999e+00 -9.4999999999999996e-01
    1.8999999999999999e+00 -9.4999999999999996e-01
    1.8999999999999999e+00 -9.4999999999999996e-01
    1.8999999999999999e+00 -9.4999999999999996e-01
    1.8999999999999999e+00 -9.4999999999999996e-01
    1.8999999999999999e+00 -9.4999999999999996e-01
    1.8999999999999999e+00 -9.4999999999999996e-01
    1.8999999999999999e+00 -9.4999999999999996e-01
    1.8999999999999999e+00 -9.4999999999999996e-01
    1.8999999999999999e+00 -9.4999999999999996e-01
    1.8999999999999999e+00 -9.4999999999999996e-01
    1.8999999999999999e+00 -9.4999999999999996e-01
    1.8999999999999999e+00 -9.4999999999999996e-01
    1.8999999999999999e+00 -9.4999999999999996e-01
    1.8999999999999999e+00 -9.4999999999999996e-01
    1.8999999999999999e+00 -9.4999999999999996e-01
    1.8999999999999999e+00 -9.4999999999999996e-01
    1.8999999999999999e+00 -9.4999999999999996e-01
    1.8999999999999999e+00 -9.4999999999999996e-01
    1.8999999999999999e+00 -9.4999999999999996e-01
    1.8999999999999999e+00 -9.4999999999999996e-01
    1.8999999999999999e+00 -9.4999999999999996e-01
    1.8999999999999999e+00 -9.4999999999999996e-01
    1.8999999999999999e+00 -9.4999999999999996e-01
    1.8999999999999999e+00 -9.4999999999999996e-01
    1.8999999999999999e+00 -9.4999999999999996e-01
    1.8999999999999999e+00 -9.4999999999999996e-01
    1.8999999999999999e+00 -9.4999999999999996e-01
    1.8999999999999999e+00 -9.4999999999999996e-01
    1.8999999999999999e+00 -9.4999999999999996e-01
    1.8999999999999999e+00 -9.4999999999999996e-01
    1.8999999999999999e+00 -9.4999999999999996e-01
    1.8999999999999999e+00 -9.4999999999999996e-01
    1.8999999999999999e+00 -9.4999999999999996e-01
    1.8999999999999999e+00 -9.4999999999999996e-01
    1.8999999999999999e+00 -9.4999999999999996e-01
    1.8999999999999999e+00 -9.4999999999999996e-01
    1.8999999999999999e+00 -9.4999999999999996e-01
    1.8999999999999999e+00 -9.4999999999999996e-01
    1.8999999999999999e+00 -9.4999999999999996e-01
    1.8999999999999999e+00 -9.4999999999999996e-01
    1.8999999999999999e+00 -9.4999999999999996e-01
    1.8999999999999999e+00 -9.4999999999999996e-01
    1.8999999999999999e+00 -9.4999999999999996e-01
    1.8999999999999999e+00 -9.4999999999999996e-01
    1.8999999999999999e+00 -9.4999999999999996e-01
    1.8999999999999999e+00 -9.4999999999999996e-01
    1.8999999999999999e+00 -9.4999999999999996e-01
    1.8999999999999999e+00 -9.4999999999999996e-01
    1.8999999999999999e+00 -9.4999999999999996e-01
    1.8999999999999999e+00 -9.4999999999999996e-01
    1.8999999999999999e+00 -9.4999999999999996e-01
    1.8999999999999999e+00 -9.4999999999999996e-01
    1.8999999999999999e+00 -9.4999999999999996e-01
    1.8999999999999999e+00 -9.4999999999999996e-01
    1.8999999999999999e+00 -9.4999999999999996e-01
    1.8999999999999999e+00 -9.4999999999999996e-01
    1.8999999999999999e+00 -9.4999999999999996e-01
    1.8999999999999999e+00 -9.4999999999999996e-01
    1.8999999999999999e+00 -9.4999999999999996e-01
    1.8999999999999999e+00 -9.4999999999999996e-01
    1.8999999999999999e+00 -9.4999999999999996e-01</inv_output_scale>
  <weights>
    <_>
      -1.7512404569416190e-02 7.7616029659031457e-02
      -1.0522551617347262e-01 5.0623973564532104e-02
      1.2107679837638000e-02 8.0704335651371029e-02
      2.4877967016041502e-02 -1.4790191370503351e-02
      4.1933149807966301e-02 3.3632150215826613e-02
      -2.1219063505069743e-02 -1.0856785845078518e-01
      1.3160657472331699e-02 5.3504864019802457e-02
      9.4832198566337182e-03 -7.2438261029311710e-02
      -1.4385187445658696e-02 -1.7139097814686644e-01
      3.7082083737165178e-02 -2.3450567924656843e-02
      -7.2832601043390288e-02 -2.2054238477791099e-02
      2.8928353729563906e-02 7.2515599394989919e-03
      6.1514541501070184e-02 1.5993308923711928e-02
      -1.1651168361459617e-02 1.4368768024667782e-02
      -3.9774581270030380e-03 -3.2924040770722453e-02
      -7.5815261203601159e-02 3.9134878475758327e-03
      -1.1294112334400334e-01 3.0577273189199883e-02
      -4.4265499181678894e-02 -2.4323841273332866e-02
      -2.1095504153968155e-02 4.9332963979457120e-02
      -1.2008754218342969e-02 6.1833281483620509e-02
      5.7585821552468906e-02 -1.2585456698053438e-01
      -4.7016384905724289e-02 4.3506436214678463e-03
      -3.5132275968280391e-02 1.9328049564119903e-02
      8.8372241312463656e-03 1.4144822598101314e-03
      1.5520028265917220e-02 1.1156188164470572e-01
      -6.1128569711895203e-02 -3.3560877279206584e-03
      3.1525366706779902e-03 4.4857305108582116e-02
      4.2012849543245086e-02 -2.3768629476070374e-02
      1.8982423536106081e-02 4.2130497719167291e-02
      -4.3814548767771890e-02 2.6149925992838760e-02
      5.4334345913409486e-02 -9.7210536608235444e-04
      5.9326972956832993e-02 4.1289881588399642e-02
      -1.6814642324856827e-02 5.0275947860384911e-02
      -7.7077365102016349e-02 4.3407349163435707e-02
      2.3244002756833596e-02 3.2524960238070180e-02
      3.7260924582653218e-02 -3.5994572860544319e-02
      3.7043736424873352e-02 1.6513519747500691e-02
      -1.4629352302338071e-02 -9.1758753299141516e-02
      -1.6289617541757673e-02 2.9258218598478544e-02
      3.1290857220425565e-02 -9.8734439789494408e-02
      -8.5092957581693988e-03 -1.6692311678659727e-01
      3.3582618930462126e-02 -1.2934620676494054e-02
      -5.0457979513293713e-02 -7.0041723359209208e-03
      2.1070492962136422e-02 1.6761050178305460e-02
      5.2014490851044627e-02 2.5389825004707552e-02
      1.2490716554280310e-02 3.0485492712109232e-02
      -1.0561739867613626e-02 -9.9225888157153264e-03
      -5.2163699919082172e-02 5.3041416405266309e-03
      -9.8227326735000953e-02 3.8907923102209354e-03
      -2.8810159769685584e-02 -5.7977633698299835e-02
      -1.6536071970210005e-02 3.1736701910742217e-02
      -4.2692854466810943e-03 4.2577258037162551e-02
      3.0879209970888197e-02 -1.2691223470993360e-01
      -5.9760695139445687e-02 1.3853571358499621e-02
      -2.0249541753040161e-02 4.4747800402680289e-02
      1.2164793212979162e-02 7.6253835694524812e-03
      8.9480201478108236e-03 9.0858747571245721e-02
      -3.0256548145968652e-02 5.1508395602447932e-03
      7.7282388676801787e-03 4.0131344872025805e-02
      2.8597915749712276e-02 -2.0557915344531708e-02
      2.9466317726877404e-02 2.9901650635319202e-02
      -2.3982580707055359e-02 3.6499658166516645e-02
      1.6598165624820870e-02 -1.9944087309633898e-02
      4.0974078004724232e-02 4.4005142174833443e-02
      1.8331026017467018e-02 5.8151719379167669e-03
      -7.3236225034974456e-02 2.7632813691338517e-02
      1.6502265138460016e-02 9.8024385371548121e-03
      6.2007204604791144e-02 -2.7367104443186088e-02
      2.9111037087598390e-03 1.1904318151276191e-03
      -3.1757734166281207e-02 -7.2298124288856694e-02
      -3.9064244877052524e-03 1.9288927761780299e-02
      -8.7193977054586796e-04 -9.1721764648068027e-02
      -2.3297066036224886e-02 -1.0054528616789986e-01
      3.4491543154734967e-02 -1.8714254904729399e-02
      -4.4189657256878657e-02 -8.8820169464225475e-03
      -2.3173408880331231e-02 2.2655848556685700e-02
      2.0945212369884780e-02 9.7789038265446385e-03
      5.8960359091841750e-03 2.3659444323033064e-02
      2.5898568119470827e-03 -1.3802668339081748e-02
      -3.2431384969566941e-02 1.5438100844662883e-02
      -7.1375926165434006e-02 1.8329652522273303e-02
      -1.3510097401077423e-02 -5.6389187852661664e-02
      -5.2194047392311255e-03 5.0216817820097591e-03
      -2.2185559745555280e-03 2.2523135605842692e-02
      1.9057139104858591e-02 -8.0404079743223764e-02
      -7.5007962953189899e-02 1.4391116416110716e-02
      -1.6396835839756350e-02 1.8750306878001166e-02
      2.2647244607357911e-02 -1.9773288828364610e-02
      2.0328171252750382e-02 6.8566121209798506e-02
      1.3101678457608508e-03 -2.0759690822442928e-04
      -2.4783996533642269e-03 4.3825482162983933e-03
      1.3912946680895906e-02 -5.0783527525936954e-04
      2.6640463271751458e-02 -1.3071093635467828e-02
      2.9823723516958739e-03 5.7309924906275489e-03
      1.8974299879118447e-03 -2.1155926667766993e-03
      1.9955604712325320e-05 1.8760094905419699e-02
      4.0223419094100377e-02 -4.1638795120971350e-02
      -2.9577602536444401e-02 1.6585801503249994e-02
      4.4603221508321904e-02 7.2580901176263609e-03
      5.4776998405372465e-03 -4.4402166921593225e-02
      -1.4874258529926131e-03 -2.9615922108689494e-02
      6.9456583918355739e-03 -3.8796961018176659e-02
      -6.7918298983943113e-03 2.9199808565589944e-02
      1.0484720350972089e-03 -1.6808665247110260e-02
      -2.2778605332509288e-02 -1.3917460180522994e-02
      9.9976177465600970e-03 2.4995749943692500e-02
      -4.0990613870490633e-02 5.4402138647315834e-03
      -1.8193839961824776e-02 2.3355227131199141e-02
      -5.5718698179913198e-03 -2.8220854015575215e-02
      -2.7794261977003465e-02 2.3351233620203596e-02
      2.0141016973817996e-02 1.8719148569353014e-02
      5.6151194590377835e-03 -7.9927426270359997e-04
      -2.3491500281063671e-02 6.3297500748240206e-03
      2.4852286111049782e-02 -1.1625255311802704e-02
      4.0190235322932449e-02 8.6003515717700228e-03
      2.4686878392625258e-02 1.4812183505329589e-02
      1.5205022624975296e-02 -2.9221869219178159e-02
      -2.4601072136113605e-02 2.3358182477390077e-02
      4.4044576561844606e-03 4.2753252470735151e-02
      1.1174441436205412e-02 2.6561525404957643e-02
      -1.9458466913737794e-02 3.1754546083925993e-02
      1.4834926413182954e-03 -4.5516830944198651e-02
      1.2231497289267527e-02 -1.1293977605393257e-02
      -6.5641354017340206e-03 -1.2453725489001012e-02
      3.3631728121334782e-02 5.3130005724444070e-03
      -1.8153541732618642e-02 2.4084209901239859e-02
      -2.0821627130428110e-04 -2.6125910053481204e-02
      -1.0805292768271241e-02 -2.4574975413438199e-02
      1.8342520315945340e-02 -4.5672278842256046e-02
      6.9792042861468373e-03 -2.2247225406438177e-02
      2.7552623757869616e-02 1.2656095607384137e-02
      5.7995889270482806e-03 -5.3024844235420164e-02
      1.5910222486327906e-05 -3.5958909144921655e-02
      -8.2027045987857639e-03 1.7880877388733001e-03
      -1.7800314201900931e-02 1.3062864221536857e-03
      1.7032141586172798e-02 6.1765876388832561e-03
      3.0207538762505141e-03 1.7431721737049689e-02
      -2.0895057710836103e-02 8.0891683541730649e-03
      -1.8371496599516882e-02 -4.7619357900945420e-03
      1.1861256844424021e-02 1.1756183635767473e-02
      -3.2344270639615362e-02 -1.7999278869063953e-02
      -4.7510269665704367e-02 3.3085871707912148e-02
      3.5373912399190896e-02 2.2190954225883342e-02
      1.0643258126507543e-02 -2.6963933052200122e-02
      2.5450032540239899e-04 7.6702827992778380e-03
      3.2168705253784034e-02 -2.1778553373612519e-02
      -9.7758604586803948e-03 -1.1015403551786228e-02
      2.7417512229602033e-02 2.4071213727777461e-02
      1.3278610114996601e-02 1.3617214727244992e-02
      -3.3206354456588795e-02 2.4452861164839589e-02
      -4.1401967652174763e-02 5.8862661363592072e-03
      2.3618449466158351e-02 1.3179512645094085e-02
      -2.8115834454366894e-02 -1.2729227423049791e-02
      -1.1299676185850736e-02 6.1199202533339327e-04
      2.3313843762540608e-02 8.2123647106949866e-04
      -2.4205586837192785e-02 -5.3921933514273004e-02
      1.0749255403122724e-02 2.0419265929853058e-02
      3.7100931276043908e-03 2.0006627183499121e-02
      -9.1873124334592073e-03 -3.7976101222426041e-02
      -2.5988536291187608e-02 -1.5897521951983712e-02
      -1.9261268431142543e-02 -4.2946552447479407e-02
      -8.9802622729288767e-03 -3.3992690789044093e-02
      5.6071135698336078e-02 1.4283805033032029e-05
      -1.5193358522203505e-02 -5.2571074839897557e-02
      -1.2081167540366399e-02 -2.4203385380591542e-02
      -2.5283077643368297e-02 2.3095548046526373e-02
      -2.7688500925801891e-02 6.0022787918828438e-03
      4.0028635539740766e-02 1.0181266434536578e-02
      1.9493714995045763e-02 8.3441530384385249e-03
      -1.1460615825130437e-02 -1.3580034646215104e-02
      -3.6039528617265781e-02 1.4516602826633375e-02
      2.0025122311556228e-02 2.3427028725091170e-02
      -2.8958323620206648e-02 2.2496880923343204e-03
      -3.5699252655139485e-02 -3.3489089807225800e-02
      9.3106285448521214e-03 -3.6574075285478513e-02
      -1.4054404715785097e-02 -1.3330736195588135e-02
      -1.7376803582983397e-02 8.4727691204251072e-03
      -5.7566796466096606e-03 2.6212949047097027e-03
      -1.2515226877988089e-02 -2.0000199547203043e-02
      2.1993972484092877e-02 2.0074953180890233e-02
      4.3157513499484004e-02 8.2543240743234714e-03
      -3.1759874062157231e-02 1.1268918541644498e-02
      -7.5576421474521413e-02 2.7329644794431424e-02
      -9.9736468899780956e-03 1.4118013971245943e-02
      -3.1148050311782492e-02 1.1139968612736415e-03
      -1.7181175573640548e-02 -3.9804349959569253e-02
      2.5610582844317199e-02 -2.0217868108919488e-02
      2.1780215243222094e-02 3.0462530427845763e-03
      2.3081211826748774e-02 1.0758678507110155e-02
      3.0133402943581848e-02 4.5674693954411837e-02
      3.8967366564724346e-03 -1.8358780163802345e-02
      -1.3554547949249502e-02 1.4452843439464775e-02
      3.0198709811904909e-02 -2.7710079478680868e-02
      3.8971001770940511e-02 -2.8381412890095298e-02
      6.5217349966894517e-02 -2.0633492471177597e-02
      -1.6292831225036667e-02 -4.6691386435709206e-02
      -3.7077688526578813e-02 -1.1138947312482352e-02
      1.1993465543742321e-03 2.7740426331440596e-02
      3.1190614235451566e-02 2.0187132617918085e-02
      5.0895909864595176e-02 1.1860524056268073e-02
      2.7540302358482486e-02 -1.8834993864497460e-03
      2.5757600496179270e-02 6.5167519171725419e-02
      -4.6825250335704366e-02 1.9519349120008054e-02
      3.5889226362580677e-02 2.5688102031148196e-02
      -2.2588900594930048e-02 2.2895225844622214e-02
      -1.5191078282512056e-02 -2.2345056525618856e-02
      -2.4597466075416123e-02 8.5776775957287082e-03
      1.0552678828334239e-02 2.7761615972153740e-03
      -2.9652868124704822e-02 1.9012095654746916e-02
      3.7669070296999134e-03 2.2878861258354010e-03
      -3.7225478446269361e-02 9.5408242658484455e-03
      1.3694634793177278e-02 -3.2888361812174541e-03
      2.0289673674792640e-02 -1.7991693322602528e-02
      -4.0624220664788976e-02 9.7872083929839270e-03
      -3.2508144811210463e-02 -2.4582672975515914e-02
      2.1734767977720938e-03 2.4694171498428955e-02
      -3.6122699925311197e-02 -9.1447216694883950e-03
      2.1840522972569103e-02 -8.3061138296510517e-02
      3.5745018585860933e-02 1.6697224617077386e-02
      5.3351588668318621e-02 -3.4968609171596450e-02
      3.6132148233939142e-02 3.0434808957548478e-03
      2.5639405945551037e-02 1.0381648557245557e-01
      -2.7271196959829554e-02 -1.5586898308980742e-02
      -1.5889391690159467e-02 9.9787144759438361e-03
      4.0230332083788907e-02 9.5052906155017897e-03
      3.4419282111205644e-02 -7.3045763049186443e-03
      2.9036467185695565e-03 -2.5644846127982172e-02
      2.5146857308711273e-02 2.4469905118374654e-02
      -4.1398306568992647e-03 -5.4985098655022206e-02
      -3.0622998054708458e-02 -1.8122928071577001e-03
      -4.1335563539567029e-02 -1.3202611838358089e-02
      2.6544932166116916e-02 2.8803927322492963e-02
      3.1075547231083647e-02 -1.5176838180258312e-02
      1.8030203429460084e-02 3.7645616782609324e-02
      -2.7184261633871880e-02 1.1552665407131756e-02
      2.3971250429904417e-02 3.6265142760346709e-02
      -2.1052583586736374e-02 -7.1827328585721230e-03
      -7.4546833603048226e-03 1.1617892442097606e-03
      2.2327159213723073e-02 -5.1852872646140011e-02
      -1.3394229295035658e-02 -4.2221811968268935e-02
      -8.9167639334310714e-03 -1.7507221348077771e-02
      4.6731929734355096e-02 -2.5765941828297795e-02
      -1.2664142188004320e-02 -2.6928088797350479e-03
      1.2747234679356879e-02 -2.8514288472945917e-02
      -2.9280960365385810e-02 -6.6183070517265748e-03
      -4.1418491390119563e-02 -2.5372077501591404e-02
      -1.3368613106822934e-02 -8.3604416018866531e-03
      2.9837609125573719e-02 2.7406558858090915e-02
      -3.8570119189550015e-03 -8.9606971738428708e-03
      -1.2632607034670442e-03 -5.8027958027930746e-02
      3.3681317599853558e-02 -1.7733962712403115e-02
      5.5017233352625802e-02 -2.8712569014829339e-02
      -1.4742239548419332e-02 -8.2980023028105636e-03
      3.0160988476156874e-02 6.0697801705757011e-02
      -4.0651278665587508e-02 -2.7060208703654068e-02
      1.7213108081755132e-02 -2.7030474161903087e-02
      5.5117391629900571e-03 2.1431540333465431e-02
      9.2076831548118417e-03 3.9881728539942610e-02
      -1.2721500506924662e-02 -4.4482882673307165e-03
      3.0109006018646980e-02 7.6969843197954536e-03
      -5.4691385409761741e-02 -2.0940500405689400e-02
      -2.9593177938670792e-03 -8.3998673772627160e-03
      -2.3074664780782073e-02 -3.8183557162043663e-02
      -5.2144969950841107e-02 2.5991386603974816e-02
      6.0283294603655129e-03 -5.8438885045181098e-03
      6.9203097050916252e-03 3.9857665519399212e-02
      -2.3870357564252813e-02 -2.5084451347586710e-02
      4.7569697058768803e-02 1.7456519308585772e-02
      2.3177020555621070e-03 -5.3424368066326618e-02
      2.8806567652873118e-02 -2.2609661383861390e-02
      -2.0750390663600682e-02 -2.6727953134078219e-02
      -1.5299923380140070e-02 -4.0004254444111806e-02
      1.0799482337083150e-02 -6.0821823247754002e-02
      4.1231893701896422e-03 -1.9484914177625944e-02
      1.9533508360631315e-02 4.0512668705185335e-03
      -4.3666850447159657e-02 -3.4780968068754893e-02
      -7.2380906310862109e-02 -2.8470059600160428e-04
      -1.0426961679362214e-03 -2.3749273082504886e-02
      -3.6205406819666219e-02 -4.7850302880311127e-02
      2.0746960856152470e-02 -1.7479453655877240e-02
      2.4096069346420522e-02 -1.0420941449876086e-02
      4.3203945499415315e-02 6.8329820486504642e-02
      2.9487001351514455e-02 7.9775507628407957e-03
      3.6887429442491758e-02 -4.1505850990444557e-02
      -7.0496829235197674e-03 2.9382338688359190e-02
      -3.4299010619976687e-03 5.4827425926414437e-02
      3.5462527203846191e-02 -5.2620523910783430e-02
      5.9136068347742321e-02 -8.3380310235674163e-03
      8.5639448672210225e-02 5.1658775936111311e-02
      1.0880807711165884e-02 6.2531985833698053e-02
      -2.4580573831811791e-02 -2.3566771395067337e-02
      3.7684017685310774e-02 4.4085402540848882e-02
      -4.6406126020383080e-04 3.0524336022741953e-02
      8.6011980038802009e-03 -1.5140699235338310e-02
      2.8603327171568438e-02 -9.2717418423752425e-03
      -2.7326737631130044e-02 -2.2186597484272113e-03
      -1.5457123772386335e-02 4.4147818021369042e-03
      2.5825627003530217e-03 2.6061634368673817e-02
      -5.8230308208872289e-02 -2.2797870561744215e-02
      5.7884452257589633e-02 4.7128649813972655e-02
      2.2341262045664154e-02 1.3482923202443934e-03
      -8.9373334595436085e-03 -2.9537610961025405e-03
      2.1675760216183438e-02 -3.0312192657631461e-02
      3.5146969655108079e-02 -3.6714127999251341e-02
      -3.8317051751455668e-03 -8.3490307157657942e-02
      -1.9865575804121304e-02 -5.2284718871262237e-02
      -3.3045859145830046e-02 6.6966497943977438e-02
      -3.4209915849031693e-02 -4.2750884409273535e-02
      -2.3285987695064212e-02 -1.7968802262249426e-02
      6.0885004596090572e-02 -3.5444567265827003e-02
      -1.4834494488812706e-02 -1.5466694772509695e-02
      1.9438727993378459e-02 -4.0465587224050942e-02
      -3.1650461722344911e-02 -1.4386556313827832e-02
      1.4828320673423072e-02 8.8542260450843457e-02
      -2.3339703066940446e-02 -4.4622801326474275e-02
      7.5528856068167552e-05 8.6257072964386547e-03
      -3.4040099674837870e-02 4.1653537421484860e-03
      -4.5032265244900095e-02 -7.9202867455961824e-03
      5.3767691084440426e-02 -6.0266037609857201e-02
      3.1169907107603038e-02 -4.5237145671161910e-02
      6.3433106473793854e-02 2.9177330115348734e-03
      -1.1535749514516989e-02 2.6514923848560530e-02
      3.5869486916912776e-03 -2.7266477188519642e-02
      -4.8773502619260120e-03 3.1385996586255974e-02
      1.2451580676432721e-02 2.1084506812503102e-02
      -6.8124489708069289e-05 -2.2083577072142781e-02
      -2.6968109054930751e-03 3.1040244984156296e-02
      -3.9062722464384490e-02 -3.2317266751528517e-02
      -1.2954932479642155e-02 -1.2633462054850886e-02
      -2.3019651019501575e-03 3.4320590928712903e-02
      -1.5654859014726127e-02 -2.6509812799008488e-02
      -2.3979592701898169e-02 3.3741352703788355e-03
      9.3687876636184178e-02 -4.1622065569076978e-03
      -3.1878659972273245e-02 -2.7137584026600974e-02
      4.8075295199122098e-02 -1.8343529160270697e-02
      4.2282086549376388e-02 -7.9942302637411353e-02
      1.8571226423494697e-02 -1.4224056136943785e-02
      -1.1436817687252730e-03 -5.7071323828795019e-02
      -3.8217207500690506e-02 7.2939349066950075e-03
      -3.2364151731495770e-03 -7.1609930109153799e-02
      -2.2815530476186081e-02 -2.3616974282180021e-02
      4.5832282924164920e-02 3.4487514162467900e-03
      1.7755806880684521e-02 -3.2127807726926950e-02
      -1.0450171160566558e-02 -1.4781785988680811e-03
      -6.3973954115882553e-02 -7.3914628409891235e-04
      1.5096101812937860e-02 7.8308999720178823e-02
      -9.8408449214147341e-03 -8.0835751653981439e-03
      -1.4013917311720267e-02 -6.7756298607443179e-03
      -7.3263249585300153e-03 -1.3685272129956910e-02
      -5.9719315826937965e-02 -2.7805284280418060e-02
      6.2389545308490529e-02 -3.0282407523765532e-02
      3.9773123993223372e-02 -3.0169538324425968e-02
      1.0144737515244941e-02 -1.3422692327117970e-02
      -1.6962407597578492e-02 3.7420605172111348e-03
      5.9140483833004374e-02 3.4708443684328481e-02
      -1.1521833766533656e-04 5.9886045299819189e-02
      3.9659719539574680e-02 3.6873011365497060e-02
      -2.3928461917692836e-02 -5.3654383720384217e-02
      -4.2571359586749132e-02 -8.4439156506622374e-03
      2.4692958028710743e-02 -1.7570065314172760e-02
      4.2730271044961063e-02 -2.8145090027548728e-02
      7.3794167193191379e-03 -3.1407000937176084e-02
      -1.3564353866726633e-02 -1.0944277569813473e-02
      -2.3995064035645403e-02 -4.8793511811242571e-02
      -2.1155292989765796e-02 -4.7117249693264677e-03
      -6.2286828499143725e-03 -3.2652639609617624e-02
      -2.4147224874890433e-02 2.9052865465862256e-02
      2.6026236907896818e-02 -8.7832024448125628e-02
      -5.2334924003349962e-03 1.1402222700945208e-02
      3.9279115895638650e-02 5.1416837343843270e-03
      -2.8259770483126233e-02 -2.6097573127853865e-02
      1.0497010249042633e-02 -3.2290512443917015e-02
      -1.3905207133652104e-02 -2.6224699829958054e-02
      4.4918922824528536e-02 3.3150075994283552e-02
      1.7382290214265048e-02 -2.5438025451624907e-02
      2.3411104193263720e-02 3.9970444203868513e-02
      -9.8428657954050536e-03 3.5379821673133867e-02
      -1.1974283077782434e-02 4.4712447741474648e-02
      -8.7540412797908456e-03 7.7032817946140891e-02
      4.7980359897967116e-03 -7.4921801429373722e-03
      1.2779126711047025e-02 -1.1534090427775735e-02
      -1.4984994385098011e-02 -8.0090615290780258e-03
      1.4600760255494109e-02 8.6842805637023790e-03
      2.9341583391674142e-02 -6.9146830035747939e-02
      2.4354150355402368e-03 -3.9284844625031831e-02
      2.2598764588157964e-02 -1.9180883310889744e-02
      6.8281295734806471e-02 -2.4432554975392833e-03
      2.8623623893613892e-02 1.2142965685956669e-02
      8.6703309050346249e-04 2.1500265870723557e-02
      -5.8414917852550900e-03 -3.4696650170276164e-02
      2.5881207406784606e-02 5.4785355289386682e-02
      -2.0647567541042036e-02 2.3999006303184098e-03
      4.3028701052579598e-03 -2.0578837959139281e-02
      -2.5314403293192730e-02 -2.3502699855899446e-03
      3.2106223859223675e-02 2.5090660476724345e-02
      5.1707147572200206e-02 -1.2176720133159780e-02
      -4.8755093497380594e-02 -3.1081126993924166e-02
      -1.3392348808085758e-02 3.0476933415102690e-03
      -1.4619817837282658e-02 4.0234805319057437e-03
      1.8434528521991869e-02 -1.0795773470342914e-02
      6.6367145587286139e-03 1.7937093572261129e-02
      2.0210741257581204e-02 7.6778801213009382e-02
      -3.6609417557916364e-02 -3.4083955326508035e-02
      2.8084469564349922e-02 -9.6114205129543499e-03
      -6.3977652825730813e-02 -1.3634240808510233e-02
      2.1752488788326054e-02 -2.9610533278861755e-02
      -5.3456230928216322e-03 -8.2312916531914644e-03
      7.8019863566697887e-03 4.8530632060580191e-02
      -1.0629686856655107e-02 4.0347694104307288e-02
      -4.3608407245695008e-02 -1.9578024367061766e-02
      -2.1950873369064365e-02 5.5866757765386736e-02
      6.5531390502824981e-03 -1.7355504457795535e-02
      2.4014134358240107e-02 2.0985075994982529e-02
      1.2389609676845066e-03 4.5170787271699472e-02
      3.4505863647828511e-02 6.4504123361532092e-02
      -8.8195170167904464e-03 -2.5557397919780577e-02
      1.9496687289958382e-02 -1.1284310829134194e-02
      2.2543602091547729e-03 2.4109163018902792e-03
      1.4299509653463537e-02 -9.1765192235066920e-02
      9.5248969806526907e-03 -1.1827814359504247e-02
      8.6044955630146611e-03 1.9816637480274193e-02
      -1.7163133839415763e-02 -2.9814374803870350e-02
      1.9292314159440403e-02 2.2489515580763512e-02
      -6.6936274533966750e-02 1.5384846728823495e-02
      5.3261402483400942e-03 -3.7294354149777970e-03
      1.2896881229846706e-03 -6.0823474648546656e-02
      4.4917565787368663e-02 4.6138561719442715e-02
      1.1778220531468257e-01 1.0886585970655359e-02
      -1.5326147711148654e-02 -1.8009236916863718e-02
      1.4906718250327201e-02 1.6318863972849242e-02
      -2.6997973836215258e-02 -9.1017533376304173e-03
      1.0179096011410775e-02 2.3518623807026750e-02
      -4.8441531138458740e-03 7.3311145426149624e-02
      1.1940298797428006e-02 6.2369788657143127e-02
      -3.8407527926888139e-02 -1.5087738914885032e-02
      2.0379344134122127e-02 -2.9006051662534373e-03
      -2.7885795046775127e-02 2.7838332902462007e-03
      -2.1791868915203863e-02 -7.2431539743538595e-02
      -3.6717092338544845e-02 1.9654139542369151e-02
      1.2730489404313476e-02 -5.7514688331656372e-03
      -5.2515886999741938e-03 4.9110956314324369e-02
      -2.2791915261690769e-02 -1.4267679618061892e-02
      -5.6610936368430998e-03 3.4960363100142826e-02
      -2.3843070402677722e-02 3.1384666258021492e-02
      2.0234672410935559e-02 1.5729266156222201e-02
      2.8930541135568557e-02 1.9147524206184530e-02
      7.7293474937517289e-04 4.8275568796788682e-02
      -7.8894469749080250e-04 2.5484437521158036e-02
      -1.5366257268302596e-03 2.6186795423211725e-02
      -2.0059206166294481e-02 3.0377339859183825e-02
      8.6896180431600221e-03 -8.1930302890282317e-02
      -8.5495043402079775e-03 1.5056857426742270e-02
      2.7325101592262851e-02 1.1248545384799784e-02
      -6.4515359718379075e-03 -2.7518719419125263e-02
      2.9708230510709342e-02 -3.7810569231908724e-03
      -3.4102378431955196e-02 1.7919465249964357e-02
      2.1762048511474057e-02 -1.2425478690311270e-02
      -2.5450313633003643e-03 -6.1803183904266382e-02
      1.1065249766534785e-02 4.4408825056372093e-02
      8.7381345077026149e-02 -3.5586416804520640e-02
      -1.1753047373689466e-02 -4.1931909940352528e-02
      3.4584526625698522e-03 -2.1015468205654118e-02
      -5.2394038967992627e-02 -1.2857100783223467e-03
      6.8795793486999797e-03 -7.6926963321274702e-03
      -1.3216652751267570e-02 7.5420894585933304e-02
      3.1401779207094367e-02 5.4934177573800806e-02
      9.1264129754216189e-03 1.5968716135807012e-02
      1.6422132250272982e-03 1.6466901362354080e-02
      1.1336867041429139e-04 -1.5156846311779246e-02
      -1.9236399775466456e-02 -3.4720378811097165e-02
      -5.3979955109589375e-02 1.8847693259288149e-02
      1.3979336211412863e-02 -3.4992791699945847e-02
      1.9059343287088627e-02 3.9530173692701800e-02
      -3.8502865528989012e-03 7.4554607877316556e-03
      3.9209202071987637e-02 1.7140443108599766e-02
      -9.8622317548304559e-03 9.2397861478924238e-03
      6.3838445822739717e-02 -2.3016104065227217e-03
      1.5179276452973817e-02 -2.7983373656861609e-02
      -3.7428514061270589e-02 4.1346186226085969e-02
      5.7583534722478345e-03 4.9239580439633987e-02
      -2.7529216316578627e-02 2.2938652948851123e-02
      7.9034961364056761e-03 -3.1477255452423470e-03
      9.8902570777095241e-03 -3.4616663395982884e-02
      -2.9548641474744897e-02 1.7426454119887240e-02
      3.8254162235004191e-02 1.3695333904408162e-02
      2.5468629312251884e-02 -7.2657391880510255e-03
      6.8263855547746177e-03 1.6528583099212884e-02
      -2.3169440445423375e-02 1.4214594601385324e-02
      -1.2805952630595288e-03 1.3574231579192294e-02
      -2.3586362195801930e-02 -2.1856969495585677e-02
      3.2576564906603184e-02 3.0853018364614470e-02
      5.1024084138335250e-02 -4.4430894330082064e-02
      -1.2746878826336430e-02 -2.8782467902957833e-02
      -2.6237246125949947e-02 2.3635128086025373e-02
      -2.1273839200127150e-02 -4.4461492913097072e-03
      7.4091316769794354e-03 1.9684620171075719e-02
      -2.0004784952777684e-02 3.0275050761333813e-02
      -1.3138662620408225e-02 -1.5882861132922949e-02
      3.7427798504709883e-02 -8.2542092541755957e-03
      2.0921130650675687e-02 9.7013973594016756e-03
      -7.7159786396380188e-03 -6.8591079200607842e-03
      5.7655197721474304e-03 8.8055818501933734e-04
      -4.7186276780085544e-02 3.1363527649350957e-02
      2.0539281137117477e-02 -1.8662844133922829e-02
      1.2033703444237914e-02 2.6845151625448416e-02
      1.1211253455156694e-03 1.6483607486611384e-02
      6.3612990856163794e-03 2.8894019026234799e-02
      -4.0546501916281633e-02 -1.8151022733240627e-02
      6.2932745252346281e-02 3.3461730840251093e-02
      1.2004146581782510e-02 -2.1697599469068598e-02
      -6.0419891645519816e-03 -6.5238243273112477e-03
      5.6968538726664018e-03 2.9182081777737182e-02
      -2.6715139113036735e-02 7.6200072296372726e-03
      -1.2029584662762917e-02 3.8492763063973541e-02
      3.9639724088834032e-02 -1.1002046031765394e-02
      3.4936826863874635e-03 3.3570788365507233e-02
      4.1844989253523000e-03 2.4319126339002298e-02
      4.1483389297632095e-02 -3.9533053494289906e-02
      -7.4280121487259754e-03 1.0280739681262356e-02
      -2.9654772188309173e-02 -1.1835643967517096e-02
      -6.7825847287230423e-03 -2.2113205070241195e-02
      -2.5035894096812901e-02 -1.8188909913927988e-02
      -1.5634431289384233e-02 5.9455268548416283e-02
      3.4842929728728968e-02 -1.5495767490989886e-02
      1.2913414034190570e-02 -2.9829636914799323e-02
      -3.5445816738291967e-02 2.3334415272572327e-02
      1.0382248959252318e-02 5.3728709851158466e-03
      1.6719204665750125e-03 1.0832906666262477e-02
      -5.0206511500069759e-02 2.2175560392343596e-02
      -2.5957282963307227e-02 7.0808739805996810e-03
      -6.5078120263789552e-04 -1.7494756837339438e-02
      5.1653732800437530e-03 2.8231790597304476e-02
      5.2159412885623693e-03 -4.2951472743226651e-02
      -7.4569022918582707e-03 -8.9282433288485705e-03
      -2.7356412745103920e-02 3.9370644477149684e-02
      3.3001635128962023e-02 4.6214593655440940e-04
      2.3346912574898425e-02 6.7384780408557082e-02
      1.6905052072068619e-02 3.1221589300298121e-02
      3.2152668211874826e-03 3.5971343698772043e-02
      -6.5560899121354030e-02 -2.8549084940121916e-03
      2.6436292110922476e-02 5.8222684606574230e-03
      1.0789889545832123e-02 -7.4515935148303375e-03
      -3.1323693604257581e-02 1.1762162388467682e-03
      -5.9977195273972026e-03 -4.1381904332483694e-03
      1.4432274500458721e-02 3.1035231636888427e-02
      -4.6916567879795652e-02 6.8504639407948917e-02
      2.5391352349030602e-02 2.6284424570297286e-02
      2.0906350138378941e-02 4.0610391640089295e-03
      5.2239273742325874e-03 5.9264488370803031e-02
      5.3129135895977715e-03 -7.7006617500307462e-02
      -1.5184878503391884e-02 -1.7723234794165044e-04
      -1.8609679609856732e-02 -2.6367273493190398e-02
      -3.5564695147141501e-02 -3.7124130655958508e-02
      2.5889273199900635e-02 -2.6765226628794828e-02
      -3.3604588994894047e-02 4.7698698135991417e-02
      2.2959820597354987e-02 1.9139087249574867e-02
      4.7764511546408303e-02 -1.2204942840792916e-02
      -3.8526423024924261e-02 1.2982379855216657e-02
      1.8571558062436256e-02 -8.1520353754121460e-03
      -1.8189007670636023e-02 3.4203307646273003e-02
      -6.1817702834555781e-02 3.2115635057033437e-02
      -2.3634383840350388e-03 3.2198076872063303e-02
      5.8033195362339040e-03 1.4159456416082374e-02
      4.0929065970405094e-03 6.2095275365089263e-02
      5.6404920697038664e-03 -5.7673868125419185e-02
      -4.0634645708271487e-02 -4.5480432528799781e-03
      -3.1751932051859170e-05 5.5376090039896700e-02
      2.4673348714693004e-02 8.6294877377386218e-03
      2.7322420175669979e-03 1.0480947061073922e-01
      -1.1878244333666441e-02 4.5962626258040054e-02
      -2.5070141123508045e-02 9.3258396280913262e-03
      -8.7348100593791361e-03 -6.5168266807933990e-03
      3.5363138276626048e-03 1.1538871200868436e-02
      -1.2060057639842615e-02 1.1997695616893334e-02
      -1.4461230884710205e-02 -8.2205125372935301e-03
      1.8301973838600803e-02 7.7537629160204244e-03
      -1.1008297646979290e-02 2.7000900636354467e-02
      -9.9706931292275813e-02 7.7548021342291190e-02
      2.2332145578553852e-02 3.7097884269930978e-02
      2.5579546283177719e-02 -1.7890875296798222e-02
      3.5989083197462551e-02 1.6023043624653430e-02
      -6.3413410174827739e-02 -1.2325968110016672e-01
      -8.6218198700633106e-03 -8.4993009295664355e-03
      3.7015767711663497e-02 -6.5591856606431687e-02
      -2.4313517006920957e-02 -9.0629140848610901e-02
      2.3858965943640825e-02 -2.0744769184816259e-02
      -4.6719835639815979e-02 2.1746492965008801e-02
      2.6603684535446377e-02 -2.1196367486123396e-02
      5.9038249517407625e-02 2.5052015461645791e-02
      -1.5789699919896708e-02 1.1462770165947447e-02
      3.1236365774927159e-03 2.2008964225195660e-02
      -6.4680271475431886e-02 2.0907251681141246e-02
      -9.6129738662597469e-02 2.9605108244854340e-02
      -2.2289746256783378e-02 -2.4518495202626337e-02
      7.7670529287432602e-03 2.5412695496686333e-02
      1.1163867173525216e-02 5.8333039079697828e-02
      -1.6294521529729090e-02 -1.0708343278071920e-01
      -2.7394028562287391e-02 1.9531301724633427e-02
      8.3162336681050931e-03 3.9909193199450112e-02
      1.2068666614945408e-02 2.4566474782440166e-02
      8.1227845658669896e-03 1.5482564593321241e-01
      -2.5111596753008360e-02 3.0749896418456601e-02
      -2.2853100611905919e-02 2.7557623120988577e-02
      2.7345104503889793e-02 -3.5781609577597538e-02
      1.2356366100792769e-02 4.9439978605568397e-02
      -3.2112216190229706e-02 3.0741529830095819e-02
      2.5388486002142857e-02 -2.0730619862301437e-02
      4.6049643456842586e-02 2.4855129679552283e-02
      1.4978242958589775e-02 3.3142201140602116e-02
      -1.5390471588717836e-01 8.9203219715679599e-02
      -8.9299225101607399e-03 2.0907757026989198e-02
      3.0747499093881629e-02 1.0722841119501865e-02
      2.0725706501036143e-02 1.7849664495356424e-02
      1.5577865654403627e-02 -1.8797621315866339e-01
      1.9192225302188295e-02 5.9467601092817186e-02
      3.6418984218434453e-02 -1.6690878674397025e-01
      1.9076648320707559e-02 -3.0042634747222358e-01
      -1.7857433187333092e-02 -2.5665545511139691e-02
      -5.2174740188118011e-02 9.0497512264820414e-03
      4.0675403025307338e-02 1.2099478040693001e-02
      1.2802205485409460e-01 2.0432113989603450e-02
      -5.3219695614429999e-03 -4.1358709269633302e-02
      1.9996943353021657e-02 3.4448830765522729e-03
      -1.6982939141162709e-01 -4.8693809537322663e-02
      -2.3528405588087201e-01 -7.5015100604545228e-03
      -2.3442101071538764e-02 4.9379053270055305e-03
      5.6025362289858112e-02 1.4738954082259319e-02
      -1.9979251730617226e-02 1.3318121092152582e-01
      -1.0438502776739023e-03 -2.1464886173286293e-01
      -8.7095228251641340e-03 6.3958499932477656e-03
      2.2984910396846369e-02 2.5767770443753779e-02
      -4.9207131926996529e-02 3.4785453798591097e-02
      6.7395250608414933e-02 2.4719935150860070e-01
      7.6603710930967638e-03 -8.5478757882638576e-02
      -8.6017654091178446e-03 -2.9061952358516636e-03
      -2.9740202784244310e-03 7.4019112675380583e-03
      -2.7988786256069063e-02 1.2755218422429656e-02
      -1.2053905324577762e-02 5.4768394703231396e-03
      1.6193506255055224e-05 -2.3753724437824447e-02
      3.0380282300462662e-03 3.0118815555142824e-02
      -4.8670234675655790e-03 6.3667917598586102e-02
      -1.1212861172252628e-01 5.0259978042708077e-02
      2.5103944993414419e-03 4.4653750641564065e-02
      1.7196711349056846e-03 -9.5834298712853330e-03
      3.3407752974851671e-02 1.8633283265429360e-02
      -2.4141000126842234e-02 -1.3947967905967817e-01
      -6.4043496033807388e-03 -1.6199293344189395e-04
      -2.7383437096370395e-03 -9.9362299114550912e-02
      -2.6783778965249042e-02 -2.8585039979106364e-01
      -1.0968364542511651e-02 -1.5875761309024208e-02
      -6.2866128804648369e-02 9.6356176088508196e-03
      1.4695972457458226e-02 3.6142488280756445e-03
      9.8504164736496092e-02 1.1258522135239321e-02
      2.6536516699375835e-02 -4.9635421616470825e-03
      3.0084317199802760e-02 5.1381579787119058e-03
      -1.0852992906311625e-01 -5.1539478048534454e-02
      -1.6391002903597174e-01 3.9575548967104315e-02
      -2.5993150771725475e-02 2.2052383282702349e-02
      -8.0680580237768220e-03 4.3015647939026458e-02
      5.2310422822672900e-04 1.2817529875701292e-01
      3.9079031166067014e-02 -1.7109097524524006e-01
      1.3765320559238268e-02 3.1169491639240543e-02
      1.2969217581736905e-02 3.8291795031326167e-02
      -6.9653829965346994e-03 6.7535637260798236e-03
      2.7085594531187217e-02 1.6231145951574161e-01
      -3.2536832602061437e-02 -5.2023076784451457e-02
      -6.6434390807810920e-03 2.5554135774769247e-02
      2.0490155676489059e-02 -2.4460799994592310e-02
      -2.0522869044451237e-02 3.8821144908466547e-02
      -4.3954223145587237e-02 2.9791914813052104e-02
      2.5728358162821131e-02 -1.9047237722615223e-02
      5.9926039752499927e-03 2.6242095746476759e-02
      -1.6665181788561592e-02 4.6329836720503129e-02
      -7.8414965228901998e-02 4.3053930574413257e-02
      1.1415081599608249e-02 3.1242418026700341e-02
      3.7268545486017012e-02 -1.9843906318802621e-02
      3.8262060037896818e-02 1.7503818599629292e-02
      -2.9691471235845153e-02 -9.3124327601324164e-02
      -2.1141445327296150e-02 -3.3446945471920691e-03
      -2.1030705943818621e-02 -8.0973957656733431e-02
      -1.7956369558282188e-02 -1.9413235158587452e-01
      2.1035557814345528e-02 -2.1666591073621838e-03
      -3.2910184420405671e-02 2.1560733606742530e-02
      9.9676439953764531e-03 8.0235717450823571e-03
      4.4479937581319955e-02 -5.2018084595693219e-04
      -1.8142427760438045e-02 2.3859250931120294e-02
      1.5663147500530123e-02 -1.4543554888096584e-02
      -5.0435305859523397e-02 -1.9759902852589089e-02
      -8.2518180496809757e-02 4.1257223926203707e-02
      -3.4752581193359548e-02 -7.3866651182399115e-03
      1.2340149268391120e-03 2.0003960897359327e-02
      1.8045135849086250e-02 6.7538306136350021e-02
      2.3074657707379591e-02 -1.3829514144676433e-01
      -4.4784809485383312e-02 5.0030642384117113e-02
      7.8711456804717930e-03 4.5290526909852524e-02
      9.8392011895115788e-03 3.8682395712106500e-02
      5.8015743332709190e-03 7.2600953363669785e-02
      -6.2307100385674318e-03 -1.2908239910368000e-02
      2.7500929217379830e-02 2.6035970450796704e-02
      1.2158936286017434e-02 -3.0083913841755409e-02
      2.4892484335603174e-05 2.2771252138071577e-02
      -2.5343079787986379e-02 4.8609691397575580e-02
      2.2960580669206993e-02 -2.4178755040853216e-02
      3.3445017264572108e-02 2.4317631908585179e-02
      1.1781772752251956e-02 -3.8026936557024793e-04
      -6.1830944752537635e-02 1.9750790277156295e-02
      -3.0559646294808390e-03 1.3225870732007299e-02
      4.1729375652613733e-02 -4.5532916261834415e-02
      -7.8636783761428120e-03 -3.0649998845775846e-02
      -4.7954069037430894e-02 -5.7764811392849134e-02
      2.4884421929070526e-02 -2.5041176485752603e-02
      7.8459400332880486e-03 -5.3822783469610877e-02
      -4.3064216983860558e-02 -9.5392175798450524e-02
      1.6321484095868210e-02 -1.2041924527254209e-03
      -1.6657167776932019e-02 8.1462449184250378e-03
      1.4424763776447790e-02 1.9221087065170256e-02
      3.4563884529039829e-02 -1.7172571090381523e-02
      -4.2716625850936503e-02 7.8442557229390546e-04
      -2.0753941216693394e-02 -1.5433174052994960e-02
      -1.1511963728129229e-02 4.4403013289906089e-03
      -3.0416331520809841e-02 3.5958978705000526e-02
      -4.8442203469762211e-02 -1.6809820761513626e-02
      -1.1089310226292974e-02 1.3740647422712386e-02
      -8.8331759170029000e-04 2.3713471074364785e-02
      1.5282929630818780e-02 -5.8690545181142265e-02
      -5.6266163080452743e-02 2.4974914330245544e-02
      1.3625489546825013e-03 4.5652772743033074e-02
      7.7534286089682176e-03 1.8550915866253917e-02
      -1.3866512333229627e-02 3.0703858697648811e-02
      1.4644171815018847e-03 1.3545961140445661e-02
      3.4094693719092226e-02 1.5529739128350921e-02
      6.0371756495622942e-03 -2.4548809784595158e-02
      1.3954742505060390e-02 -2.2412221945919793e-02
      1.5514795116643127e-02 1.6536062857026423e-02
      -1.4377376494554398e-02 -7.7586026960883969e-03
      2.9453038200400260e-02 -2.1686196482418431e-03
      2.9766525190795638e-02 -3.8662375015865204e-02
      -4.9149875681777914e-02 1.6373674323697650e-02
      5.3061144252709806e-03 1.7339195640764773e-02
      -5.0063334167617058e-03 -3.0459998882687214e-02
      -2.1810738547802782e-02 -1.4724603348327330e-02
      -4.5247966729169671e-03 -2.3753764909547403e-02
      2.5161164926735112e-02 9.1229927229823995e-03
      -1.0310462671197231e-02 -2.0290962019868661e-02
      -1.6187049043107703e-02 -3.2497594709499381e-02
      6.0896717854536809e-03 2.0017358767105198e-02
      -2.8938644104166689e-02 -3.0012849389514369e-03
      4.5050591578373305e-03 7.0628231426569732e-03
      1.8980476266088321e-02 -3.5864055235522163e-02
      -4.2249199525380428e-02 2.0706716672608386e-02
      -1.1634454100549081e-03 -8.1081440162568234e-03
      6.6772924527174976e-03 1.1348941160636946e-02
      -1.1328179639702051e-02 2.0457196015848410e-02
      -1.5786966837409949e-03 3.0120876616476683e-02
      -1.6103947603763501e-02 -2.0888898217484536e-03
      1.3864669855141728e-02 2.2535651492107046e-02
      8.1785192200225024e-03 -3.0118474162314911e-02
      -1.3771394909897353e-02 2.1660652532875673e-02
      -4.1801567244509315e-03 3.5693307049820142e-02
      3.3647210628135094e-03 -1.4734439715100475e-04
      -1.6954028429141298e-02 1.9599715122922110e-02
      4.5626432001896026e-03 -1.8242746367103019e-02
      3.2441162003020239e-02 -1.5195057968044021e-02
      -1.6208364323537793e-02 -1.5169599761795270e-02
      8.8127416878548189e-03 -1.7448447444260322e-02
      5.7282815426231738e-03 1.6385926254807712e-02
      -1.2872539447225401e-02 -3.4916195023907470e-02
      2.1233844716740603e-03 -3.1989304411021336e-03
      -1.3641625568957079e-02 -5.8434714254663997e-02
      -1.9515915884807656e-02 -3.4464379177347813e-02
      -3.9760767899577245e-03 2.8678872899311109e-02
      -2.6180064746658592e-02 3.2264201372337173e-03
      -3.0462682953305894e-03 -4.0427958826643800e-03
      -2.7224700026350548e-02 -3.4887441175505719e-02
      -4.0276195725689259e-02 -7.2508809784845420e-03
      -6.2392835796896227e-03 -1.7823949014634674e-02
      9.9743870750462638e-03 -1.7473364545349746e-02
      1.7631482727020998e-03 -1.3949965374257066e-02
      -4.1089237513032763e-02 1.4894480026079064e-02
      2.6387323246364217e-04 -1.2779446218370780e-02
      1.3044421663627405e-03 -3.0774705293034742e-02
      -1.7713007719880037e-02 -5.7087811081792993e-03
      2.2388132823364205e-02 -1.0159060825950413e-02
      6.1812863634030987e-03 -4.6313781028561131e-04
      -3.9658352019097239e-02 3.6754696251361914e-02
      3.3295605511041708e-02 -9.0053945787065893e-04
      -4.7616860400301740e-02 -2.0308088507312999e-02
      1.6559394009612295e-02 4.2283167919440368e-02
      -2.1229064545588705e-03 -2.2095373827524668e-02
      5.2854071364003899e-03 1.7512365261867988e-02
      -4.9223583943641597e-02 1.9404468777661633e-03
      3.1990924631584886e-02 -2.8544237298048655e-02
      -1.1469256010645469e-02 1.1546150005345210e-02
      2.2223319249562057e-02 -3.3707401217459514e-02
      6.9544747800090725e-03 1.2678566286916805e-02
      -2.7616771322630101e-03 -1.7491833887473097e-02
      5.9664865966928072e-03 -1.2642419098175556e-02
      9.5225693779814602e-03 -1.3333149276230015e-02
      -1.0541496688657045e-02 -9.6796964520229865e-03
      -5.3869873776520590e-02 -1.9386676658667015e-02
      3.5807376997081565e-02 -4.7100533942191339e-02
      -1.2119530578183040e-02 -2.9260709867202181e-02
      4.4610207416799080e-02 6.3077854969110754e-04
      -2.4020244495999921e-02 -1.8835945426967447e-02
      -1.9051086934107946e-02 8.7307597982412936e-03
      -3.5956110320191449e-02 -3.1764623772900270e-02
      -1.7429203024983565e-02 -2.7771763878295309e-02
      2.2041568297308332e-03 -1.4869020723905156e-02
      2.0479067126526355e-02 -9.1759277105403492e-03
      4.1457023952837652e-02 -1.2301607231961281e-02
      -2.3973373800052749e-02 2.0156589588608585e-02
      2.0682114478191013e-02 2.6744079424639144e-02
      -9.9577621420847869e-03 1.1208835309040855e-03
      2.9137038620205530e-02 -2.5150182866300202e-02
      -2.3234529607560540e-02 -3.2939321875145276e-02
      4.5853537900854193e-03 2.9934077934034069e-02
      -6.2158901280977882e-02 6.8729414567823319e-02
      5.5367537954034630e-02 1.7966026662393896e-03
      -3.6260102457309935e-02 -1.4767968876418507e-02
      3.0657330320150954e-02 4.0120552383417503e-02
      2.4194375426842184e-02 -1.7071438091146762e-02
      -8.0223341331172315e-03 2.6910669357902747e-02
      -4.0504505643759438e-02 -8.7109775213161586e-03
      2.6234033090583284e-02 4.1381614926137900e-02
      2.8133590648507106e-02 1.0880731879574406e-02
      5.9716409151980860e-03 -8.7885240189758115e-02
      -1.3387536569346175e-02 -1.8164000148836172e-02
      5.3909863415122225e-03 -8.5315842998882289e-03
      4.0399145136437212e-04 -2.9436308749474571e-02
      -1.0778556183861597e-03 3.1996870338534621e-02
      1.2605920421833365e-02 6.3087846240589204e-03
      -4.6140124436623499e-02 -2.6762620191287664e-02
      4.2501526780209790e-02 -2.5163503828382450e-02
      -3.5176901670016587e-02 -3.4636329236283611e-02
      -3.1249782167852079e-06 -3.8586535865274495e-03
      -1.5367730731638113e-02 -1.9747617603756755e-02
      -4.5855952596016381e-02 1.9927035922502345e-02
      -3.0327119473137001e-02 -4.1980995648346403e-03
      1.8057825024308746e-02 -2.2490993151306062e-02
      -1.9669963110571791e-03 -2.9669697465446909e-02
      1.3580091512939981e-02 1.9327545241315295e-03
      2.7015278556750438e-02 -1.5960451337528762e-02
      -5.2001325897334930e-02 4.0371967248257028e-03
      7.2835161172560177e-03 -2.3819373859826939e-03
      -1.2758636878315268e-02 5.0149941050343025e-02
      1.6515037484221205e-02 -3.4103832876514688e-02
      -3.4351301581965338e-02 -3.6078476264820261e-02
      -1.0094271638114648e-02 9.4565626191456340e-03
      -3.3983384477389328e-02 3.3254362318335229e-02
      -1.2065757808413921e-02 -1.4436566082893567e-02
      1.2612506395489583e-02 -1.1370723194339646e-02
      3.7624421363389240e-02 2.0005372149588866e-02
      5.9283396336060522e-02 -1.7912524952892625e-02
      -1.4394488760513248e-02 8.9476910466163070e-03
      -1.0446577602236523e-02 -2.0683978332463958e-02
      -7.0151904109120894e-04 4.8078996179950852e-02
      -2.5183889010730289e-02 -3.6166204315898967e-03
      -2.3267784212750980e-02 -1.3416008882426519e-01
      3.0252066506410817e-02 -7.7327031650321759e-03
      3.0645231219010014e-03 -4.9825694609908940e-03
      1.9168407010450084e-02 -2.4012754544590818e-02
      5.8847830495473527e-02 4.8861718886125803e-02
      -1.9686431780099062e-02 6.1680497195487202e-03
      -5.1490978096438683e-02 2.4849180221270337e-02
      -1.7501684080278492e-02 2.1356761427781364e-02
      -6.2765207907361769e-03 -2.1961761536045586e-02
      -1.5626155639926434e-02 4.0131717345404612e-02
      -6.9967995544023874e-03 4.7010475206136146e-02
      -2.5471737550458524e-02 1.5357472095025056e-02
      -3.8018017280364781e-02 -1.2961527317229157e-02
      -4.5519546196272249e-02 -3.5149422025930382e-02
      -2.1594431125230001e-02 -2.7139234866538596e-02
      1.8953941342501574e-02 1.2976251414910553e-02
      9.6947932297792843e-03 2.6265569791491184e-02
      -2.5244573273128543e-02 3.1192330341348020e-02
      -5.9255192536337891e-03 -1.7006210199805214e-03
      1.8318625610891627e-02 -1.7248254840088822e-02
      2.1963035556664973e-02 -2.0493424085934530e-02
      -1.9007177993517674e-02 -5.5631273164558605e-02
      -2.4128993524375471e-02 -5.8491302339687473e-03
      1.3007388916340240e-02 -4.1784613986015275e-02
      -3.0359582401229501e-02 -2.9695349064688636e-02
      3.9738902964293103e-02 2.4579717731360119e-02
      7.0805187303700327e-03 -3.1501017277954700e-02
      5.5613528657225846e-04 4.3734842571001142e-03
      -1.9283926742658650e-02 -5.6985114483096497e-02
      -3.1825684841020135e-02 -6.1512043329433903e-03
      2.2270422864822154e-03 4.8137975784238403e-02
      -6.5671545786695155e-03 -2.3806832305696225e-02
      -2.7529135209557964e-03 -2.8070982106930226e-02
      5.6881039820335169e-02 2.7672737245122914e-02
      -3.1459347694979458e-03 -1.9486787084944054e-02
      -1.1273245783434352e-02 1.6521025416957630e-02
      -2.5936773847924860e-03 2.6717813203199881e-02
      -5.9499340038725694e-02 2.4916891029281050e-02
      1.8455879932738943e-02 4.2342864711117090e-03
      2.7315930848334089e-02 6.0352598824017507e-02
      -2.9839818971978946e-02 5.9749227049985976e-02
      -7.8429119010148748e-02 -1.4116251693029415e-02
      1.5098215290677496e-02 6.0906739369331206e-02
      -2.6523101061117889e-02 4.1120812559536486e-02
      -6.7595938421137092e-02 -1.4440801934643931e-02
      -2.3835850117574327e-02 -6.6451710393530844e-02
      -6.9033211269676417e-03 1.1636006027101052e-03
      3.3945975379391508e-02 1.1369778161817468e-02
      -1.8533094971645750e-02 2.3674534605989891e-02
      -2.5503472379326379e-02 -3.1349329636927679e-02
      1.8007601115983169e-02 2.8406955664238436e-02
      8.7110939965901156e-03 -3.2615806882129790e-02
      1.1819549906423860e-02 -1.6741011131836195e-02
      -3.5108249438738852e-02 -3.5470161777029593e-02
      -1.8816283277591949e-02 -4.1593407315525965e-02
      -1.1620246325259223e-02 -7.7011660003990470e-02
      -3.9705208812211207e-02 9.6722806775951901e-03
      2.6754083627170046e-02 2.4198382237980796e-02
      -4.3174707782638960e-02 -1.5794758748087737e-02
      -3.1242872694594016e-02 -4.5212543453257105e-03
      -2.8290297835796645e-03 -6.8105792418052757e-02
      -1.6284923528334234e-02 -5.2493189442193063e-02
      3.3248255193571226e-02 -1.9613968815654664e-02
      -1.6262565367165145e-02 -1.2523566514082341e-02
      4.1602647611255060e-02 1.9374984215978684e-02
      2.2809090678891815e-02 -3.9129668980214166e-02
      5.1473518474642661e-02 -2.3085979520875502e-02
      -5.0507477118272991e-02 -1.0344038857162063e-02
      -1.3787685758966117e-02 1.0828412124723045e-02
      -7.9656456174542877e-03 -2.6914111525506639e-02
      3.1807017563008549e-02 -5.3385460212540016e-02
      4.1370556200556019e-02 7.5237098095780877e-03
      -1.4740751326602649e-02 5.0244419123727853e-02
      -1.1976735417598978e-03 -4.0842635057197055e-02
      1.4387504861365856e-02 6.2266454891843669e-03
      -6.1365586340195691e-02 5.6331610652161877e-03
      -4.7383801339248022e-02 -1.2048223645607073e-02
      3.9694373972814133e-02 -2.7326509546781702e-02
      9.1106152368302263e-03 1.6391416033704191e-02
      -3.6294494070409971e-03 2.0655620160700192e-02
      -3.4367369043242030e-02 5.7907412014168824e-02
      -1.4811238418168365e-02 -6.8535334578961590e-02
      6.8699121667016472e-02 2.6535894483263590e-02
      5.4808677091827490e-02 2.6018279046566522e-03
      -1.7903159599252632e-02 9.4740069632773677e-03
      -1.4939354794845486e-02 4.0701691758067822e-02
      2.2262358822701736e-02 -4.5519808923641457e-02
      -1.2653843516270457e-02 -3.3998327393310920e-02
      -7.6089405903466212e-03 -2.1985472330167424e-02
      1.4670909797423706e-02 5.4977764114086843e-02
      -4.7832965235769999e-02 -1.0353798726696362e-02
      -3.1812820680656127e-02 -4.9833345670210714e-03
      3.2121049229175648e-03 -3.8100874468309592e-02
      8.3654399130096493e-03 -1.6762464927217533e-02
      4.1680315280355849e-03 -2.5369762690720804e-02
      -3.9051921794723984e-02 -2.1585913625770701e-02
      2.7176269369168407e-02 5.2955920447622616e-02
      -4.3366130600734298e-02 -2.5299032061389743e-02
      4.4381461035072865e-02 -2.3047457824285120e-02
      -2.7706843639198380e-02 -3.4166844447302822e-02
      -2.0884651846635550e-02 1.4165166743016116e-03
      4.7270516180144870e-02 -5.4082237165483674e-02
      4.9496841448281786e-02 -5.4665595980403207e-02
      3.0678245664989851e-02 -2.7516361354455569e-02
      -4.1510958686827356e-03 1.2861330815298428e-03
      3.0377892319766821e-02 2.4449261427183087e-02
      -3.2954939800474342e-02 1.8434088353918642e-02
      4.9390567014119284e-03 3.0815974730559109e-02
      -3.4814791755088413e-02 -2.3286588130684585e-02
      2.5379371257751318e-02 6.2867995806889067e-03
      -8.2796304413278888e-03 -1.5964355048875934e-02
      6.9377423810495428e-03 7.7013953130051624e-03
      -3.1004167900852395e-02 3.2117836292919186e-02
      3.6306427469479791e-02 -3.0277957103340348e-02
      1.4246932427688810e-02 -1.0940870134383945e-02
      7.3703749785462527e-02 -1.5510682641089108e-03
      -3.2606577134279731e-02 -2.7192879815422285e-02
      9.6875449730028512e-03 -1.5011867780507723e-02
      4.3173512706299764e-03 -7.4642988665610366e-02
      1.4692513418140742e-02 -6.0961122587778256e-02
      9.7437081199312874e-03 2.0596195218569965e-02
      4.7738003535858331e-02 3.1533561276420610e-02
      -1.6237141057487341e-02 -8.0092863111613059e-03
      -1.7993396475823927e-02 -1.8786095949614910e-02
      2.8145421105526661e-02 2.7303863868643315e-02
      2.0010965306420578e-02 -4.5339729053782168e-02
      1.8393869053893529e-02 8.5369746095675103e-03
      -4.4595155130761538e-02 -4.9347317073601552e-03
      1.3249795270034604e-02 5.3589262794434524e-02
      -5.8626221845857534e-03 2.2983717836006275e-02
      2.0558156384410831e-02 -5.1765473929648500e-03
      4.8297847109705300e-03 -1.3711546768982710e-03
      -1.5737691237589051e-02 -3.0244440489661062e-03
      7.8252588073288026e-03 -4.4635539484223517e-02
      5.1495974885266693e-02 -6.4894143554943495e-02
      5.4392210675181839e-03 -1.9893714491577844e-02
      -2.8251680085070591e-03 -2.4944004902160581e-02
      3.8470365618278358e-02 4.9822568860229600e-02
      -3.3456603900958601e-02 1.8932924438452004e-02
      4.1042177697692028e-02 3.2566880169594220e-02
      -1.1874595224267395e-02 -4.2694349844442189e-02
      1.4639464401506128e-03 8.4495058659941440e-03
      -9.2774692347577785e-04 -1.9505708137720793e-02
      1.8768778731252364e-02 -2.1757192266606364e-02
      -1.6438822696294458e-02 -4.8373386251593903e-02
      4.8417699906294007e-02 2.9455407025096299e-03
      -2.4335700375653524e-02 -1.2501873466226141e-02
      2.7522726905782204e-02 -4.7368874831317964e-02
      -3.6493138246327232e-05 -4.0247473379838625e-02
      -2.1985429191060415e-02 -6.7191882926823765e-02
      -2.6354079282920231e-02 -3.2255819890184653e-02
      2.7901753358156728e-03 -8.0719891890207909e-02
      -5.0963692604804817e-03 1.6366860297814912e-02
      3.7193644940584532e-02 -4.7105507057577115e-02
      -4.6098831852594460e-02 -1.2873141497219591e-02
      -7.8964204049395328e-03 -4.1158317839327378e-02
      8.2374414115015268e-02 -1.0440646535313806e-03
      -1.8423422523619597e-02 -3.7688281500003563e-02
      5.7944236962898785e-02 5.5686248987444280e-02
      6.5344310014063328e-03 3.1771778970183441e-02
      4.3313668001053766e-03 1.3119140266454705e-02
      3.6028302680757567e-02 -7.1400658901497448e-03
      6.1079904212426109e-03 1.3780073917956576e-02
      -9.9801961008457590e-03 -9.3975218300178746e-03
      -2.8452227760747184e-02 1.1760400273293557e-02
      2.6032182838355660e-02 6.5102755909052373e-03
      6.4503220942776343e-02 -1.9735195200923029e-02
      1.9454330920582033e-02 -5.4439192216426419e-03
      1.6505640231537346e-03 2.3076549367131512e-03
      2.6753487009236757e-02 5.8812188477970033e-02
      2.0672547074967688e-02 -4.7324914609412454e-03
      2.9025757422930631e-02 9.7348457805608024e-03
      4.2763224562495259e-03 -1.6647479237175841e-02
      2.1708382689586969e-02 1.0061057904701456e-02
      -2.1186113293928641e-02 5.2586496232994752e-03
      2.1559837819402881e-02 -2.2796734991109971e-02
      -3.1506848396598399e-03 -6.3525250993844790e-02
      6.0885224767178031e-02 4.3392465073977303e-03
      4.2075509661587983e-02 3.1134020521563551e-04
      -4.2077466773927458e-02 -1.7746470625483738e-02
      -4.2007913685472222e-02 -5.1466394062080215e-02
      -9.1460984313543200e-02 -4.6133693235294829e-02
      -8.7023747984831569e-03 6.0524854857658692e-03
      1.3448943746897509e-02 -5.1081885285600037e-02
      4.4139336507907617e-03 1.0221866281540534e-02
      5.6196510717562230e-02 -4.8355685922853900e-02
      -6.2485979270208131e-02 -6.4810774914407648e-03
      -2.9599447164819002e-03 -7.3121597324710252e-03
      8.9986800809804951e-03 -5.2674497328888507e-02
      -3.2885584663679066e-02 6.9549956174709063e-03
      8.4084884278503760e-02 5.8403645220026633e-02
      -1.4000083325803400e-02 2.6795468276569006e-03
      6.6092657827534415e-03 -1.3100227330961525e-02
      5.0248637327531341e-02 -1.4442203068269668e-02
      6.9936468284724877e-03 -4.1090496625089089e-03
      -3.5991356773752876e-03 -2.5459780966849255e-02
      -3.4029574456083234e-02 -1.5495469648501526e-02
      6.7328866897316993e-03 -1.0399758145942765e-02
      2.3342158084353859e-02 1.7111288313617218e-02
      3.2535491753596914e-02 4.4079837156264417e-03
      3.8824994130936159e-03 1.2042314929240146e-03
      3.1571283163352511e-02 -1.5574262147157788e-02
      5.7861787812844540e-02 1.4812294391640838e-02
      1.0225715099459175e-02 -2.0052227272173668e-02
      -4.9555048660440476e-03 -4.2577939062033283e-02
      3.5741993158062778e-02 8.0807493254405113e-03
      -7.6643313766879745e-02 3.2540842597555239e-03
      -1.9048275125769051e-02 -2.6378553812156633e-02
      -6.6683375814906895e-04 -6.0403509460718367e-02
      7.9080842310694746e-02 2.8071815776302432e-02
      8.2350355442511472e-02 9.3901896321802840e-03
      -3.5576342224954476e-02 -1.7836595781395497e-02
      -3.3724282256512986e-02 4.6427180123794252e-04
      -4.7003297990113303e-02 -3.4679137639073390e-02
      -2.5907926905767889e-02 1.0999106874028377e-03
      -5.9299933141749436e-03 -6.6410377750063350e-03
      -1.4766307360163626e-02 5.8205839675982390e-02
      4.4208249835977119e-02 -7.6320184512406060e-05
      -2.7675756449910251e-02 3.8663866805913424e-02
      -3.4608398805127151e-02 4.2889860481583183e-03
      -3.6235368265952701e-02 -6.8504439687367857e-02
      -6.1665774535123792e-02 8.7191301273582111e-03
      3.5228025920032366e-02 3.4577579532847652e-02
      -7.9856685174702199e-04 4.3313354102807603e-03
      -2.0602266316084968e-02 -2.6040406145985684e-02
      1.6013069662455144e-02 2.6414277190868207e-02
      -9.6416780343489671e-03 8.5290942210103134e-03
      1.0896739859950398e-02 1.7049205575615654e-02
      9.2227704104015911e-03 1.3672749911681466e-02
      2.4761184000852761e-02 2.6250208009384889e-02
      1.6468941915453231e-02 4.7424098677112857e-02
      -9.6298133195540387e-03 6.1840220724042098e-02
      -1.7760522143930462e-02 2.6917641693154061e-02
      4.0874210710794071e-02 -4.2539639404541536e-02
      4.4128137649760049e-02 -4.8753139301675033e-02
      1.4164180506681891e-02 -1.6416916712653964e-03
      -1.7763097662360713e-02 -3.3789139833862093e-02
      6.7721686079709621e-03 -7.3557600317652294e-02
      -2.2104588783742895e-02 8.2268382351682722e-03
      4.3982899272696593e-02 -4.0102228813871489e-03
      -4.9596599439691606e-03 -3.8138644680532144e-02
      5.1193184009977147e-02 6.7205058238050966e-02
      7.3024237967166852e-02 -9.2129038536670281e-04
      -1.0142813241479164e-02 -4.9657880899013289e-02
      -5.3481834500341510e-02 9.5154044427057450e-04
      -8.4892922324543790e-02 -2.6652412177827687e-02
      -1.2676482624028127e-03 4.7692541756596568e-02
      1.0167411702469523e-02 8.1554633712700747e-02
      -5.4590625970728168e-02 5.2443727180572434e-02
      -7.7564480738684513e-04 1.4777491023461826e-02
      -2.5657327264483033e-02 3.1460361794082868e-02
      -3.1458587137078345e-02 1.9987868064595703e-02
      -5.2785861687263187e-02 -3.2948662766326423e-02
      -4.2744782166177900e-02 -7.4429441885981024e-03
      8.5987885977338693e-04 3.5847896935750377e-02
      3.1095779531062583e-02 1.5047113479063885e-02
      1.3046391843500912e-02 -1.1612664696070227e-02
      1.6734082296367400e-02 4.0313026952743213e-02
      7.1124249783516887e-03 2.9264089749835357e-02
      2.9389500283089554e-02 9.0963749313326542e-03
      4.1491189696498468e-03 2.0737738593481679e-02
      -1.8253519799911255e-02 4.0018717228525229e-02
      4.0215653103357556e-02 3.2411118851145448e-02
      -2.8772765809508868e-02 7.2201934382224650e-02
      -1.8093491939568482e-02 1.0999526957976877e-02
      8.8212508868111758e-03 -2.2920903716462080e-02
      1.2454175105681487e-02 -4.1347170250604200e-02
      -1.3277651416873294e-02 -4.0055279175076133e-02
      3.5966506533220859e-03 -7.5793584474905477e-03
      5.8801316566404714e-03 -7.8739020313975984e-03
      -2.3495018034876667e-02 9.3745869611804918e-03
      3.1555139212920705e-02 1.4453033700618068e-02
      -4.8696771425681112e-03 -2.9902331643142818e-02
      2.8434922827236725e-02 2.7381946141432908e-02
      4.8132769617815277e-02 -4.3461956747399035e-03
      -9.0118797290135080e-03 -1.6022267515067114e-02
      -2.3050060034172471e-02 4.9900311769950096e-03
      -1.2069186024198254e-02 -2.7732718635505541e-02
      2.9463341905268864e-02 7.7097490203738003e-02
      -1.7753358735683365e-02 4.2376280580114910e-02
      -5.6547849258076141e-02 3.1155431948030155e-02
      -1.0061118541722956e-02 -2.6490442272891809e-02
      -4.7489638857605744e-02 1.3691193778284835e-02
      -1.5211371140992393e-03 1.5895532870586631e-02
      -3.2514832229871434e-03 -1.7585494039623291e-02
      -5.2433889329625206e-02 1.3499751239699721e-02
      4.3411514192366295e-02 -8.5077139237101848e-03
      1.0700869611875745e-02 2.4233209839546639e-02
      1.1259301501173121e-02 -1.3774037143628863e-02
      3.9794766598888400e-04 1.7419372441192509e-02
      5.8387616184086520e-03 3.1005645949175882e-02
      3.3674302900837491e-02 3.2640473138238778e-02
      1.8267923529248119e-02 8.2205699003187055e-03
      2.3492451879223927e-02 2.3073509316929486e-03
      -8.6607332174849314e-03 9.2143109205642748e-04
      -3.7553197036844135e-02 1.1819280402615140e-03
      -1.0828369224396988e-02 1.9661218744069234e-02
      1.7958867302333249e-02 -2.8926526009516500e-02
      1.5960919502536544e-02 -3.4323636560599130e-04
      6.0252925786459400e-03 -3.6460146578066469e-02
      2.9540585617037773e-02 -2.3085619796682399e-02
      -2.4924687660431107e-02 1.4266241109018797e-03
      -1.4269715393364633e-02 2.7650998470551903e-02
      1.3162974174508646e-02 -3.8492616118551417e-03
      -4.1611992491961972e-02 -1.2316676569743664e-02
      3.0451814766132453e-02 3.2217504264368875e-02
      3.3466481408726816e-02 -1.1673399192293037e-02
      -1.5837727573221006e-03 -1.6181519014293589e-02
      -3.9115409223277338e-02 1.8170822836235091e-02
      -6.0069276126538396e-04 2.8547237818497563e-04
      2.1541491994699201e-02 3.0922049924842494e-02
      -3.4023467719736804e-03 1.5714450496867260e-02
      -1.6811019482059406e-02 -3.9197116087748380e-03
      -1.2225571875600366e-02 1.5861563498187497e-02
      -1.0329738086207204e-02 3.3865122248479873e-02
      -1.3422750588806414e-02 1.0470663383382907e-02
      4.7363133311679323e-04 -1.6401439008335614e-02
      -3.3970118602937402e-02 5.7751892834850020e-03
      4.4267288885062595e-02 -3.6121303973845366e-03
      -3.4369521379085576e-02 1.3715296646805847e-02
      -1.2263779278881800e-02 1.4882280232182344e-02
      1.7479933956311648e-02 3.4578525268690707e-02
      -1.5294012219119218e-02 -9.1613547384781346e-03
      3.3718556277852467e-02 1.7246397342434539e-02
      4.5696989537685048e-03 -9.9464767356043666e-03
      -2.6454402030831610e-02 -3.7876333249264663e-02
      2.4387100591229524e-03 -2.3875433356967197e-02
      -1.5658422279519219e-02 1.6861152684717433e-02
      -2.0604283850388982e-02 4.3651366149172428e-02
      2.1334823685412032e-02 -5.3765281293206976e-03
      3.5352829827332691e-02 -1.5323712393524454e-02
      2.7023829865008585e-02 1.1487459921960295e-02
      7.2167408881527095e-03 -5.1376556756462348e-02
      -2.0919213523336262e-02 -1.2781588022822442e-02
      6.2350351916845058e-03 1.4425305258646295e-02
      -1.1532787010926998e-02 5.0753770530636132e-03
      1.4868691950095176e-02 -3.0594466843734602e-03
      1.7751062631690250e-02 3.8262639308497277e-02
      2.2164277014980388e-02 -1.4029269595531664e-03
      4.3942941453902510e-03 -3.1355191647571335e-03
      -4.9285357985160219e-02 6.4005718745465245e-03
      -1.1487472480548549e-02 -1.1711599298543016e-02
      1.5734579588377602e-02 3.6443195419649028e-02
      -7.6030459667942203e-03 5.3267058355646442e-02
      -1.5366999792311573e-02 2.7210889864265207e-03
      -1.3615437754602685e-02 2.1541514018308092e-02
      -8.2649300237518843e-03 4.2140053124047804e-02
      -1.0753270330551519e-02 4.1921523307447105e-03
      -2.7298399506561839e-02 1.3478891429475237e-04
      -1.2504330408178175e-02 1.4955434039941089e-02
      4.3519259958934776e-02 1.0179474577260188e-02
      -3.5978858402104297e-02 2.5391412015615653e-02
      -2.5112759352060369e-02 4.8837393765817076e-02
      1.5667121878947497e-03 3.0799291056654229e-02
      2.2411624106002517e-02 -7.6298762062429193e-03
      1.9118270194523106e-02 2.2921119355649108e-02
      -2.5226018763131471e-02 7.4407230599611235e-03
      1.1335658673242422e-03 -1.8366659271514887e-02
      2.1506666062552769e-02 -1.2965035923222091e-02
      -1.9714828265665622e-02 3.8444740761802661e-02
      -6.0173590898618082e-02 5.5787022391532111e-02
      2.5936014853586049e-02 2.1922110757491786e-02
      1.6468462991838637e-03 -2.8234664657664259e-02
      4.7155316171137010e-02 1.6918519085274315e-02
      -3.8540463908939615e-02 -7.8052048789665610e-02
      -2.6618368119852624e-02 9.7453889226439532e-03
      3.9165033634361704e-02 -4.4139079077774340e-02
      -2.3435564837557769e-02 -6.8512282724700599e-02
      5.2451733841225055e-02 4.0728106124978181e-02
      -1.7207518811009560e-02 3.3124128335929572e-02
      2.0040311911073490e-03 -4.7285016094454034e-02
      3.5965947863667191e-02 3.3143778800778366e-02
      -2.3068408570978954e-02 1.0811534064502292e-02
      -1.1954178101639335e-02 -1.3561607832629484e-02
      -3.1643244950185195e-02 3.7326089382401756e-02
      -6.9287655903586529e-02 5.1788305056980038e-02
      -2.5829717135290885e-02 -3.4103046871754389e-02
      -2.3963563863364661e-02 3.7458194078712592e-02
      -6.7176422805848108e-03 3.0436847481902871e-02
      -1.7976628953137532e-02 -7.6212105950293346e-02
      -2.3113431692352138e-02 1.6987581951588913e-02
      -9.2726486808581005e-03 2.6970746316165833e-02
      4.8689377378906364e-02 -2.9120978700211008e-04
      -3.1329562381215807e-02 1.0428590288805717e-01
      -4.3843927478929262e-02 1.8256147930549412e-02
      -3.7528665685388008e-03 1.5180846876292776e-02
      5.1611427164901566e-02 6.0845196587800288e-03
      1.0847166832245210e-02 5.3052539939184622e-02
      -3.0169508986049771e-02 1.6687463406014246e-02
      5.5655034960994179e-02 -7.7836976224623794e-03
      4.5208261415838641e-02 1.1744829780997402e-02
      1.4615715337839003e-02 3.2054755630025321e-02
      -1.5787593360578234e-01 9.3788383748405146e-02
      -1.6021465125565557e-02 3.7331609842905816e-02
      1.3667804457760280e-02 2.3594652170526909e-02
      1.2545389577108127e-02 2.2603806869185110e-02
      2.4225109930759988e-02 -1.8697446980702720e-01
      1.6905461207695396e-02 1.8918291973715928e-02
      3.5684071160888280e-02 -1.6484931406085429e-01
      1.9557014187009798e-02 -2.9624125448538347e-01
      -6.1825780973611098e-03 3.7034581683352545e-02
      -3.4512356437300218e-02 2.3152557496387373e-02
      6.4709070482643722e-03 3.2514247706730511e-03
      1.2601634411570725e-01 3.2130526700147377e-02
      1.3066134976750991e-02 -8.6965112504918726e-03
      2.8106570930222979e-02 -1.9889633689168729e-02
      -1.8488925638059869e-01 -4.0410960062903921e-02
      -2.6648963023430361e-01 1.0599323979544316e-02
      -2.1646141992165487e-03 1.0454932882560294e-02
      2.3329308678214727e-02 1.7298542980841377e-02
      -1.1366820485639037e-02 1.2008779495670953e-01
      4.5300042052344126e-03 -2.2306169051437680e-01
      5.1906654770129627e-03 -3.9421263942038447e-03
      4.6631622578434664e-03 9.7726865547550761e-03
      -2.8055010999141067e-02 2.4080641700527594e-02
      7.0367246565750358e-02 2.4411733412678063e-01
      2.3990484007471095e-03 -8.4203404161190709e-02
      -7.3965610234784408e-03 -2.5160625398729005e-04
      -2.3911124900217137e-03 1.0239375624998453e-02
      -1.3991330483850577e-02 4.7673353225156740e-03
      -1.3587872252337839e-02 -1.5175644764503299e-02
      -5.5597810237330084e-03 -5.8660354529397911e-03
      -7.8188970709556112e-03 3.8105646736284007e-03
      -1.6612256095575702e-02 3.3709982455459267e-02
      -8.3431624088865550e-02 5.2556931214935258e-02
      1.0245676795514450e-02 4.0634682654845766e-02
      1.4502422618942157e-02 -2.7855238317314773e-02
      1.6037720446296710e-02 1.2341673284398214e-02
      -2.5744649417649430e-02 -1.0918247019583964e-01
      -2.5083233202381598e-02 1.5632350092703588e-02
      5.6685134018965204e-03 -7.4898171024837618e-02
      -8.6822163454054867e-03 -1.9850593659874413e-01
      3.0174720740681418e-02 -9.3280272817694004e-03
      -4.3606757225165819e-02 -2.0179074310238840e-02
      -4.0215273200515178e-03 1.7204244457615044e-02
      8.9393723652159418e-02 -9.0526619009786077e-03
      1.6947354828077162e-06 -1.4460426848249627e-02
      1.9357752441720579e-02 2.0420936965901628e-03
      -4.4744474735334869e-02 -2.0662631366895408e-03
      -9.3486719614147382e-02 3.0738188879842910e-02
      -1.6018160670308278e-02 2.8776319502228122e-02
      7.1852690266889074e-03 2.7370010886175414e-02
      -4.0438172024025089e-04 8.5845020868419081e-02
      4.1086920574537680e-02 -1.3809560685364261e-01
      -4.1074419599208573e-02 3.3977031335754746e-03
      -2.6561177381384487e-03 2.9090302919806223e-02
      -2.8222425373873990e-02 1.7785851242997155e-02
      1.8903519443341742e-03 1.0603437751251495e-01
      -9.2341980135426174e-03 -2.6561663944899699e-02
      8.2563776156493983e-03 2.0628550326522270e-02
      1.8714430206186121e-02 -1.2102261113068993e-02
      2.3321530579735301e-02 3.8479953696167906e-03
      -1.3068203623547343e-02 8.2175930415547809e-03
      2.8036324482814234e-02 -9.4298710997635787e-03
      -6.5888240609955412e-03 2.6620563233509940e-02
      -2.3029901935433288e-02 1.8341467629985307e-02
      -5.7730002917903880e-02 3.9787786680589222e-02
      2.5828749620368328e-02 9.7875924013218745e-03
      3.7476696125471221e-02 -3.5761977378027136e-03
      7.1422258127332777e-03 2.6569594850012410e-02
      -8.9657620019131540e-03 -7.7149526378896133e-02
      -6.0277979585183113e-02 -2.5400928718384893e-02
      -2.5056763694057922e-02 -2.2572192802132924e-02
      -1.0845438087450301e-02 -1.0392038340518039e-01
      3.9554019880268416e-02 -1.4310371642036988e-03
      4.5600993587696665e-03 -9.1476862485492631e-03
      5.8860057271189750e-03 1.8677911959490399e-02
      5.1186047290506789e-03 -3.2908644393797558e-02
      -2.4885053021987736e-03 3.8186671289258796e-02
      -5.9844079352199594e-03 -1.0087976549649004e-02
      -2.0599781580558228e-02 5.5259408992192165e-03
      -3.9049663490540287e-02 2.7350590959427937e-02
      9.9078035230999815e-03 -1.0067916876184545e-02
      -2.2731403810897412e-02 -3.0968022202846552e-03
      9.2637323623180612e-03 2.4400329641018785e-02
      1.8822196170662751e-02 -8.5885380551009846e-02
      -4.5113806141542721e-02 6.1395118839600808e-03
      -8.9030888656767455e-03 1.2957878880397022e-02
      1.3538665627864039e-02 1.9776028010063593e-02
      1.1976596410745190e-02 3.9376855258197715e-02
      8.7732690088903661e-03 1.2550155574878114e-02
      1.3922276970242606e-02 -4.7394305921986636e-03
      -2.8887358624851201e-03 9.3175604573938978e-03
      1.2879617111271720e-02 3.3592585705841851e-02
      -1.5147154176562398e-02 1.0509062360570103e-02
      2.2247028205053716e-02 -1.0495716552838912e-02
      1.8787691098738044e-02 1.7528825641802196e-03
      -4.8430279235975704e-02 -1.6136712384874727e-04
      -3.6881941947996405e-02 1.9681043707045109e-02
      5.7013016952320462e-03 1.5343271984615348e-02
      1.8864296708477158e-02 -1.5761659422063594e-03
      2.3455993674801685e-02 5.4749870630145499e-03
      -4.0950227811612470e-02 -4.0979226357084404e-02
      -2.5064174723836138e-02 -3.7352340462961021e-02
      -1.2218557592508497e-02 -2.0751961676787660e-02
      -5.9864783793856791e-03 -1.1000761426910860e-02
      4.0432382038976269e-02 -3.2410000785309631e-02
      1.0820384492707372e-02 1.6958788116765159e-02
      8.0449267742285571e-03 2.4537896266491454e-02
      4.9776239434411590e-03 -2.8413464874622891e-02
      -2.7416178631886907e-02 1.1140456740314874e-02
      -3.7718335953500846e-02 -2.6972942841125717e-02
      -1.3855890504659424e-03 1.7953762972835158e-02
      -9.2097208707397574e-03 1.3666855715179555e-02
      -2.9331228484142741e-02 6.5940144247659468e-03
      -3.0761227668227340e-02 -1.5472534677827151e-03
      -4.7354805260333569e-03 1.3984699806908833e-02
