<?xml version="1.0"?>
<opencv_storage>
<opencv_ml_ann_mlp>
  <format>3</format>
  <layer_sizes>
    400 64 34</layer_sizes>
  <activation_function>SIGMOID_SYM</activation_function>
  <f_param1>1.</f_param1>
  <f_param2>1.</f_param2>
  <min_val>-9.4999999999999996e-01</min_val>
  <max_val>9.4999999999999996e-01</max_val>
  <min_val1>-9.7999999999999998e-01</min_val1>
  <max_val1>9.7999999999999998e-01</max_val1>
  <training_params>
    <train_method>BACKPROP</train_method>
    <dw_scale>1.0000000000000000e-03</dw_scale>
    <moment_scale>1.0000000000000001e-01</moment_scale>
    <term_criteria>
      <epsilon>1.0000000000000000e-04</epsilon>
      <iterations>10</iterations></term_criteria></training_params>
  <input_scale>
    7.3924391531868867e+00 -4.3265524444472137e-01
    4.8501918904122947e+00 -5.1163652970075391e-01
    3.6219692798810148e+00 -5.9957589376143516e-01
    3.0554602205202226e+00 -6.6571914730804416e-01
    2.8783254717292297e+00 -7.2173267822987264e-01
    2.7154128716218056e+00 -8.3398152336824394e-01
    2.5084114436722378e+00 -9.5722951756548669e-01
    2.4878669107563964e+00 -1.0026917035397471e+00
    2.3829463505503141e+00 -1.0181658570394669e+00
    2.3232114302604163e+00 -1.1023026797869089e+00
    2.3285674468449180e+00 -1.1293418211925546e+00
    2.4217008395511286e+00 -1.1054408325937395e+00
    2.5662327906870281e+00 -1.0821136132300291e+00
    2.5960613169710509e+00 -9.7885389262902789e-01
    2.7055450558384946e+00 -8.1668977003548859e-01
    3.0129068320307035e+00 -6.6358088768144041e-01
    3.5391953164384060e+00 -5.5297990518240636e-01
    4.9054367329469857e+00 -4.9744261777876608e-01
    6.9781506468282668e+00 -4.2591671828826444e-01
    9.6798576411467199e+00 -4.0097910006888521e-01
    6.7381806430348270e+00 -4.3187051302563212e-01
    3.9731696586452978e+00 -5.8329982502714184e-01
    2.8937552921063761e+00 -7.2414199685635028e-01
    2.4365115202644883e+00 -8.2249926026250086e-01
    2.3876469545884573e+00 -9.3998388286445056e-01
    2.4211719548864363e+00 -1.1506776175505793e+00
    2.4611988925825097e+00 -1.4146718252555990e+00
    2.3672014267457100e+00 -1.4171118571384425e+00
    2.2803222311429754e+00 -1.3080738925402946e+00
    2.2678295197287164e+00 -1.3189613317304825e+00
    2.3146044612317862e+00 -1.3967468262423659e+00
    2.3721455956076185e+00 -1.4707339763562715e+00
    2.5258595110655340e+00 -1.6299048737626298e+00
    2.6359735748223119e+00 -1.6328727009188662e+00
    2.4479694670834786e+00 -1.1675732611066758e+00
    2.5308369841238396e+00 -8.4096574575559035e-01
    2.8701035861379554e+00 -6.6069986455978325e-01
    3.9858611068971328e+00 -5.6531190671311005e-01
    5.9333355728372856e+00 -4.4233349655726445e-01
    9.1492020740653022e+00 -3.9837900285010813e-01
    7.7445197469762714e+00 -4.4531735352316637e-01
    4.1811414982475679e+00 -5.8278459809209904e-01
    2.9514455945345239e+00 -7.6129825256356520e-01
    2.3993295552690475e+00 -8.8445139948652685e-01
    2.3478812913486529e+00 -1.0227302834974910e+00
    2.4720439319427276e+00 -1.2540191870393858e+00
    2.5679364021109712e+00 -1.4693039575957585e+00
    2.5035216774539366e+00 -1.3071945000442384e+00
    2.5802822803408092e+00 -1.1235984023812504e+00
    2.6022218167105380e+00 -1.0660405849586996e+00
    2.5754698926256752e+00 -1.1269270529149300e+00
    2.5668183737106873e+00 -1.3036141807593900e+00
    2.5989416096407241e+00 -1.5758579664472632e+00
    2.6939881030350081e+00 -1.7764889521677034e+00
    2.5126900584354246e+00 -1.3839812491587662e+00
    2.5437963953302773e+00 -9.6534388609387234e-01
    2.9486204197756183e+00 -7.2735587913665867e-01
    4.2396846900634149e+00 -5.9305384179835108e-01
    6.3868137016693378e+00 -4.4122301550122922e-01
    9.0725790821965475e+00 -3.8987326571778669e-01
    8.2441269763566858e+00 -4.3739200706519371e-01
    4.3453170194620752e+00 -5.4108471213173515e-01
    3.0172023286340277e+00 -7.4281877983612032e-01
    2.3669077242832128e+00 -8.6067539329644671e-01
    2.3341878689301212e+00 -9.8918956509173539e-01
    2.4121375450541436e+00 -1.1134134352874254e+00
    2.4511067067152745e+00 -1.1438931903641927e+00
    2.5557524936843650e+00 -9.5121358198357919e-01
    2.9019169579507653e+00 -7.3960617762170355e-01
    2.9508359844950283e+00 -6.5027079812035804e-01
    2.7694601623056139e+00 -7.0207787864074223e-01
    2.7247279331721619e+00 -8.5359936879228326e-01
    2.5269960245854750e+00 -1.1531846278000377e+00
    2.4565134846703143e+00 -1.3744084903563825e+00
    2.3437225660875138e+00 -1.2279755170514710e+00
    2.3825957074245534e+00 -9.2984809680395808e-01
    2.7672976042979083e+00 -7.1696098830931232e-01
    4.0735622801808251e+00 -5.9175503793455264e-01
    6.1890222484265580e+00 -4.2792058451004245e-01
    8.7914261917465062e+00 -3.7819020816443960e-01
    8.5122839981593739e+00 -4.2927309881834147e-01
    4.3815806598519877e+00 -5.4325874978703304e-01
    3.0073634456698275e+00 -7.3952469942931898e-01
    2.3534920720921577e+00 -8.5004409557957616e-01
    2.3496114584440542e+00 -9.8630930951166085e-01
    2.4288289265267644e+00 -1.0828394021008252e+00
    2.4443902719479822e+00 -1.0649290645429321e+00
    2.6167434950612170e+00 -8.6319741796764682e-01
    2.9853556008488336e+00 -6.4991458332393737e-01
    2.8972177471880758e+00 -6.3105660322048784e-01
    2.7209941739387702e+00 -6.7963135131840513e-01
    2.7233245095371545e+00 -7.6305022188724336e-01
    2.5647197717238495e+00 -9.8196724868250207e-01
    2.4641127474614630e+00 -1.1712370780952446e+00
    2.3645465002550208e+00 -1.1111878130014166e+00
    2.4031536618797316e+00 -9.0857137433471502e-01
    2.6484330605060569e+00 -7.1926598594326563e-01
    3.7845603537481303e+00 -6.1034005259980795e-01
    5.6678489055346306e+00 -4.4158668481248359e-01
    8.4707841839951037e+00 -3.7352870880602945e-01
    8.8851440250781639e+00 -4.2993714670797784e-01
    4.4585392229260670e+00 -5.3066046964673796e-01
    3.0412335846517680e+00 -7.3282859114491739e-01
    2.3430662384763044e+00 -8.3666295913266508e-01
    2.3547996892368617e+00 -9.7983935591772631e-01
    2.4224304994704169e+00 -1.0676781392496426e+00
    2.4561321868081105e+00 -1.0311222936130349e+00
    2.6198556436405540e+00 -8.2421810435215404e-01
    2.8499171690372873e+00 -6.6855707017829813e-01
    2.6120556014051752e+00 -7.0506624393097284e-01
    2.5270587479307403e+00 -7.2301864396574167e-01
    2.5551394509879382e+00 -7.6391305026712331e-01
    2.5640592260061967e+00 -8.9160850534445002e-01
    2.4722178803959656e+00 -1.0169855019530245e+00
    2.3986458169561287e+00 -9.7489786448865279e-01
    2.4779996867559815e+00 -8.3993047099288987e-01
    2.6544569292090916e+00 -6.7906134614667624e-01
    3.6620224516061164e+00 -5.9094992742981456e-01
    5.3305055318772716e+00 -4.4138883230631593e-01
    8.0058580172572142e+00 -3.6167642816938866e-01
    9.1924197266124619e+00 -4.3059120060051831e-01
    4.6717409141718482e+00 -5.1281384357405779e-01
    3.1282960177179491e+00 -7.2052803458911363e-01
    2.3499756397432217e+00 -8.2586333473278783e-01
    2.3358704897466755e+00 -9.7486720459220200e-01
    2.3988806695051523e+00 -1.0702955662101401e+00
    2.4687591713889123e+00 -1.0268747690674200e+00
    2.6348772881977709e+00 -8.2457379116396967e-01
    2.7225431153345943e+00 -7.2596966127165363e-01
    2.4376518033751737e+00 -7.5009951167286448e-01
    2.4035794298451321e+00 -7.7376039669601371e-01
    2.5001272202271356e+00 -7.8241201169918217e-01
    2.5931611121543225e+00 -8.6914269924544640e-01
    2.4868213942528992e+00 -9.5255111009926008e-01
    2.4208992850722173e+00 -8.9765385574290468e-01
    2.4987109085045431e+00 -7.7784365552174151e-01
    2.6795141329720922e+00 -6.4305045606833255e-01
    3.6576115498307034e+00 -5.6624498425770542e-01
    5.2518488160432106e+00 -4.3525531991176586e-01
    7.9214165258323090e+00 -3.6126046844838305e-01
    9.7275923170562386e+00 -4.2872467492866706e-01
    4.9819500155674366e+00 -4.9880795175564602e-01
    3.2470429034181532e+00 -7.0844961869326128e-01
    2.3859299287243454e+00 -8.1733285294883429e-01
    2.3249333327623889e+00 -9.7069770688835555e-01
    2.3958567382373528e+00 -1.1023354819091451e+00
    2.4873414280652510e+00 -1.0788368081878732e+00
    2.6758398403676638e+00 -9.0247717802801852e-01
    2.6852703497112542e+00 -8.2972689364843966e-01
    2.3993684058782705e+00 -8.4852038966974141e-01
    2.3807732815188904e+00 -8.8062070437078466e-01
    2.4834852157519589e+00 -9.0415670470404308e-01
    2.6015714429329133e+00 -9.7162946558748564e-01
    2.5272425428983984e+00 -1.0068122681307561e+00
    2.4586365739537057e+00 -9.0078927484959692e-01
    2.5145841966900315e+00 -7.6339145099294081e-01
    2.7444598151543995e+00 -6.3659230958103119e-01
    3.7300306134711003e+00 -5.5728180249081283e-01
    5.3884264498550598e+00 -4.3341512901337048e-01
    7.9482365126350549e+00 -3.5981891587990289e-01
    1.0298436995439273e+01 -4.2304761968185350e-01
    5.2174657754996092e+00 -4.7821355823994011e-01
    3.3464065244208143e+00 -6.8318417380355900e-01
    2.4114851373811352e+00 -7.9433823610319310e-01
    2.3005216081875957e+00 -9.5575754412659575e-01
    2.3284590059994552e+00 -1.1335021278389483e+00
    2.3776140293824475e+00 -1.1602811733638940e+00
    2.4808115684706067e+00 -1.0478315170162846e+00
    2.4448166736639876e+00 -1.0265373009432512e+00
    2.3238782410202115e+00 -1.0749666138568597e+00
    2.3537656770048438e+00 -1.1419103245516151e+00
    2.3817174674212223e+00 -1.1579524382382309e+00
    2.4830771350595628e+00 -1.2184892469362225e+00
    2.4488332083844688e+00 -1.1724610889228844e+00
    2.3697369080873973e+00 -9.8009990354014975e-01
    2.4632831616790840e+00 -7.8671831971325901e-01
    2.7647599232883961e+00 -6.4619064971628548e-01
    3.7411457257308278e+00 -5.4898619597465981e-01
    5.3692391697878179e+00 -4.2895289336788883e-01
    7.9762765567946081e+00 -3.5462999697028119e-01
    1.0789798330719497e+01 -4.2518693982122152e-01
    5.4746923668008334e+00 -4.6857559518720798e-01
    3.4410702577649483e+00 -6.7217163415798176e-01
    2.4266892159452453e+00 -7.6926145011641112e-01
    2.3124848436980465e+00 -9.2345410413787887e-01
    2.3222060368396438e+00 -1.1585639082033261e+00
    2.3704537158473609e+00 -1.2400526488248891e+00
    2.4072370610015783e+00 -1.1667483309200388e+00
    2.4158675182298972e+00 -1.1987347488681133e+00
    2.3710246986464099e+00 -1.3207237067217354e+00
    2.4043849441232035e+00 -1.4255054425428102e+00
    2.4232403403617648e+00 -1.4374557951013092e+00
    2.4737166413562792e+00 -1.4628596434136243e+00
    2.4307538898577254e+00 -1.3469330282961876e+00
    2.3392792452872424e+00 -1.0672456131497912e+00
    2.4296793825579499e+00 -8.2810875584958921e-01
    2.7354739189514574e+00 -6.6942024723926863e-01
    3.6465259160218793e+00 -5.5730022449109928e-01
    5.2190609265561454e+00 -4.3356131718505408e-01
    7.8112192937056584e+00 -3.5031863836176252e-01
    1.1124615521240797e+01 -4.2255577753397439e-01
    5.7120040489663557e+00 -4.6324552705282518e-01
    3.5284471516644942e+00 -6.5605244798728390e-01
    2.4527279655782164e+00 -7.4801322676509741e-01
    2.3156444702317178e+00 -8.9650967939299853e-01
    2.3229081550925263e+00 -1.0999493024158007e+00
    2.3837797369529885e+00 -1.1602106643156849e+00
    2.4185876286337415e+00 -1.0676284120205695e+00
    2.4156719569658232e+00 -1.0496499104170400e+00
    2.3499641939130425e+00 -1.1272203170469153e+00
    2.3034092413609328e+00 -1.1759608678780087e+00
    2.4013069629916721e+00 -1.2482199057945056e+00
    2.4831691119223853e+00 -1.3343926982831111e+00
    2.4378890787828897e+00 -1.2806950777683519e+00
    2.3853860219060472e+00 -1.0514206092931018e+00
    2.4442767119419244e+00 -8.2789845827960906e-01
    2.6976752467124960e+00 -6.7704495358662320e-01
    3.5015077634596374e+00 -5.7155217659798985e-01
    4.9728243265130585e+00 -4.4777216509199375e-01
    7.6987163395633456e+00 -3.4850530776242106e-01
    1.1262142088513791e+01 -4.2616017319319649e-01
    5.8822494440432154e+00 -4.5919089334752267e-01
    3.5981521022628686e+00 -6.5584037852849264e-01
    2.4613814206838662e+00 -7.4544562794913227e-01
    2.3134697295568740e+00 -8.8918182474555285e-01
    2.3142735609148288e+00 -1.0438931276428798e+00
    2.4362004139851057e+00 -1.0551361398785091e+00
    2.5868923522109517e+00 -8.8375646178282574e-01
    2.6860021952674296e+00 -8.1066255578406143e-01
    2.5112118495962630e+00 -8.2610666772124097e-01
    2.4140878765006053e+00 -8.7168530868960614e-01
    2.4730811243098469e+00 -9.3149493635083636e-01
    2.5039745666141084e+00 -1.0233776272222213e+00
    2.4144176563798063e+00 -1.0579419744448790e+00
    2.4032568974748010e+00 -9.4408731251194455e-01
    2.4674860593613612e+00 -7.8664142724293329e-01
    2.5673467747313059e+00 -6.7244747480490608e-01
    3.2863203407724701e+00 -5.9843378416774429e-01
    4.6072701124447377e+00 -4.6642367898384668e-01
    7.2606862174159836e+00 -3.5086898069808953e-01
    1.1156795615083881e+01 -4.3331778365549639e-01
    6.1102568224281972e+00 -4.5826693479201280e-01
    3.7024142923185219e+00 -6.5914934969393135e-01
    2.4929705973372629e+00 -7.4709376831206398e-01
    2.3317470992650797e+00 -9.0024806517720646e-01
    2.3461853224186147e+00 -1.0523340690772582e+00
    2.5033385381379420e+00 -1.0291830475084534e+00
    2.7305957969002237e+00 -8.0959386932468980e-01
    2.8183341850715129e+00 -6.8859459500907005e-01
    2.6236407911446857e+00 -7.1415081685747717e-01
    2.5268185508263175e+00 -7.6160315428589331e-01
    2.5956029533490397e+00 -7.9414277101635511e-01
    2.5206310660444724e+00 -9.1785474789134358e-01
    2.4182806833609671e+00 -1.0065924037756697e+00
    2.4607071541963155e+00 -9.2290429449350586e-01
    2.5030421233723681e+00 -7.9805763633174587e-01
    2.5374108109734106e+00 -6.8631453653033581e-01
    3.1129616962663698e+00 -6.1541855234587328e-01
    4.3233555330485220e+00 -5.0170540083389437e-01
    6.9153204296490305e+00 -3.6450998770542353e-01
    1.0815606789161034e+01 -4.2791715706503725e-01
    6.1915839712235465e+00 -4.5476365319934897e-01
    3.7674027386993809e+00 -6.5161151856267652e-01
    2.5233718436895676e+00 -7.4861004957067467e-01
    2.3372628422483857e+00 -9.2088879569556681e-01
    2.3360224785659978e+00 -1.0841425986467601e+00
    2.5092012126539247e+00 -1.0524560763595869e+00
    2.7235658394873012e+00 -8.0558075785579630e-01
    2.8143978472826228e+00 -6.5481010131653949e-01
    2.6101435444318479e+00 -6.9061932348094501e-01
    2.5721549793742486e+00 -7.2932710818541469e-01
    2.6080074830088029e+00 -7.4838086427747175e-01
    2.5058300658619390e+00 -8.9058803585189172e-01
    2.3744773697805184e+00 -1.0053068343857836e+00
    2.4353232178272588e+00 -9.3112494764529397e-01
    2.4849869791551651e+00 -8.0695681053430512e-01
    2.5215116805656428e+00 -7.0315957846567734e-01
    2.9902368643233017e+00 -6.2846481435922086e-01
    4.0582512725131155e+00 -5.1851066256796241e-01
    6.3400688770265221e+00 -3.6373618083261666e-01
    1.0801893987848477e+01 -4.2443430514189934e-01
    6.3935017653743653e+00 -4.5933416516114145e-01
    3.8620842392584023e+00 -6.6930027237609191e-01
    2.5607467387168161e+00 -7.8317109980444399e-01
    2.3537565945825549e+00 -9.9582641263931027e-01
    2.3703022242939107e+00 -1.2002660525609052e+00
    2.5328325370954876e+00 -1.1700342930814605e+00
    2.6572663581129183e+00 -8.4804498643103809e-01
    2.8221679369763923e+00 -6.7764150309155724e-01
    2.7102989679349561e+00 -7.0623245796203671e-01
    2.6155708056181690e+00 -7.2268797391314066e-01
    2.5984908283697803e+00 -7.4610956762563108e-01
    2.5128409706492576e+00 -9.0053229646400756e-01
    2.3439496339904720e+00 -1.0054742250921906e+00
    2.4131880512253212e+00 -9.5509181444909430e-01
    2.4828755796506292e+00 -8.2982078352762811e-01
    2.5175582263766678e+00 -7.1804713011617749e-01
    2.9550465345140746e+00 -6.3807649083038176e-01
    3.9667308015296134e+00 -5.2539587943206323e-01
    6.1393848552692081e+00 -3.6696103478045239e-01
    1.0957856242529370e+01 -4.2433573950203918e-01
    6.4971474814389660e+00 -4.5905184573025520e-01
    3.8602068120277147e+00 -6.8170870098988257e-01
    2.5439087706832804e+00 -8.1492131077145791e-01
    2.3202791276377339e+00 -1.0647896150764808e+00
    2.4069682437094282e+00 -1.3697732029763086e+00
    2.5332282096736711e+00 -1.3252436309369831e+00
    2.5884437063419838e+00 -9.3567317651949444e-01
    2.7691030606094853e+00 -7.1020842426749053e-01
    2.6097027435990361e+00 -7.0730271668718492e-01
    2.5337694285170111e+00 -7.1973471840906134e-01
    2.5789279247439474e+00 -7.4766901283376053e-01
    2.5056540707625201e+00 -9.3298770105411488e-01
    2.3503209553235029e+00 -1.0345081282937225e+00
    2.4116041650554263e+00 -9.8597805625819468e-01
    2.4399799904498511e+00 -8.4399672220366972e-01
    2.5129484510992470e+00 -7.3309888223071573e-01
    3.0348340222237913e+00 -6.4707658509858645e-01
    4.0840410814308994e+00 -5.1523297304005566e-01
    6.1936776210454996e+00 -3.7103964606657613e-01
    1.1067963495616643e+01 -4.2025923501662937e-01
    7.1639269067746740e+00 -4.4112825667976352e-01
    4.1689448119153907e+00 -6.4739340765830133e-01
    2.6574277741906642e+00 -7.8749161682071089e-01
    2.3167516506727281e+00 -1.0402669684721584e+00
    2.4105558167589520e+00 -1.4189397764622744e+00
    2.5122847005325091e+00 -1.4540459215992310e+00
    2.5754034249787310e+00 -1.0934088081349602e+00
    2.8080288121623123e+00 -8.1391166791413871e-01
    2.6753225053513048e+00 -7.2930261449256761e-01
    2.6296249872054154e+00 -7.4161291434904919e-01
    2.6602274003720563e+00 -8.2872479637640284e-01
    2.4937698833386253e+00 -9.9528939036848829e-01
    2.4092884483846770e+00 -1.1149364818365339e+00
    2.3954281066747938e+00 -1.0191925418358898e+00
    2.3810639152197992e+00 -8.4944024852422451e-01
    2.4938045432850862e+00 -7.4526695661116849e-01
    3.1872555016582487e+00 -6.5624871074380964e-01
    4.3933112516447794e+00 -4.9437844107480772e-01
    6.4991299832568856e+00 -3.7476069332437739e-01
    1.1741817469611526e+01 -4.3467750246340869e-01
    7.7580669780795315e+00 -4.4085866695762493e-01
    4.5604861234408345e+00 -5.9261425128452527e-01
    2.9142844467583728e+00 -7.2750671970639447e-01
    2.4252305154939484e+00 -9.6210326033330684e-01
    2.4237627424147492e+00 -1.3591168685804642e+00
    2.5060568118996471e+00 -1.5317239476582309e+00
    2.4881402015108312e+00 -1.3238398709661348e+00
    2.5520715519708781e+00 -1.1621963635222552e+00
    2.5568240725895599e+00 -1.0963064430221989e+00
    2.5827512776402743e+00 -1.1198297641044297e+00
    2.5819667117626470e+00 -1.2054995640363380e+00
    2.4855012729830150e+00 -1.3063111009904711e+00
    2.5144339846255033e+00 -1.3507315627058882e+00
    2.4517000489374188e+00 -1.0778940760428979e+00
    2.4110948421043452e+00 -8.9232946849737094e-01
    2.6498741244629649e+00 -7.7865347476992719e-01
    3.3723872000034727e+00 -6.6513436819882998e-01
    4.6535508814681528e+00 -5.1289969456762963e-01
    6.7339305151739239e+00 -3.9088902385563418e-01
    1.2049949343617168e+01 -4.3080540254881478e-01
    8.2223019296481077e+00 -4.2847015160635465e-01
    4.9601196488547226e+00 -5.2957146683807399e-01
    3.1915766140922610e+00 -6.2758351097991472e-01
    2.5763326800693545e+00 -8.0354840081417667e-01
    2.4066458272404350e+00 -1.0933038171025640e+00
    2.5001390118293276e+00 -1.3693437854398567e+00
    2.3808286056042638e+00 -1.3468735190867220e+00
    2.3142622689604715e+00 -1.3160153922401718e+00
    2.3113848772032868e+00 -1.3946049120757968e+00
    2.3067806296561706e+00 -1.3807639097254778e+00
    2.3106794563462323e+00 -1.3386483568569132e+00
    2.3442019304863804e+00 -1.3529840042103556e+00
    2.4120761178720032e+00 -1.2349681909003263e+00
    2.4722370334489296e+00 -9.5538231901097659e-01
    2.5710460748812602e+00 -7.7631954806963632e-01
    2.8009684613461556e+00 -6.7461237541575325e-01
    3.2476925433428336e+00 -5.7756987337927823e-01
    4.3079464545449477e+00 -4.9930443213344766e-01
    6.1314997481043472e+00 -3.8432553647653245e-01
    1.1690392019859750e+01 -4.1698880077531053e-01
    9.7723244300021026e+00 -4.3048575618024426e-01
    6.9177637728927133e+00 -4.6830683402172152e-01
    4.6101317142582952e+00 -5.0678483892862158e-01
    3.5025771387074398e+00 -6.1321362215074893e-01
    2.8078240919347390e+00 -7.5631190405766058e-01
    2.6821663268610854e+00 -8.7823678104352421e-01
    2.6349156820414166e+00 -9.5669223212934740e-01
    2.4513596338553207e+00 -1.0437137628673858e+00
    2.3556157627620289e+00 -1.1554037610979424e+00
    2.3505709952761342e+00 -1.1345658061090167e+00
    2.4391525100812044e+00 -1.0280882858214571e+00
    2.5881885063288856e+00 -9.5841788402478167e-01
    2.7108907552035313e+00 -8.3524413390841568e-01
    3.1441998584269846e+00 -6.8037296647903234e-01
    3.5849050926216375e+00 -5.6989932254110942e-01
    3.7827222837547660e+00 -5.2469167551971752e-01
    4.3212480724075721e+00 -4.8217222619063788e-01
    5.5064004189368827e+00 -4.4044431027159886e-01
    7.4760344443981879e+00 -3.9159361263067594e-01</input_scale>
  <output_scale>
    5.2631578947368418e-01 4.9999999999999994e-01 5.2631578947368418e-01
    4.9999999999999994e-01 5.2631578947368418e-01 4.9999999999999994e-01
    5.2631578947368418e-01 4.9999999999999994e-01 5.2631578947368418e-01
    4.9999999999999994e-01 5.2631578947368418e-01 4.9999999999999994e-01
    5.2631578947368418e-01 4.9999999999999994e-01 5.2631578947368418e-01
    4.9999999999999994e-01 5.2631578947368418e-01 4.9999999999999994e-01
    5.2631578947368418e-01 4.9999999999999994e-01 5.2631578947368418e-01
    4.9999999999999994e-01 5.2631578947368418e-01 4.9999999999999994e-01
    5.2631578947368418e-01 4.9999999999999994e-01 5.2631578947368418e-01
    4.9999999999999994e-01 5.2631578947368418e-01 4.9999999999999994e-01
    5.2631578947368418e-01 4.9999999999999994e-01 5.2631578947368418e-01
    4.9999999999999994e-01 5.2631578947368418e-01 4.9999999999999994e-01
    5.2631578947368418e-01 4.9999999999999994e-01 5.2631578947368418e-01
    4.9999999999999994e-01 5.2631578947368418e-01 4.9999999999999994e-01
    5.2631578947368418e-01 4.9999999999999994e-01 5.2631578947368418e-01
    4.9999999999999994e-01 5.2631578947368418e-01 4.9999999999999994e-01
    5.2631578947368418e-01 4.9999999999999994e-01 5.2631578947368418e-01
    4.9999999999999994e-01 5.2631578947368418e-01 4.9999999999999994e-01
    5.2631578947368418e-01 4.9999999999999994e-01 5.2631578947368418e-01
    4.9999999999999994e-01 5.2631578947368418e-01 4.9999999999999994e-01
    5.2631578947368418e-01 4.9999999999999994e-01 5.2631578947368418e-01
    4.9999999999999994e-01 5.2631578947368418e-01 4.9999999999999994e-01
    5.2631578947368418e-01 4.9999999999999994e-01</output_scale>
  <inv_output_scale>
    1.8999999999999999e+00 -9.4999999999999996e-01
    1.8999999999999999e+00 -9.4999999999999996e-01
    1.8999999999999999e+00 -9.4999999999999996e-01
    1.8999999999999999e+00 -9.4999999999999996e-01
    1.8999999999999999e+00 -9.4999999999999996e-01
    1.8999999999999999e+00 -9.4999999999999996e-01
    1.8999999999999999e+00 -9.4999999999999996e-01
    1.8999999999999999e+00 -9.4999999999999996e-01
    1.8999999999999999e+00 -9.4999999999999996e-01
    1.8999999999999999e+00 -9.4999999999999996e-01
    1.8999999999999999e+00 -9.4999999999999996e-01
    1.8999999999999999e+00 -9.4999999999999996e-01
    1.8999999999999999e+00 -9.4999999999999996e-01
    1.8999999999999999e+00 -9.4999999999999996e-01
    1.8999999999999999e+00 -9.4999999999999996e-01
    1.8999999999999999e+00 -9.4999999999999996e-01
    1.8999999999999999e+00 -9.4999999999999996e-01
    1.8999999999999999e+00 -9.4999999999999996e-01
    1.8999999999999999e+00 -9.4999999999999996e-01
    1.8999999999999999e+00 -9.4999999999999996e-01
    1.8999999999999999e+00 -9.4999999999999996e-01
    1.8999999999999999e+00 -9.4999999999999996e-01
    1.8999999999999999e+00 -9.4999999999999996e-01
    1.8999999999999999e+00 -9.4999999999999996e-01
    1.8999999999999999e+00 -9.4999999999999996e-01
    1.8999999999999999e+00 -9.4999999999999996e-01
    1.8999999999999999e+00 -9.4999999999999996e-01
    1.8999999999999999e+00 -9.4999999999999996e-01
    1.8999999999999999e+00 -9.4999999999999996e-01
    1.8999999999999999e+00 -9.4999999999999996e-01
    1.8999999999999999e+00 -9.4999999999999996e-01
    1.8999999999999999e+00 -9.4999999999999996e-01
    1.8999999999999999e+00 -9.4999999999999996e-01
    1.8999999999999999e+00 -9.4999999999999996e-01</inv_output_scale>
  <weights>
    <_>
      7.4184412107481746e-03 2.6585148126719596e-02
      6.9079891944344796e-03 -3.0124900914822245e-02
      -3.4920351078283139e-02 -8.8416110385923959e-03
      -2.4235082826726904e-02 -3.4212062615248381e-02
      5.3288189179675038e-02 -3.6287593162137817e-02
      -2.4451303688463995e-02 3.7307896547487313e-02
      4.8589317151592430e-03 -4.0636102012068118e-02
      1.7591033689313081e-02 4.4755183387063052e-02
      -3.7578066580400957e-02 -1.3964115897070686e-01
      -8.2361900041175509e-03 2.0753360395966518e-02
      -2.4424954541136883e-03 -2.0120458367689630e-02
      -3.6889213228984905e-02 -2.4294165975636901e-02
      -2.3714408154073635e-02 8.8092263232653518e-03
      5.5999997952802926e-03 -1.8703208018109225e-05
      -1.2331291776761281e-02 4.4722371718848027e-02
      -6.7538578529530630e-02 -9.9615472965171557e-03
      3.9314068770380226e-02 1.9716728790583550e-03
      6.6276129292362090e-04 -2.3471773872809902e-02
      4.0102676868092801e-03 5.1813618419329285e-02
      3.0786872409810821e-02 1.7101941868109347e-02
      8.3067588447530254e-03 -1.5159314430641743e-01
      -2.0649681098623106e-02 3.6770452860594119e-02
      1.3847856383530220e-02 -6.6338835119890641e-03
      4.2862105640691102e-02 -2.3892550344685693e-03
      -1.6071359406916688e-02 -4.8324378739027278e-02
      9.5949900151793815e-03 -8.0692867641069074e-02
      5.6286287221768158e-03 4.2004094003782202e-02
      -4.5008707443441223e-02 1.5266529360900430e-01
      -2.4290127830472675e-02 -1.9503452824843202e-02
      -1.5903319896911664e-03 4.3219050806373678e-02
      2.7485906278560311e-02 -5.5430989820953742e-02
      6.6715660973021241e-04 -2.5091829636009959e-02
      5.5319424632781352e-03 1.4082568302525909e-02
      -1.1413733425973774e-02 -2.0163776097436751e-02
      -1.2326867814916084e-03 2.4502015626791801e-02
      2.8103741513801146e-02 -2.7708876060365577e-02
      3.5171965550945428e-02 -1.4598876750526778e-02
      -3.5869836192267787e-02 9.9739373954207764e-03
      3.0925151244799446e-02 -8.4374973366697047e-03
      2.3584855478754177e-02 1.9056435910201196e-02
      4.0860426219509090e-03 -1.6981883274137279e-02
      8.8163613195288792e-05 -1.4608490156584209e-02
      -2.0449572367589305e-02 2.2609411192360770e-03
      -2.8006755168408330e-02 4.3309861729014356e-03
      -4.6761885261767987e-03 1.7145372153708319e-02
      8.1211033287314459e-03 2.2432977699459733e-02
      -5.3218914706073010e-03 3.3230346546208614e-02
      -3.5112550570689325e-03 -1.3926000576465560e-02
      1.1260085489822158e-02 -1.9274535714407882e-02
      -1.1855661847701584e-02 -1.4617565244541069e-02
      -3.6464169701123580e-02 3.2679689365332290e-02
      -9.1380820277083934e-03 -2.4605643009333749e-02
      -4.0345963509495422e-04 -3.9409654232112061e-02
      -2.3636430137198652e-02 2.9305518809158469e-02
      -2.0758768084319396e-02 4.8008631223124864e-03
      3.3207352750069252e-02 5.0657905365738685e-02
      9.3484316956133056e-03 -1.8690543058106048e-02
      -1.0489546053699646e-02 -2.3373690606067099e-03
      -6.5438663052164621e-03 3.3758122857679360e-02
      -2.7805784133718172e-02 3.5048091534727245e-02
      -3.3862211932208397e-02 -3.8177847239222490e-02
      2.1477674834839634e-02 3.4708839625450308e-02
      1.2268864253142337e-03 -2.8866753638674351e-02
      2.2381177720268132e-02 5.4959190029925109e-03
      7.0661290912154267e-03 -8.2288185215531086e-03
      2.2267325867507855e-03 -2.0170357762121241e-02
      -8.9108370303394805e-03 2.4990771624279845e-02
      2.4104325050173753e-02 -1.5616527570172602e-02
      1.6813488194966995e-02 7.5137342774451456e-04
      -1.0525417547540538e-02 4.9994010291573498e-03
      2.2607664590805716e-02 2.7680424383610333e-03
      7.1724240848502888e-04 3.5333624317408297e-03
      9.2580742237843990e-04 -5.0290429239542873e-03
      2.4492942072567260e-03 -2.1983366894171338e-02
      -2.2654238123681131e-02 7.1953678957752372e-03
      -2.9186536857393915e-02 -1.2326541006254318e-02
      -2.0771660629975977e-03 2.6283694137956542e-02
      2.4923070393546320e-03 2.5014271532116758e-02
      -1.0341775290640717e-02 -9.0061568568544793e-03
      5.2577731951312056e-04 -2.9694426897612300e-03
      2.3118970584886087e-03 -1.2749440814581559e-02
      -8.8737173806410288e-03 -2.6033886013727577e-02
      -3.0480656459201762e-02 1.7920090159940782e-02
      -4.4386103623191156e-03 -3.3766093660848762e-02
      -9.9825716756408913e-03 -2.0318572888664489e-02
      -4.1474142839215645e-03 1.5478435674407291e-02
      -2.0987932840433220e-02 -2.0932816501369553e-02
      2.6263194359259244e-02 4.5776072473813684e-02
      2.7679922257118555e-02 -5.0262228004974881e-03
      -9.1278612832556057e-03 -1.8479564051353222e-05
      -2.3733533249671937e-02 1.2611659769560692e-02
      -2.0643110467232727e-02 1.0416300459086505e-02
      -1.8901546272756076e-02 -3.1050503266042834e-02
      2.4119124362966569e-02 2.7235544741484447e-02
      9.5416702029088481e-03 -6.5130148793589512e-03
      2.3881115108300981e-02 2.2543922761567668e-02
      2.0437354137547766e-02 -1.5663429710964485e-02
      7.7574256878275311e-03 -1.7220165350252527e-02
      -9.9887858459754980e-03 1.3252074941292828e-02
      1.1735637992233894e-03 -3.1372297385583586e-02
      1.1600175800730850e-02 9.9948160782025570e-04
      1.4128226574713508e-03 1.3909081444804718e-02
      8.1118131002075079e-03 1.4819640698887110e-02
      1.0590849561511156e-02 9.2711945805908878e-03
      -3.3073845033771898e-03 -8.7972861170849178e-04
      -1.9787887879995761e-02 -1.5117708302988414e-02
      -3.4870982295591206e-02 -1.4304979985933752e-02
      -1.3905293480336511e-02 -1.2601303178327321e-02
      -9.6514378029810763e-03 2.7459437053564368e-02
      -4.0937158462037411e-03 1.6724760097216896e-02
      3.3788430373328155e-03 -8.1246687640487061e-03
      -1.7880504432717216e-03 -4.6260566585382126e-03
      -1.7210963707420316e-02 -1.4880336248814519e-02
      3.5019707784020747e-03 -3.1646398214872758e-02
      -2.2644163648768194e-02 8.7240975454350948e-03
      3.2773462831457226e-03 -6.4050938147181252e-03
      -7.9573496685932631e-03 -8.4854387840701661e-03
      2.5891547671168726e-02 1.1771280659387403e-02
      1.0896514538956228e-02 -1.8743770271269878e-02
      5.2056985606067667e-03 4.1894092512637440e-02
      6.7972342845207465e-03 -6.7842141763259142e-03
      -1.0886139181834066e-02 -1.0620457686935507e-02
      -2.5259713076930819e-02 -8.3568631443325415e-03
      -6.1183997153948745e-03 -9.7013186410554505e-03
      -3.1483933252429312e-02 -7.4134724890076425e-03
      9.5994068793735562e-03 3.5584736758398267e-02
      1.9529707593444297e-02 -1.5013473512631877e-02
      1.2714509400180476e-02 1.3778897358538397e-02
      2.6884810008009789e-02 -1.4462767952751721e-02
      2.1446065559023904e-02 -1.8573847887533797e-02
      1.4349974474398963e-02 1.4570171965721135e-02
      -1.7481825861537709e-02 -1.7863734937952520e-02
      -8.0575839146823577e-03 -2.0677598902745904e-02
      -8.5513932805131553e-03 1.3346342809279163e-02
      -9.5050878136209056e-04 2.6391004179634178e-02
      -1.2499734479235726e-02 1.2277508903401565e-02
      2.0120299771146467e-02 3.2658572125090668e-03
      -1.7388903596106699e-02 7.9699532599977394e-04
      -2.5511786473134675e-02 -2.4470377048209289e-02
      -1.3948527835389465e-02 -2.4715868970779830e-02
      -1.2528947652983220e-02 2.8901241688980110e-02
      1.0124693467911484e-05 1.1773086462609252e-02
      6.6421493069982055e-03 2.5844822919518881e-02
      -1.0888368158288329e-02 -1.1206738671669048e-02
      -1.8848761759516372e-02 -2.5058928745379763e-03
      -1.2061785460450856e-02 -3.6741868454352296e-02
      -1.4634237474615881e-02 -2.1287288464656065e-02
      -8.1747093461117838e-03 -9.4618219809651655e-03
      -1.5365537378962844e-02 5.6532107942265392e-03
      1.7190739231706595e-02 -3.5527383056623905e-03
      3.6556963625713613e-03 -2.6590419507368712e-03
      3.9201842999409221e-03 1.7478100901463834e-02
      -9.8934644185412132e-03 -2.3458008200116086e-02
      -7.3082174177903575e-03 -8.8797807009681606e-03
      -1.1528354774835310e-02 1.9395540149972385e-02
      -2.9408658176311143e-02 -3.1448126695973078e-02
      -4.1743867952259428e-02 7.3267946873703423e-03
      2.1959507468766008e-02 9.8124641211152028e-03
      1.6289250677368546e-03 -2.9003567527855014e-02
      5.5926801699298784e-03 1.5959939720755288e-02
      -1.7261515006521300e-03 -3.0290089487145778e-02
      4.0050717855699804e-03 -3.5716788936405244e-02
      3.8005056239683491e-02 -9.2563653471386554e-03
      -4.2524890734862202e-02 -5.0725429998459637e-02
      6.3897044988368195e-04 2.5555632495455330e-03
      -2.8288255782836013e-02 5.6160720861123267e-02
      -1.1435760173709503e-03 -2.0873286196108853e-02
      -3.8148708083077217e-03 1.7380739524035169e-02
      8.2299421980601990e-03 -1.2790149919880063e-02
      1.5346290766107835e-02 1.3756401197131216e-03
      -1.5284888729939348e-02 -2.8055727252821499e-02
      1.3646450387114222e-02 -1.5984057768477118e-02
      -6.0381367582832343e-03 3.0333811919604894e-02
      5.6174661232156666e-03 -1.4982855666060160e-02
      -1.1727150660837030e-02 -1.8968103879407703e-02
      -3.2649912159713940e-02 9.3562998768073266e-04
      -4.5464230165248538e-02 4.1827594028658321e-02
      -7.2168211417175769e-03 -2.3995625321557454e-02
      -3.1134276915166667e-02 -1.5576537206121203e-02
      1.4919259065212005e-02 1.4972506992386902e-02
      -1.1918506016845539e-03 -4.2047661878103111e-03
      1.3780297136143567e-02 -9.4942301156860536e-04
      -2.7395012496405698e-02 -1.7229619661517103e-02
      1.0564934251035174e-03 1.6022536688545037e-02
      -3.1806776640979334e-02 1.7771126165470507e-02
      -3.9949920120885198e-02 -2.8553912585031614e-02
      3.0612875952192711e-02 2.2973668880663365e-03
      -3.0001981105117030e-02 -1.2660555577563033e-02
      -3.0247259082356454e-02 -2.4229623212137775e-02
      3.1828688219370183e-02 2.5311851788013741e-02
      -1.0014974721416787e-02 -2.6685111428127215e-02
      -5.0181873217729107e-03 4.0883517799939866e-02
      2.4335703652992570e-02 -3.7271403441216161e-03
      3.7316169592460320e-02 -4.1821834442440198e-02
      3.3654795332536500e-02 -1.0950854881379287e-02
      -2.0493730250170612e-02 -6.6592258020668080e-02
      -3.0152977276364019e-02 1.4696385248076069e-02
      -4.4031393865933813e-02 6.2299915995151812e-02
      -2.7796378651132386e-03 -1.1492809537814650e-02
      9.7204691774522584e-03 1.1094350724099139e-02
      -1.1658322658212983e-02 -2.3978831774845256e-02
      3.6350320282353937e-02 2.2817820591575236e-02
      -1.9792070358749490e-02 -2.1700232141791335e-02
      1.6530726113946004e-02 4.0873287382646811e-02
      -3.5614551975789777e-02 2.8554202847756550e-02
      -1.5048014781276634e-02 8.2506867919211659e-03
      -9.2964140242135489e-03 1.3642130465969815e-02
      -3.1278049333462107e-02 2.1644677866611069e-02
      -3.2723169352672742e-02 -1.0056481999202779e-02
      5.4342687348695445e-03 -1.1320925955494054e-02
      -3.0111481352801357e-02 1.3861920886734316e-02
      2.0226164748000049e-02 2.9386604966521269e-02
      -2.1979827065947426e-03 -7.8187210696163169e-03
      -7.1155949551711334e-03 2.4770140409647000e-02
      -2.1847565307824203e-02 3.0276618494006879e-03
      -5.6455014816243071e-03 1.7896371553422628e-02
      -6.9071561347635341e-02 -2.5779222043073070e-02
      -5.6269334632061456e-02 -5.7645929661174877e-02
      2.0933847101290485e-02 1.7609419561961787e-02
      -7.1666759183356844e-03 8.1414584478234908e-03
      -3.0324320374135114e-02 -1.9463108249212931e-02
      1.9642510687970256e-02 8.6097309951466763e-02
      -3.0991476430880450e-02 -2.3396116310826772e-02
      -3.9508581417344348e-02 2.2755865036665043e-02
      1.2640359175551735e-02 1.8295116054464638e-02
      4.6890692263196532e-02 -2.0629605991478877e-02
      3.7842616286477213e-02 6.9061317317354182e-03
      -1.5205107708468368e-02 -3.7759835763983680e-02
      1.7316812341317229e-02 1.0417114773824733e-02
      -4.0306237024243768e-02 1.7030457491872361e-02
      -1.7448995322064977e-02 -6.0375379747647792e-04
      -3.4930740759049530e-03 1.2846381008761378e-02
      1.1501047477189707e-02 -1.1120917948551204e-02
      1.9823309812413578e-02 4.8144856563143983e-02
      -1.1586231351206418e-04 -1.3605624408606269e-02
      1.6245593464501534e-02 3.0639487440124218e-02
      -8.2414644051313542e-03 7.0901760691360052e-03
      -1.3587536895532557e-02 -2.1974650357230896e-02
      -1.2437803623910386e-02 -2.9635772612878419e-02
      -3.8742819561073040e-02 -2.3090354506198889e-02
      4.7429451407623099e-03 -5.9248250620223465e-02
      4.0224983218394163e-02 -1.3320592683559318e-02
      -8.0335192440103467e-04 4.8666937987566598e-03
      7.2462211250618582e-03 -1.2754023861704272e-02
      -5.4781775488641757e-02 9.0110217265874123e-04
      1.2118175484084887e-02 1.0642816563296988e-02
      -1.2691884745106592e-02 4.1453702436004651e-02
      1.8114959219579566e-02 3.6124946724393758e-02
      -2.1280522621126532e-02 1.1410569684544684e-02
      -2.6346002297604421e-02 -2.6911636363053899e-02
      2.7216643172364125e-02 1.5794814270974928e-03
      4.5198449056870734e-03 -5.5636224361932504e-04
      -3.7547462418772735e-02 -1.3637042245442788e-02
      -1.2551844727565759e-02 2.6458566113899337e-02
      -1.1494222825340839e-02 -2.3415052452153376e-02
      1.2360975013162741e-02 2.9679045769902213e-02
      2.1594935949156781e-03 3.0097778813304228e-02
      3.4916379985902635e-02 1.5832715128442344e-02
      2.0072444715584538e-02 3.9297322094966967e-02
      6.9801177876386671e-03 1.4440552223457918e-02
      2.4028480077602091e-03 2.4799980865786393e-02
      -1.1232479471818116e-02 -2.0658304488880782e-02
      5.0253751878272343e-04 -1.9361775144260351e-02
      -2.1439086202290646e-02 8.7611655293033178e-03
      1.6612725870712226e-02 -6.0796795877238637e-03
      -4.7555578030379240e-03 5.5458573637300480e-02
      2.2015742364300216e-02 7.7906802109848109e-04
      -7.2399099457329157e-03 1.2654920240400339e-02
      7.2039990717945812e-02 -3.0385935569404061e-02
      -8.8017233061291281e-03 -9.3313462347922302e-02
      -1.2829741503434142e-02 -3.1366505549259203e-03
      -2.7951838876743192e-02 -4.3473504285938470e-02
      5.7939659951877567e-02 -5.2793693244649512e-02
      2.2646258371640363e-02 3.0039968879588988e-03
      2.1351535287947809e-02 2.3837614734211161e-02
      -4.1172552321021870e-02 -3.2702933609639016e-02
      -9.1301609078552726e-02 -1.1326019775144806e-02
      4.4738505101606020e-02 -3.5401170903779451e-04
      9.5861379902431442e-03 -1.0435796870791113e-03
      2.8431188496823030e-02 1.6046602389224750e-02
      5.7297124950250007e-03 1.8896754652650539e-02
      3.9671663218580164e-02 9.9966845238076227e-03
      2.6887969980784764e-02 4.6142844334215359e-02
      -2.4732845971545550e-03 1.0392513560603195e-02
      -2.3136702313178779e-03 2.3204841299963849e-02
      -2.7099900032022711e-02 -2.6100339547825820e-02
      1.7281061901972792e-02 -3.0940424996058789e-02
      2.5112451418439249e-02 -1.9168106881255757e-02
      3.5718970657190090e-02 3.7568025823341650e-02
      -3.6601775812173387e-03 4.3329920306068491e-02
      -2.6383444249267418e-02 2.2995704085802766e-02
      3.7664367781243886e-02 8.1114450746392314e-02
      1.4060854391559775e-02 -2.4133646930976565e-02
      3.4816860189624273e-02 -4.8507198620529407e-02
      -1.0063894687073808e-02 -1.7828633507750276e-02
      -2.2536583238973902e-02 2.2879099421238617e-02
      -2.1090461715318504e-02 -6.4887202742999802e-03
      -1.5878311940994466e-03 5.0943620916709675e-02
      2.1972773502603606e-02 -3.1334047096835960e-02
      -3.6017538845272819e-02 3.4384489888179791e-02
      9.7977534092366744e-02 -2.0132522663430390e-02
      -9.6195466563853867e-03 -6.9429277413238108e-02
      -3.5188337431313159e-03 -1.7703663081341012e-02
      -8.5617900471950323e-03 -6.8499941544426249e-02
      -4.3243536064214031e-03 -3.4119981495992109e-02
      2.8760715853641344e-02 8.0720954669078870e-03
      1.2726375844852374e-02 2.4807518663007372e-02
      -3.9201763949820376e-02 -5.6190824737877162e-02
      -2.7652601144636347e-02 -2.5950349550325994e-02
      8.9191808920229695e-02 7.1596107315576299e-03
      2.2780186550422490e-02 1.1397154885260601e-02
      -1.2526965310108074e-02 -2.1854136130684196e-02
      1.3087114784567689e-03 -3.2708058873507979e-02
      2.7648468323816584e-02 9.1892447807904315e-03
      6.5976888832908944e-03 2.1051989388232753e-04
      -9.2514725824279897e-03 1.7946995235596515e-02
      -1.0489135599807381e-02 1.3215547280742408e-02
      -7.1402573386014342e-02 -6.2630128894448744e-02
      5.1981932341323991e-02 7.4499945268024408e-03
      1.8569032040407218e-02 -8.5739405242092753e-02
      4.0892418691938368e-02 5.0203552329913782e-02
      -5.4856492002655875e-03 3.2868902878426316e-02
      -1.8615529843285711e-02 1.0133097523844991e-02
      1.8301530149139104e-02 7.0771504090322998e-02
      1.3556537425792124e-03 -2.8725280434542626e-02
      1.7370118034435861e-02 -5.1609770810063099e-02
      -2.9863856740642587e-02 1.9539906280482775e-03
      8.4214709314726424e-03 -7.8293370937115008e-03
      -2.6514902522469946e-02 -1.4342617962052502e-02
      8.1096038460885377e-03 2.8461455565858437e-02
      1.0830648177669962e-02 -5.0769515103853198e-02
      -3.8429580543911643e-02 3.5239676835696045e-02
      1.0480605560772149e-01 -1.7329016694429183e-02
      -5.7093338887976132e-03 -6.4348004243900178e-02
      2.4471348738348603e-04 5.5645424548111666e-03
      -7.2606421177515293e-03 -7.1243195767333692e-02
      1.4920490423503359e-02 -4.0297052741358065e-02
      4.4801227362178876e-02 -2.9406450730256935e-02
      8.0751361078974966e-03 1.7493300869818443e-02
      -3.6252093357323330e-02 -5.4412663397468752e-02
      -2.3881603367563908e-02 -2.4089740435187742e-02
      7.9981317115936576e-02 -5.8608043262180828e-03
      3.7431118390704378e-02 3.1022843255942994e-02
      -3.5911766245776855e-02 -5.8509882292354359e-03
      -3.8063577376125299e-02 -4.5812898483241229e-02
      2.6881557106806463e-02 6.1453103814717988e-03
      -1.5210231973046551e-02 -9.2973843129833828e-03
      -9.9302057363073876e-03 2.6908956652166999e-02
      -1.8130919056606961e-03 1.1981674733742188e-02
      -6.7542798075096153e-02 -4.9135992271353811e-02
      7.0604226507416948e-02 8.6792520653389150e-03
      3.3811915654318778e-02 -7.3299647288518385e-02
      2.1226688098527201e-02 5.0454587976468353e-02
      3.4178009695016574e-02 4.6071624500658307e-03
      1.0039609798976598e-02 1.3578257404310434e-02
      2.6280704254544124e-02 -5.0148551895286379e-03
      4.0248577513817094e-02 4.5338280994555646e-03
      -5.6964847313667279e-02 -1.1549621995991140e-02
      -7.9204809751968197e-03 -5.5516975346447811e-03
      1.4490756849270736e-02 1.5853863797879123e-02
      -6.9368240227468533e-03 -2.0678584850243386e-04
      4.0782610715463810e-02 1.4401234851881364e-03
      1.0000445580979764e-02 -3.3227965389067554e-02
      -2.9216947329211217e-02 1.7748201039396793e-02
      3.4862105162176152e-02 -4.4252408121426669e-03
      4.1092265254590770e-03 -3.8695985872630768e-02
      -1.2154149168509668e-02 -2.1016254873722520e-02
      -8.3476606753115790e-03 -3.3396392046100412e-02
      1.3275985320954134e-02 -4.8559048892668488e-02
      2.4227250264658832e-02 3.0302061758528256e-02
      -2.7342153317671549e-03 3.2886314084029197e-03
      -3.7146180309557774e-04 -4.1092487386970092e-02
      -4.6450398448166542e-02 -1.4027003380400922e-02
      3.3170201961488482e-02 -1.4098649682412969e-03
      1.7325887365544156e-02 4.2374503869459276e-02
      2.5245013363564953e-03 2.9142168245878404e-02
      -1.8193793000299736e-02 5.6349854933271121e-03
      -4.1114760314081835e-03 1.2203981522883132e-03
      -1.5605824605906546e-02 1.7134165951113663e-02
      5.6458554149711650e-03 1.4720345780945329e-02
      1.4816245254780553e-02 -1.6296723568438951e-02
      -4.7652807016154687e-02 2.6782111892162039e-04
      6.1097848556636733e-02 2.9759969235762525e-02
      4.7045907942770984e-02 -4.6025239110000005e-02
      -6.2906064060979710e-03 8.6872543252926107e-03
      2.6145649403788107e-02 -1.1108607591539842e-03
      2.2574256234518583e-02 9.5706147328319415e-04
      4.5723637100951474e-02 -1.8530267655085312e-02
      5.6031498944266872e-03 1.3570087295787465e-02
      -4.1924839959159854e-02 8.8550469925348339e-03
      7.5386412295724306e-02 3.6591241879628707e-02
      -1.4577562073147723e-03 1.5863202457455025e-02
      -6.5031922622239427e-03 -4.5978090481592748e-03
      2.2470220222896086e-02 3.0574815684382060e-02
      4.4524256716003102e-02 2.0551984072706103e-03
      2.0951652542788852e-03 4.3542721441744689e-02
      -3.6047167205344871e-02 -1.7063323632482884e-02
      2.4195680895536319e-02 9.9567399212343970e-03
      -1.9617292355117482e-02 -3.4551741881440674e-02
      -1.2662888260650655e-03 2.6961454174077377e-02
      -5.3643089112002723e-03 -5.1983697195313552e-02
      -3.2029584912420710e-03 8.5098458840727059e-02
      -3.4435368234765583e-02 3.4036038177854897e-06
      3.2002015528014002e-02 5.2692758259330778e-02
      -6.4857992331768033e-02 -1.2473211487099591e-02
      3.5919179908572307e-04 -9.9169367528917848e-03
      1.1347312511510698e-02 5.0044802310707272e-02
      1.6449777659901283e-03 1.7710748433508998e-02
      -4.1002301738997798e-03 9.7259180627283920e-03
      -4.8334097438465493e-02 -2.9642878040480717e-02
      4.1622639632051843e-03 1.4480617688195231e-02
      -1.1695745540301027e-02 1.0660902752939546e-02
      -2.2996882868418118e-02 1.3915670919637328e-02
      -3.6885185191866045e-02 2.9128577037692394e-02
      4.5570055264936633e-02 1.3866490905913912e-02
      3.2215268257382065e-02 -1.2173186374275093e-02
      -3.9864929223094717e-02 2.3535264189176733e-02
      -4.6497988095979569e-02 1.6823204355880906e-02
      1.9623034419410861e-02 -2.4366807633336721e-02
      -3.1476092570109256e-02 -1.4209764225815191e-02
      -5.0346946721596710e-02 4.9265125994540034e-02
      -6.3804602115782958e-03 3.4905804415445794e-02
      4.0347291908818306e-02 1.5359727615014508e-02
      -3.2546556879465505e-02 -1.6709193070107115e-02
      1.4599130416484789e-02 -2.6222087851882372e-02
      2.7590902646685855e-02 -6.8535838147298596e-04
      4.9087374538140847e-02 4.2573212507750958e-02
      3.3198717225622308e-02 2.6732929102771717e-02
      1.0685171202492768e-02 -4.4139763906685031e-02
      6.4167426351341879e-03 7.0570939250935577e-03
      -3.6492076306173619e-02 -2.4904129403119323e-02
      2.4724313021814129e-03 6.0548149101033406e-02
      3.7853037445726317e-03 3.6860552457813667e-02
      -3.4067569143352995e-02 5.8980378120594729e-02
      -3.7647054239537944e-02 -2.7306044841999572e-02
      -2.7471341586550037e-03 5.0380320786627082e-02
      -1.9501266556013190e-02 -1.8526071082432372e-02
      -3.6063507000715894e-02 -2.2063093076749290e-02
      -1.5826469035220295e-02 -5.6766668007175950e-03
      -4.2372139490529448e-03 -2.3031609659899206e-02
      7.4560617554830372e-03 3.4721197582335890e-02
      -1.0686551224759351e-02 -3.6943260692500514e-02
      2.0596763121466792e-02 2.2964897339912575e-02
      -5.4432058356629877e-02 2.6257275027288481e-02
      -6.6869446008716842e-03 -1.4447935037343526e-02
      1.5830734182129370e-02 -3.9739974429099434e-04
      -6.5812133587853389e-03 9.2465039340265173e-03
      2.4045314892758827e-02 1.8869647428287364e-02
      -1.5989045232693701e-02 6.9063482320607744e-02
      -7.6959575678606937e-02 4.1933589964075618e-03
      8.0176719244839014e-03 -2.2371062340090005e-02
      -5.5562123435169218e-02 -2.8833506820009940e-02
      -3.1250145889533620e-02 4.8377090464516333e-02
      3.1191965717329021e-02 6.3807256495847134e-02
      -2.2311548871173020e-02 6.8285066650606964e-03
      -3.9356986885250717e-02 8.2034230634171548e-03
      1.7610532543938311e-03 -2.6952248374751585e-02
      -2.2388667352584921e-03 -1.0131065618864156e-02
      2.9119486474447044e-02 4.9721567288946479e-02
      2.5384992558030277e-02 -1.9659570817616368e-02
      6.4544234966865495e-03 -6.3524162064707929e-02
      2.1573363676430569e-02 5.8479182323411582e-03
      -5.8674502201142002e-02 -3.2596348258295355e-02
      1.0302212811959300e-02 3.4918258284838626e-02
      1.6479077994753431e-02 4.2189463371452421e-02
      -3.4318481218623643e-03 5.4019148950782706e-02
      3.6919229670784384e-03 -1.1038321819580031e-02
      1.4977083105818450e-02 1.4066135368121310e-02
      -8.9399113907405198e-03 -4.2640677707724058e-03
      -2.7780901192910240e-02 -1.4483815030413644e-02
      -2.0895924644285527e-02 -4.4240506526794413e-02
      3.4570030422482311e-03 -4.6864000345929496e-02
      8.8832864778845642e-03 1.9626326297251279e-02
      -2.2248930284575894e-02 -1.7534990874198991e-02
      1.4364517498700579e-02 -3.0244113980894077e-02
      -1.5975924695578049e-02 9.4092147280439350e-03
      4.2476290474648723e-02 -1.2533566377228538e-02
      1.4674533983185734e-02 -2.5288072075887329e-02
      -4.1276662435032148e-02 7.1194148082204508e-03
      1.7589513253831512e-02 6.2084550148684844e-02
      -2.0262073397721070e-02 4.3575829585602209e-02
      -6.1252154323806506e-02 1.7382807447025460e-03
      -3.7128720916033567e-03 -2.5442482266168163e-03
      -1.2361716155638396e-02 -5.3714674498118054e-03
      -1.0369948823946632e-02 2.3076822775707745e-02
      3.1932213895214077e-02 1.6217332475342801e-02
      -1.8696765837221945e-02 9.4021670237896017e-03
      -2.1761958577603800e-02 -2.3840044266286619e-02
      5.1156771215329780e-03 -5.3090439423211927e-03
      -8.0554652643041336e-03 -8.0040526660626402e-03
      1.8434332287866607e-02 3.1700671289555664e-02
      7.9189819748641931e-03 -7.0048402762448655e-03
      1.5228045641514760e-03 -1.6941850198764315e-02
      5.6477805275985653e-03 4.4478730278860852e-02
      -2.4108797055188782e-02 -3.0363220479059337e-02
      8.8268503708352937e-03 2.1365437427871944e-02
      1.2566007178722301e-02 2.3497809748480328e-02
      7.8914145879969092e-03 2.9744618126839237e-02
      -3.8842193908892736e-03 -7.5195641894374955e-03
      6.0110748178761938e-03 1.4733234732838340e-02
      -1.5821157049337689e-02 -9.9830075627203602e-03
      -1.9626751156026089e-02 -3.2353784206320214e-02
      -1.5981077271064174e-02 -4.0647679209165018e-02
      -2.0280219097187509e-03 -2.3930884140455563e-02
      -4.7625784014264996e-03 1.6841079961825843e-02
      2.5430396670164225e-03 -4.2975704770788093e-03
      9.3522250819972601e-03 -3.7084068756376286e-02
      -1.1430052272491270e-03 1.1891971216260008e-02
      1.9899358475838035e-02 -1.6931553196668062e-02
      8.9462165189245976e-03 -4.8396612209456923e-02
      -1.7469089857657095e-02 6.5530247183686122e-04
      4.1539240030869957e-03 6.1322256781460645e-02
      -4.6950075282072068e-02 -9.9750874914958073e-04
      -6.1659478245987727e-02 6.4112910165999787e-03
      6.4103105232732500e-03 1.6562137959577231e-02
      -5.8858254479032916e-03 1.5955390283994380e-02
      -1.5650360263981842e-02 -2.0751292435947240e-03
      2.4969919834148646e-02 1.0792912016524575e-02
      9.5656140567589674e-03 8.3431579373772265e-03
      -9.4038747942546182e-03 -1.9336930176748771e-02
      3.1655261826601254e-03 -1.7351110934731812e-02
      -7.6055815104401165e-03 7.1576132723429522e-03
      2.4212561116599200e-02 3.0813595982066372e-02
      9.8812811275750048e-03 -3.0972405201028464e-03
      -7.5856106437391805e-03 -2.4880564256751413e-02
      -1.8698545993856990e-02 2.3215514264158434e-02
      -2.7653055385793837e-02 -2.3695338739758369e-02
      -1.0208712912663542e-02 1.4677445844141679e-02
      -4.1341315943295870e-04 1.5040603653084196e-02
      -1.0701349466674798e-02 2.4577548301987278e-03
      -2.6482138066930852e-02 -8.2285875496447367e-03
      4.2103685887945061e-03 1.7145278441399261e-02
      -1.7904367218567620e-02 -2.6492656307671447e-02
      -4.9429591206675682e-03 -1.5530770937871927e-02
      -2.1377398211396330e-02 -3.1802811883636435e-02
      1.0483857792145760e-02 -1.6199705942399296e-02
      7.1600077190130075e-03 6.5410816673977289e-03
      2.7532234052546123e-02 1.5913795707460026e-02
      1.0284905782198005e-02 -1.8601800610318700e-02
      -7.2185079628648945e-03 2.2316639468848293e-02
      4.2120431309381010e-03 -1.0044519104293255e-02
      1.7657724638794108e-02 -5.1806295892680286e-02
      -2.9626023223818807e-03 -2.5836840557305039e-02
      8.0061857606301568e-03 4.3030676147134447e-02
      -1.2318508781970338e-02 2.3375109226400199e-02
      -7.0385780206914064e-02 -2.2921381060716510e-03
      -1.6109251463798342e-02 3.6213777827184365e-02
      1.7329877557121849e-02 6.4962622866115540e-03
      1.9030861070788274e-02 -2.4371065221874193e-03
      -1.5015712830035692e-02 9.9353081143697206e-03
      1.1394838562290210e-02 -8.9852007289155256e-03
      -1.6012020498112012e-02 2.2922458383815725e-02
      -1.0244764469600778e-04 5.1359177567458971e-03
      3.3331458996480740e-02 -3.6207341581719781e-03
      1.9614830017041535e-02 1.7447072567425077e-02
      -2.0937672936896981e-02 9.8954976097582973e-03
      -2.3506012500798087e-02 -7.4647077378057715e-03
      -1.2452620542494616e-02 2.0739920178338016e-02
      -5.7799988824052389e-03 -1.2601309560913739e-02
      -1.9328804665820695e-02 3.8263146851886594e-02
      1.6048379135161266e-02 1.4042253621958642e-02
      -1.1011156529488633e-02 1.1486791786247504e-02
      -5.1900723100683166e-02 2.2937657864497196e-02
      8.0727798502406023e-03 4.6296184473746923e-03
      -2.8937491476080390e-02 -2.8910814947039960e-02
      -3.6200780162388160e-02 4.9320578905694985e-03
      -2.5423050558796088e-02 -2.1251411932831085e-02
      1.2578536286299339e-03 2.1106989471339813e-03
      2.0674927228415546e-02 -2.0094441803297055e-02
      1.6414237722467594e-02 2.0807908203517824e-02
      1.8373287487470458e-02 -6.1168938233834829e-03
      -3.0070465622286245e-03 3.2066861461877393e-02
      -3.3268711924996979e-03 -3.9170107595251816e-02
      3.5924986650803787e-03 -2.2624579393630447e-02
      -8.2534779564933363e-03 -4.4756050111422517e-03
      8.1169422095095853e-03 2.5678501110151720e-02
      1.3518611839598805e-02 4.2731323646291217e-02
      -5.5872892581508585e-02 -1.2957508669747691e-02
      -3.7535198005133316e-02 1.8799103219628140e-02
      2.4042794695613441e-02 -4.5970639577609197e-02
      4.9434702552952403e-02 -1.4564067132697471e-02
      -2.1605728501121128e-02 1.1709638002946469e-02
      -5.2612701011349626e-03 -3.0892950901468895e-02
      1.5095319867878595e-03 2.8218905150345700e-02
      -2.7213147849494575e-02 1.0556240180151894e-04
      4.2168106380517774e-02 -3.7494974883724871e-02
      4.6101290883261365e-03 1.7984933061863908e-02
      -4.3192149808158470e-02 -9.2797965612939088e-03
      -1.3250501699548710e-02 1.7035094985751228e-02
      7.9442736217524531e-04 3.7780154513639391e-02
      1.4365102080369700e-02 1.4903317723920300e-02
      -2.6146199919499246e-02 3.2538914485944245e-02
      3.2313098586462197e-02 -9.8349271943408659e-05
      -3.9338901545299771e-03 1.2162006535002670e-02
      -5.8216256980366803e-02 2.2497896696672119e-02
      4.2037269949486847e-03 -2.2287905806644290e-02
      9.0395232573878053e-04 -6.4106575860394657e-02
      -2.7561879706117294e-02 1.2551998144129800e-02
      -1.5947786952711554e-02 -1.3110474725664753e-02
      9.7390307362974961e-03 3.0622551822261170e-02
      2.5459570535096579e-02 -2.5466184053512086e-02
      1.3238601633179850e-02 -2.7860228766127754e-03
      2.3520683777843145e-02 1.7067452956267961e-02
      -1.6199885320654119e-02 4.7721114923526479e-02
      -1.2704937580945361e-02 -5.6838410015785747e-02
      -1.3215602269470368e-02 1.9919945879294681e-03
      8.8101283809104407e-03 8.0653889759171159e-03
      -1.0427959740233909e-02 6.7253214346724528e-03
      1.1625890308697510e-02 1.2550075065347395e-02
      -1.2403523642445768e-02 2.1884874887859170e-02
      -1.7940730195217892e-02 -4.8875521829183859e-02
      -5.1068958325148333e-03 -1.0066492896834894e-02
      2.6537016693809912e-02 -5.8421562285472439e-03
      1.9045118949382250e-02 1.1918361956210695e-02
      -1.8116404131812838e-02 -9.4755458300560657e-03
      6.5216573605450349e-03 -2.0152828481235001e-02
      -1.4978148002559843e-02 -1.4665435134330082e-01
      3.1765139977299691e-03 -3.2933833523957144e-02
      -3.7598811020355715e-03 1.6178981475306407e-02
      -3.5139390588020823e-03 -1.6152401659898143e-02
      -1.2341902079769032e-02 2.0468685208591690e-03
      -6.9990732484067853e-03 1.5578282043902296e-02
      5.3602353221441053e-03 -1.5618673372855413e-03
      -9.6727262183498738e-02 -7.2911744218975198e-04
      1.7696975416967048e-02 6.5494483548172331e-03
      -8.9270695906056383e-03 -1.8316686265164913e-02
      5.6194712296193973e-03 -7.2361064249571701e-03
      -3.0976796333394976e-02 -6.0737713629364974e-04
      1.8120716603206910e-02 -1.7942555444713179e-01
      -3.8467478140467434e-03 -1.1184032479308055e-02
      -3.9577183206050389e-03 1.5860148710585241e-02
      -3.8012301596705309e-02 2.0842689800780977e-02
      1.5678016412605515e-02 -1.2600630737397004e-02
      2.6831675067592042e-02 -1.0557336690716983e-01
      1.5962080929095509e-02 -9.5779600124526205e-03
      -6.6732363852228790e-02 1.3528188358287987e-01
      -4.1153864608819729e-02 -1.9688538212459743e-02
      -2.9744048785899476e-02 -9.4802895254843204e-03
      1.7006115242354292e-02 -1.8841840366162585e-02
      1.2842695316994742e-02 4.8252176771742695e-03
      3.0092683413798255e-02 4.1352452611736298e-02
      -2.0816064216773742e-03 -4.1875843732567787e-02
      -3.8494545750062698e-02 1.6756875138525501e-02
      1.2409467570846639e-02 -4.1855242739127697e-02
      6.7020406623264098e-02 -2.0802898355024451e-02
      -5.1761695325070571e-02 3.8356674602648383e-02
      -3.3288956600831883e-03 -4.1986694310743318e-02
      2.2550706702958490e-02 5.2482224413063126e-02
      -4.2970558943066554e-02 -7.1404382876920539e-02
      3.9177317574157121e-02 -2.4777439228498045e-02
      -2.7885669633684156e-02 -1.9774976228344482e-02
      -3.7110077823802469e-02 9.6834848818148911e-03
      -3.6061728624571632e-02 -4.9153166592219742e-03
      -4.4842287021984407e-03 -4.0652146957611372e-03
      -1.0836233628811850e-02 2.7718498434345797e-02
      -2.9054790683389110e-02 8.0689889905172126e-03
      2.6968452998642308e-02 -2.3677001112086461e-02
      4.8402933897581848e-03 -2.9687490365998704e-03
      -2.6907479532432062e-02 6.4382220620280567e-02
      2.8235622818667570e-02 -1.3704324015227413e-02
      1.4905192623914569e-05 -1.0444702397139922e-01
      -2.7472446603191484e-02 5.3556422806877786e-02
      3.1177732318371436e-03 -5.8407464886967636e-03
      4.2733046588939762e-02 3.9682473775755019e-02
      -1.5832331731120863e-02 -5.3966764627780016e-02
      -3.6659583012036779e-03 -3.8959820786386580e-02
      6.8618950962437714e-03 2.7763660022697159e-02
      -7.5148461640825006e-03 1.1946109362884232e-01
      -3.9050152724451490e-02 -5.9109210242741045e-02
      6.7088213603511667e-03 4.0256550652498169e-02
      1.4362817839274435e-02 -1.6435660799925821e-02
      4.7959621150422919e-05 -9.5419662568928029e-03
      3.1146234495598852e-02 2.4986767811335589e-02
      -8.2453327245321541e-03 -3.6793381403237039e-03
      4.8252969390204922e-03 1.0996055792768708e-02
      1.1657705044729172e-03 -1.9093010073351905e-02
      2.3233414721960520e-02 -7.8369251394556361e-03
      -2.6423261443440302e-02 3.1019643662582017e-02
      1.5446189780955702e-03 2.4526994467807255e-02
      -3.6708153362403945e-03 1.2345275209532878e-02
      3.1559775024552175e-03 3.5876619176549180e-03
      -1.4799973777456893e-02 -2.6541455295877012e-02
      -4.3032467736222241e-02 1.6245833498299861e-02
      -1.4102948859162570e-02 3.4546659904713512e-03
      -1.9043266976226308e-02 -1.8337074754751818e-03
      7.3809096156029694e-03 1.6065947001236588e-02
      -2.0311197018103896e-02 -1.8778671766328546e-02
      6.9840988821196015e-03 -1.3693897806428247e-02
      -1.5018525416886140e-03 3.8584512823509115e-03
      -3.0302246408022778e-03 -6.3778041235076736e-04
      -3.5352130826282385e-02 8.8612446153043551e-03
      -7.3250801891975685e-03 -3.8503624135179416e-02
      -3.3301603663386933e-03 -1.4085123596367414e-02
      9.7129284924291036e-03 3.7411517403150109e-02
      7.0283119310814331e-03 4.2329656156624311e-02
      2.4688482022826697e-02 2.5301388089150990e-02
      1.1408954017883084e-03 -9.1755352489408509e-03
      -8.1318854415886809e-04 -3.8241522424281335e-03
      -2.7088158915472654e-02 -6.0563435922577988e-03
      -8.3738618458806570e-03 1.9538651235768624e-02
      -4.1800264580533292e-02 -1.1303417200199457e-02
      3.2093106108888346e-02 1.5028673562288163e-02
      -4.9051185258443069e-04 -6.2009160518716319e-03
      3.5000985862671939e-02 9.0380796809714657e-04
      1.4661730470061841e-02 8.0898041549082034e-03
      -1.4559540928493916e-02 1.4678822997695396e-02
      2.2315499205325350e-02 5.7392855979310218e-03
      1.0884947790679011e-02 -1.5684797610077125e-02
      1.0900248577027460e-02 7.3489397035783202e-03
      -7.2844409226070824e-03 1.5168734372058923e-02
      2.0667696643963871e-02 2.7696342679874699e-03
      -1.5601477085154148e-02 -1.7197150524815084e-03
      -1.3564990801989734e-02 7.4254883283735567e-03
      -2.0127545259261574e-02 -1.2939995546858213e-02
      -4.8027041842431020e-02 5.0690566960849358e-02
      -1.7294964042265111e-02 1.2343257795690985e-02
      -1.1825312987873371e-02 -1.0009163577801298e-02
      1.3945238511874803e-02 1.7840399533051467e-02
      -2.9187856540131334e-02 -3.5885185520484829e-02
      3.2812434483153164e-03 6.0076177412778818e-03
      1.3758468718891382e-02 -2.8069457998183014e-03
      -1.1301426395726812e-02 1.8540163505712465e-03
      -3.1154867593393816e-02 1.0493670070946549e-02
      -3.3818828323031042e-03 -4.9180856540119840e-02
      -1.5151361140844748e-02 1.4280936266264310e-02
      8.4083866502438678e-03 1.6339062775361398e-02
      1.5106402053105185e-05 3.7662472258968877e-02
      1.9116894539537060e-02 1.9634083214050031e-02
      1.9698533739685439e-02 4.2598985257254196e-03
      4.8371986023140780e-03 4.8739823634646844e-03
      -1.9067308081737708e-02 -1.2798992986148536e-02
      7.6490673207369629e-03 -1.8643045101935920e-03
      -1.6478258013118342e-02 -4.1492743527733956e-04
      4.0928463463588000e-02 2.1510385050376203e-02
      9.9284470540672608e-05 -1.2654289469647177e-03
      2.8585188290705582e-02 1.1976173773858298e-02
      1.1129959789843902e-02 -9.4388377432701228e-03
      -1.8719562687138119e-02 1.0737111700131165e-02
      1.3176420453662515e-02 1.0423221662316739e-03
      3.8821714448597218e-03 -2.0185997936043820e-02
      -2.3248383680508689e-03 8.5870210448347698e-03
      -9.9143406441145523e-03 2.6071599745588373e-02
      2.7957191581298706e-02 3.5513130757966137e-03
      -7.5382781529215685e-03 1.1067811616554204e-03
      -3.3115673321885086e-02 8.2625535631817328e-03
      -9.8066913358872479e-03 7.4351229955624213e-03
      -4.4593415610869797e-02 3.2386562682212440e-02
      -1.1705527756965504e-02 1.7434011048594936e-02
      -3.8733001632091963e-04 -7.0508885385078112e-03
      1.5025760027885960e-02 1.7107282623853932e-02
      -8.5448922489332231e-03 -1.6008377676081906e-02
      -3.4877082019155099e-03 1.7258403995369438e-02
      1.2404080743125165e-02 -1.3088935679140806e-02
      -9.9815214415767822e-03 -2.5987494779473401e-03
      -3.3460122234593645e-02 1.1396075851975520e-02
      6.8593168197103403e-03 -3.9687227925486332e-02
      -3.4239925004020144e-03 2.4015140364877549e-02
      1.2726880209693913e-02 2.1482566686583725e-02
      4.0729001428517451e-03 3.3333658331125351e-02
      9.2456628913507033e-03 1.8953351501886463e-02
      -7.4264588764605503e-03 -7.5321536086430906e-03
      -1.4655303075994689e-03 1.1938114499116476e-03
      1.2528411742431856e-03 -1.0001209242861256e-02
      1.1621430898819245e-02 -1.1193471548415188e-02
      -2.1102968359193987e-02 4.7906699060717203e-03
      4.0105369220376275e-02 3.2676224296439342e-02
      1.3655440780027240e-02 -1.3217784128453884e-02
      3.2922274850545733e-03 8.3835799165497323e-03
      3.3986449736084959e-02 -1.6703040117898565e-02
      1.4120140078076691e-02 -3.5227650560519324e-03
      1.9803528964426033e-02 7.7682830433969691e-03
      -2.5102242515092972e-02 -2.1845608663837064e-02
      -1.2852954230330050e-02 -5.6662039020583628e-03
      -1.9525763614304820e-02 2.4768777072565591e-02
      1.3329422329965675e-02 1.9589381060243119e-02
      -1.5375059589518189e-02 -1.3077320067786528e-03
      -3.2628198570091339e-02 6.5188000270495362e-03
      -1.3285978959918358e-03 2.0837941507583519e-02
      -4.6118456579684289e-02 4.9718986397917323e-06
      -6.0900610037175713e-03 5.7651048035714560e-03
      -1.8915966929036895e-02 5.9779822283259924e-04
      -2.8108543648713092e-03 1.4438356612143691e-02
      8.4831039163313533e-03 -1.5783793957455713e-02
      -7.5997207860268408e-03 1.1716158684167430e-02
      -4.2933452476883356e-02 -4.4802364813907669e-03
      -9.3654252713566317e-03 6.0132572094365470e-04
      -1.7788170691163317e-02 -2.2050750484826017e-02
      1.3652106434841186e-02 -4.5371564249119305e-02
      -1.7299224213497118e-02 1.6626253641334150e-02
      4.7514252605906325e-03 2.6329179487082806e-02
      4.8197774073523575e-03 2.4154156762299223e-02
      2.5816111888064104e-02 9.4105767115451634e-03
      -3.3091296821729593e-02 -8.3767408441316835e-03
      1.3573530241559269e-02 -1.4621682061855008e-02
      -9.9310642798239725e-04 2.4216694642146246e-03
      1.6323317250155057e-02 -1.7627065659906703e-02
      -3.5014558137818771e-02 1.7039979223776030e-03
      4.1596675754764265e-02 3.8785583259118288e-02
      1.3290100345984771e-02 -7.8132156892819753e-03
      -4.1974033989493099e-03 1.0652030742893850e-02
      3.7719359039342301e-02 -7.2578046128619298e-05
      1.3032238114485529e-02 -2.5326956120847115e-02
      2.9071713658086338e-02 -2.4825240255775031e-03
      -3.0925416438452109e-02 -1.6142083956692456e-02
      -7.9132910712192781e-03 3.7047244970886402e-03
      -5.6296887755657402e-02 6.5860547113256437e-02
      2.2256741382053111e-02 -1.8648917430562736e-02
      -2.7324607150621918e-02 1.7148330579507924e-02
      3.7805561783781812e-03 -1.4388637281549000e-02
      7.0414292920892340e-03 9.4075743480150618e-04
      -3.9300021212631785e-02 2.6595224222602095e-03
      2.8207072499370423e-02 1.6549156458819082e-02
      -1.7392462729549373e-02 1.8615947596761752e-02
      4.9734289871771050e-03 -1.4353745221448692e-02
      -1.7657938055965629e-02 -3.3167452423721315e-02
      -3.4052487833535316e-02 4.5334615853250375e-03
      -5.3565420730950095e-02 6.0675858754605058e-02
      1.5129291896132289e-02 3.3662621447867823e-02
      -4.6925558048307326e-03 1.5349181065971306e-02
      3.7100453822039733e-02 2.2430457099017309e-02
      -2.3825730933627179e-02 -1.1144924061757775e-02
      -5.9424704304029692e-04 1.6664876004920764e-02
      -3.9804031886864072e-03 -9.1204704138238227e-03
      3.2227032914924687e-02 2.6358969232423396e-02
      -4.6635895087644944e-02 1.7172780272268286e-02
      -4.6982778393819223e-02 -5.8846654059121553e-02
      -5.8402484398907949e-03 5.7352260289723978e-03
      -4.0019081476898657e-03 -5.1470753596176803e-03
      -1.8081290689841503e-02 -2.4502328325544841e-02
      6.2936363472169507e-02 7.2799212831541088e-02
      -1.2243743061848526e-02 -2.5527105148957601e-02
      -1.0970122840126028e-02 3.2835689658986922e-02
      3.3624602454258745e-02 9.5436101693767462e-03
      2.3192387383227216e-02 -3.0260094021020232e-02
      3.3129426100549544e-02 -2.3599168015670531e-02
      -7.1797988218102798e-03 -4.7884953907127742e-02
      -2.7562782750385279e-02 2.8121468792123811e-02
      -5.7398594908366414e-02 5.2957447516239563e-02
      -3.5349805361997474e-03 -9.4624366616148665e-03
      -3.5723970175925941e-02 1.3182823008704587e-02
      1.2514511896712004e-03 -3.0648768131384722e-02
      3.1832300639954285e-02 -5.2177915140647147e-03
      -3.4060571896267031e-02 7.0868837586647061e-03
      3.0861304032889714e-02 1.9459687024292308e-02
      -1.3372893453768622e-02 2.6248197475154784e-02
      1.4520729031163056e-02 -3.4696011718648345e-03
      -4.5680470301838895e-02 -4.5424065256185191e-02
      -5.5271286869845199e-02 1.3267828936694630e-02
      -5.2987599345664965e-02 3.6385956309454869e-02
      1.6223358824413919e-02 2.0366022131508663e-02
      4.0758692011824112e-03 4.2353266662806401e-02
      4.2520993676928236e-02 2.0984462045622387e-02
      -1.2216096915786333e-02 -2.1638066466777971e-02
      8.0681551888908236e-03 1.7940754503531300e-02
      -1.4752626291883281e-02 -1.1021453752072398e-02
      2.2637236170199315e-02 2.7211008225082722e-02
      -2.4818293156178090e-02 -1.3186050824398348e-02
      -3.5433874345756809e-02 -7.0400177046305565e-02
      -5.1628472591654497e-04 -1.1390477590156083e-02
      1.1120121090837647e-02 7.8807959694041259e-03
      -2.7756575375569869e-02 -3.5002067462417581e-02
      4.5202495251555688e-02 6.3740207397357432e-02
      -2.4098314986879144e-02 -2.1858356184837030e-02
      5.9759609017264173e-03 4.8401985226032687e-02
      3.5856018261724000e-02 4.8267637562028995e-02
      1.8421540192104555e-02 -5.0659407915103691e-02
      5.4573830062807235e-02 3.7945470624177026e-03
      -1.2188614149693053e-02 -2.9499113672032486e-02
      1.1943551744327579e-02 4.9049968913902064e-02
      -2.9423841558339273e-02 -1.5456678603113181e-02
      -3.1442100693616103e-02 6.7435404637410093e-03
      -3.0762351817388466e-02 -8.4611294057132817e-04
      4.5510382968365806e-02 -1.9499193312661398e-02
      1.3751127712280707e-02 2.2853079626082777e-03
      -4.4280976379101914e-03 2.7412096883096499e-02
      -2.8460893114609486e-02 1.0280351672061388e-02
      1.2353843877700664e-02 -4.8142465860034220e-02
      9.9873665402955315e-03 -3.9460506063214863e-02
      -6.7604499022153763e-02 -5.2853165688944444e-02
      -3.9839921209455252e-02 2.3794329620807127e-03
      1.6954939374140325e-02 -2.7369368638657111e-02
      -3.5014767198780156e-03 -2.0599977876663778e-02
      3.4244499755581213e-02 3.8184906218251269e-02
      -3.1353762734033473e-02 -2.1773416600956684e-02
      -3.8740621718176715e-02 -2.0012075684429420e-02
      2.5387697882350995e-02 -1.7150587941057855e-02
      -4.0639939204068262e-02 2.0953598070320312e-02
      3.4522540084159825e-04 4.5782450275500840e-02
      1.4498020940457334e-02 -2.5109531794403679e-02
      1.5215241798994772e-02 -1.1460206499370587e-02
      3.8429723558699003e-02 1.1849083996094169e-02
      -3.1787236761675439e-03 1.0774633360520029e-02
      -1.8618802749839108e-02 7.0737483573960437e-03
      -2.2449978119400815e-02 -5.6642620304732470e-03
      -2.4621083967463972e-02 -3.1699433452300606e-02
      4.9516094724397913e-02 3.4281745039354376e-02
      8.0518854983152990e-02 4.3972595959351775e-02
      4.3358101076874898e-03 9.1091154962459446e-03
      2.1914750267157609e-02 9.8155716541962288e-03
      -5.4759901590088252e-03 3.6525152403723671e-02
      3.0902528078977372e-02 2.9828567134341150e-02
      -1.5114328428478496e-02 -3.8094606116323211e-02
      -1.7950426735715678e-02 3.1474641949936167e-03
      -5.4807383735935369e-02 1.8995123074283835e-02
      3.9768222230575911e-02 -1.6755355172013764e-02
      1.5560936205972107e-02 1.7022298116495607e-02
      2.8734450222938183e-02 -1.0349329762235250e-02
      -2.7570126633185980e-02 1.4916809451007448e-02
      8.0222573098975375e-02 -2.3141124523305912e-02
      -1.2414722261231730e-02 -8.8485612757836993e-02
      -3.6498915925168712e-02 -5.5176757153466739e-02
      -2.0185130585221880e-02 -5.0338029583671243e-02
      7.5736188953151691e-03 -2.5502024182611001e-02
      2.7670539407773968e-02 3.8758048249000233e-03
      4.8075345512118242e-02 5.5432103162077556e-02
      -2.9319634516144093e-02 -2.9513369657759494e-02
      -4.9634340459787832e-02 -2.7838833199029925e-02
      3.7254861596557151e-02 -3.6374563988055157e-02
      8.4219030160648713e-03 -1.8792072067708564e-02
      1.9489875885279149e-02 4.3328697641255152e-02
      -1.3308985086757247e-03 -1.2924603907422694e-02
      3.3422840271251898e-02 6.5653949896783319e-03
      1.6368648182263128e-02 -5.8494764012258288e-03
      -2.6598514955275517e-03 6.1152594201785270e-03
      -3.8017724271679508e-02 3.5128172301726155e-03
      -4.5334332163313867e-02 -6.8935100709922120e-02
      1.6081836134916924e-02 -2.7521690477219578e-02
      6.5187922989760172e-02 -2.0029816981072299e-02
      7.6921348815273599e-02 1.7143749493509768e-02
      -1.2751672145719402e-02 4.2709936841614005e-02
      -9.3408251553685952e-03 1.7841571570778928e-02
      6.2103996851065706e-03 4.9582853083205022e-02
      2.0486393797491769e-02 -3.1164502881782146e-03
      9.0845108327293530e-03 -1.2661194154542307e-02
      -3.4517354303948877e-03 -6.4666421597138393e-03
      -5.7582522490359736e-02 5.4614893580272765e-02
      8.7095519209061010e-04 -3.8066892837327303e-03
      2.9031181948597677e-03 3.4974706825531270e-02
      2.0846842044118328e-02 -3.1065148093960961e-02
      -1.7585248248108615e-02 5.6886332376306907e-02
      1.1960767099024351e-01 9.1750659832410160e-03
      -1.7909900823309656e-02 -9.0802294898766719e-02
      -1.5238301272168566e-02 -1.5696694759007819e-02
      1.0542364383525005e-02 -5.4183152946054761e-02
      -9.8896511646798298e-03 -6.5406807399539819e-03
      3.9487378303658248e-02 2.4041550976478001e-02
      1.1649161553583271e-02 5.6288335919398379e-02
      1.3858408473865680e-03 -4.9977700648196219e-02
      -3.3789161427187783e-02 -5.3894278823098636e-03
      3.5924225417802311e-02 -9.7203098377482006e-03
      6.1739834965180311e-02 -2.7136581101809703e-02
      3.1033157478322426e-02 -1.2616586338916307e-02
      -2.1529049098983774e-02 -4.2498061012047506e-02
      5.7944733152854130e-02 1.2041740501480592e-02
      -1.8793165440417099e-02 -6.7616463683474737e-03
      1.3511393175626926e-02 7.5032573100239789e-03
      -2.2959318493527656e-02 1.4356655294112014e-02
      -3.2251070930610047e-02 -4.7933440248191878e-02
      4.0563975114454608e-02 -2.1635346519209970e-02
      3.3792683327505034e-02 -7.7268357530145410e-02
      4.5948686487900951e-02 1.0379715648905214e-02
      1.6092815752600544e-02 1.1396083306533014e-02
      -8.8909282772862421e-04 3.7533508348594376e-02
      1.1760283877226886e-04 3.2324509639971882e-02
      1.8207070444374971e-03 1.4970435788705940e-03
      -1.5821523506721589e-02 -1.7513752944986513e-02
      -1.0416927708886655e-02 6.2337340236938051e-03
      -3.2012594770447982e-02 2.1118437916498353e-02
      8.9564263968576700e-03 -1.1662246695096076e-02
      2.2186618318921672e-02 2.4932777893880053e-02
      3.9126687899535294e-02 -4.7407735191438864e-02
      1.0590470654375253e-02 4.5249922854755098e-02
      8.6749129540621223e-02 -7.3056066793722773e-03
      -1.2616930278203027e-02 -4.9127435901669278e-02
      -2.1582975278511277e-02 -2.6660617454771305e-02
      7.0617534593409330e-03 -4.8114935746240123e-02
      6.0075922276900040e-03 -3.1022499718431261e-02
      3.9911314883281535e-02 3.8859617672148357e-02
      7.8839468921564973e-03 2.3527709144230139e-02
      1.5808967828742367e-02 -5.6561354325913672e-02
      -4.7225238759469317e-02 -1.8444041815341233e-02
      2.7249726558664217e-02 2.5719254301357918e-02
      6.8118226558860628e-02 1.0055696258665328e-02
      4.4753352150222483e-02 -9.9056399517912473e-04
      -3.5128255085659733e-02 -2.1362020058665217e-02
      3.1941321330932970e-02 2.6716943675148506e-03
      -1.8949806423162813e-02 -7.4633603313712903e-03
      1.2334006136803070e-02 1.0973166052371730e-02
      -1.0610925853093832e-02 3.2798847770776150e-02
      -2.3656490514430559e-02 -2.5193938335648820e-02
      4.4515204554832148e-02 -8.4918421894668913e-03
      5.7956978728325406e-02 -9.4135607005247382e-02
      1.1604979301624425e-02 -5.9719925089307055e-03
      4.6808795348438244e-02 -1.9003202358703713e-02
      3.3635639009130476e-02 4.0022734413252402e-02
      -5.7005080698279273e-03 -1.1662973155709517e-02
      1.7094705773581659e-02 4.2941234455851220e-02
      -2.2034514709265176e-02 -5.4577706197185358e-03
      1.0388606185873504e-02 2.6663907226070309e-02
      -3.3408770489258215e-02 -8.7575383235355530e-03
      3.9020234811415949e-02 -2.2629418947239608e-02
      5.4515053243735422e-02 -1.0699155749859003e-02
      5.4747313192751883e-02 -2.6450719400103878e-02
      2.6576591022281507e-02 -2.7651521670746292e-03
      4.0216057805830069e-02 -4.6561581065027328e-02
      -3.9674758795311751e-03 -5.1255429136976047e-02
      -3.8938487968321681e-02 -6.4103147471150118e-02
      -2.8341312750699291e-02 -2.4514372731636386e-02
      1.7378836130037080e-02 -8.1515526059570659e-02
      3.0110853897171927e-03 1.8475556217276819e-02
      1.8797529748968679e-02 -6.8476124953146672e-03
      4.6777150805730090e-03 -4.5822168876156685e-02
      -8.9930473574275221e-02 -2.9563278486852834e-02
      2.1390170455087579e-02 8.6605357746353008e-03
      2.7358582016411793e-03 3.6887751866276096e-02
      5.4833090862874752e-02 6.8875190000419612e-02
      -2.9021295533353353e-03 3.1132088732467547e-02
      1.7659117544987172e-02 4.2939179131144872e-03
      1.3549542146124725e-02 -1.3519111098842037e-02
      -1.8690035999886670e-03 1.8997403310974648e-02
      -1.2242752981476472e-02 -7.8189523637798870e-03
      -2.0958065129502792e-02 -7.0106104829763998e-03
      5.7601000222027375e-02 1.8235355046457196e-03
      9.5346692819971893e-02 -2.2492809790954995e-02
      -1.6010724303410740e-03 -1.2299192653411112e-02
      2.4770437649957386e-02 1.7305919200225346e-02
      4.8325743257099547e-02 2.7951287298982583e-02
      1.3118568958724193e-02 -2.3056979316218588e-02
      3.4180294304462518e-02 3.2651600060991964e-02
      -2.3657153884895338e-02 2.9697538556908536e-02
      4.8853036940854085e-02 3.6604653188368252e-02
      -5.5644592609753914e-02 2.9749533777541828e-02
      5.8730543214288028e-02 -3.0079771245507595e-02
      3.4550442380478850e-02 2.3488736029055107e-03
      5.6168980596046143e-02 1.2527775596844502e-02
      4.7594466804601089e-02 -1.7814070395874293e-02
      -3.8350149560125099e-03 -2.9497524476949916e-04
      2.4042652160072082e-02 -4.2050080900293045e-02
      -4.7930844229469437e-02 -6.9672129501700056e-02
      -4.4106849052870212e-02 -4.8429901341116603e-03
      -1.1951058646704203e-02 -6.3529448579682096e-02
      3.9512235870223983e-02 4.8316659198416073e-02
      4.2785798834560421e-02 -8.2518799918047409e-03
      1.6402512543774943e-02 1.8735121908133659e-02
      -7.5244046505423476e-02 -3.0180828581329283e-02
      1.9335647934888706e-02 -2.1167128598421969e-02
      -3.4088047475989057e-02 4.0637133085722456e-02
      4.4422982140348732e-02 7.8062445617519585e-02
      2.7100534313702258e-02 7.5554716910649994e-02
      -2.2490869669017977e-02 -2.8055523244171311e-02
      2.2120932000774880e-02 -1.8297478001369209e-02
      -1.8575974836309704e-02 1.7523740735380395e-02
      -9.6639039407075064e-03 -4.1328021581527964e-02
      -3.3295694667433429e-02 7.1796982783987858e-03
      8.5403561406613027e-03 -1.1447096574647962e-02
      9.1960002837828222e-02 8.5822738011175851e-03
      -1.5444290039942361e-02 3.9817763269591522e-02
      -3.1379970065106393e-02 9.6994038109958630e-03
      2.7940541375948869e-02 7.3649015617315971e-03
      3.7075507143939826e-02 -2.0145199396725433e-02
      -1.5241489896290477e-03 2.5330146967947616e-02
      7.0893345262735092e-03 4.1404647377482687e-02
      7.5538704174857044e-02 -8.7060370925787674e-03
      -7.9463699417503419e-02 2.8811177264804710e-02
      2.8533003764705189e-02 1.8309165094527716e-03
      3.2547604300010240e-02 3.2226013243135043e-03
      4.6154533091043184e-02 6.4379773072733140e-02
      2.5506958459457846e-02 2.7408092017795524e-02
      -9.6367991479732757e-03 5.5421725756000517e-03
      5.4104364354371111e-02 1.2749189477376658e-02
      -4.1352981354574922e-02 -5.5064373770528377e-02
      2.4766563467907947e-03 6.3724622942162079e-02
      -1.4226262834036612e-02 1.2897594279046295e-02
      -2.6509919363226903e-02 7.5254656296478289e-02
      6.8327719927286212e-03 1.1410544670383537e-02
      9.3003394087755372e-03 5.0878186175751683e-02
      -4.0973195234435954e-02 1.1577460598101271e-02
      -4.5208022679253709e-02 -4.6186903708055380e-02
      -5.3564903503665294e-02 -1.0468887807060573e-02
      8.4020934878241364e-03 1.7189223958971094e-02
      6.3927560615930523e-02 1.8856875017487347e-02
      -1.7977109644998795e-02 -3.9587658539047423e-02
      1.9298337899574254e-02 1.2008924413436069e-02
      -3.0162602365778782e-02 -2.3477069508184680e-03
      2.8965743642781219e-02 -2.9224398531975684e-02
      -1.4734727344770713e-02 2.2628961009535571e-03
      -1.2272891144221821e-02 1.7383784143515747e-02
      4.2842907647517504e-02 4.8483576526261604e-02
      -1.5664994867475090e-02 6.7419429018652222e-02
      -5.8803900711271569e-02 2.3093969642970839e-02
      3.4023861843163791e-02 -7.3565320898235503e-04
      3.1392896560486022e-02 -1.3864771919459892e-02
      -3.2454319025934472e-02 6.4759242015343582e-02
      2.5361055382943497e-02 6.5389304693562147e-02
      2.3432457917679679e-02 -8.3659641043308131e-03
      -5.9532044217803941e-02 8.5129051884018595e-03
      1.2329370622280129e-02 7.7700246773650056e-03
      2.2965613046452296e-02 2.1913548864554991e-04
      2.8943165881110122e-02 6.1418508488059624e-02
      1.4949524392453652e-02 2.6508975692854531e-02
      9.8445737491392373e-03 -1.9772903587605570e-02
      3.1462767126002975e-02 3.1150883986750446e-02
      -5.5437977642586102e-02 -5.0433986813865885e-02
      3.5770221783312385e-02 4.0569527717727989e-02
      1.9908257545114428e-03 3.8223867890667763e-02
      -9.3211849202157280e-03 7.4926466172420020e-02
      -1.0122901056321425e-03 3.6025022447224588e-02
      -1.0124733250297259e-03 3.0318706702025692e-02
      -2.3473070222417968e-02 2.9298766495559608e-02
      -4.2534469865701668e-02 -2.4039652320612327e-02
      -3.4436096814087019e-02 -4.5042996610610515e-02
      6.5457796995313103e-03 -1.8018847134284460e-02
      2.7078510636121590e-02 2.7449586883208241e-02
      3.6439543983766086e-04 -2.6039817498847550e-02
      3.0971216934088616e-03 -1.5350187579971608e-02
      -4.9127384731282502e-04 -1.1784732931876705e-03
      4.2847414810498766e-02 -1.1894440385800604e-02
      -1.5281156630446002e-04 -1.1503439671774017e-02
      -5.7744717413454966e-02 2.3266922813799461e-02
      2.5323763339394911e-02 4.9762983532334056e-02
      -3.0260689549454690e-02 6.6126894800236605e-02
      -6.2662990349602737e-02 9.8978810155955100e-03
      3.3943341763602718e-02 -8.8769112793634190e-03
      3.8633285343620635e-02 -1.1568569504645613e-02
      -2.1293277717186018e-02 4.1187087353764855e-02
      1.3195664903613053e-02 3.5580877442558397e-02
      2.6425497380463236e-02 1.1604978844322506e-02
      -3.1795620209861757e-02 -2.4156006408311840e-02
      -8.6558405305038437e-03 3.3288356072666309e-02
      2.8241104357626567e-02 -5.3106714433812903e-03
      6.2283650371424354e-03 5.8423868576887673e-02
      -2.1502649362920772e-02 4.0568940495394598e-02
      1.1332565834075454e-02 -3.5932625105396146e-02
      1.6461809565226714e-02 2.4431149519639490e-02
      -3.6100285747788084e-02 -3.2576400543502367e-02
      4.4469084950357639e-02 3.0843228654458144e-02
      1.6136559518154740e-02 2.1379823256624164e-03
      -2.0971105448270688e-02 6.2525630818583894e-02
      -1.9594619655743002e-02 2.1178978768194405e-02
      1.1508144177525272e-02 -4.1307638793846267e-03
      -2.6078353788399053e-02 5.1870033845441380e-02
      -3.0313960181704982e-02 -2.9243899547076971e-02
      -4.7323519401612099e-02 -2.8887810242501595e-02
      -1.3666901700082634e-03 -3.0149937091459533e-02
      -4.6213720908017640e-03 2.0224680845603776e-02
      2.6287986819883289e-02 1.4651919734453360e-02
      2.8483032021078317e-03 -1.2136730867877706e-02
      3.5879616613796808e-02 -5.3138828197330529e-03
      3.5111288403672086e-02 1.7741675209663972e-02
      9.0803491415658508e-03 -3.6705323403307968e-02
      -3.5131330347709482e-02 -7.0013808651590024e-04
      -3.9043649348238945e-03 4.0163697144098849e-02
      -1.6112225575769343e-02 1.6870866532605139e-02
      -5.7752346998705933e-02 4.1990232281618023e-02
      1.6865908931830334e-02 2.0513664672169196e-02
      7.7031098438111031e-03 -1.1228352125903427e-03
      -3.9075595086314405e-03 2.7624030064246196e-02
      4.1484749084867031e-02 3.5494957997402980e-02
      1.3398171284000745e-02 -8.8078734538231968e-03
      -2.0502917846602960e-02 -8.2535311060025450e-03
      -1.6325199295567482e-02 1.7642724560657321e-02
      3.4265051781727585e-03 1.1522406945448529e-02
      1.6339797527214341e-02 6.7059836815010918e-02
      7.3914420503749757e-03 1.2300745619947259e-02
      5.5464358168016183e-03 -1.2456357400755791e-02
      -4.4306751531699553e-03 2.2252962681863449e-02
      -4.6064454152843007e-02 -4.9191025706740311e-02
      1.8497631649515029e-02 2.6481222741146608e-02
      -1.3141087541681702e-02 -1.0516589958181567e-02
      4.7919356147524397e-03 4.6949794999277907e-02
      -2.5027940616779609e-02 2.0495755073816926e-02
      2.9943949837665941e-02 3.9171900367468513e-03
      -2.3977671891176194e-02 3.8499080213138089e-02
      -1.4242934817844504e-02 -9.8881272188595052e-03
      -1.4120641166248489e-02 -3.4820673860323573e-02
      2.3021301590242300e-02 -2.8241196343109852e-03
      1.4685992902889659e-02 2.1033020009598783e-02
      2.4605918978856226e-02 2.7047500022616518e-02
      1.9922841924228891e-02 -3.9527809796894908e-02
      1.5732507980690938e-02 -5.4820142756936878e-03
      6.1963918554889912e-03 -5.0041628627597954e-04
      -1.3441146888231456e-02 -8.8193195810351808e-03
      -3.0723918639496039e-02 -5.3045244819898358e-03
      1.4466974489395885e-02 2.0957047480045211e-02
      1.3309972538319640e-02 2.3481912404395920e-02
      -6.0876927111922489e-02 4.6926275617115501e-02
      -5.4660621328849216e-03 1.9519395577296386e-02
      -1.2445561279062632e-03 1.0805579539747213e-03
      6.2841427752123773e-03 2.2006434399639195e-02
      1.1403645052464812e-02 1.9503103615285237e-02
      1.1781351544978514e-02 1.6743849630730427e-03
      -2.8167076263537625e-02 9.7477718141277172e-03
      -2.0555630281187495e-02 3.3588469914945081e-02
      2.2668017146658202e-02 2.2759894151534406e-02
      1.8678966521511770e-02 4.1122117839387691e-02
      -1.2789680390523788e-02 7.5396486600391461e-03
      -1.1947319723930689e-02 -7.3000769864594080e-03
      -8.9707604952871441e-03 2.7601080705748095e-02
      -1.8230183030879317e-02 -3.6880646150263471e-02
      1.1354767183459031e-02 3.8807961378611290e-02
      -1.5889197378229459e-02 5.2516935213588938e-04
      1.0884630496321485e-02 4.7299926883241063e-02
      -5.0380587818195093e-02 1.3929405856035495e-02
      3.0125363274459478e-02 -4.4233852358547101e-03
      -2.2020749956967484e-02 1.5465932360216974e-02
      -2.4321318360779432e-02 9.4573938493301929e-04
      -3.3875416489506480e-03 -2.8504030424531868e-02
      2.2924235087329110e-02 5.1245681800768522e-03
      7.4465136047068810e-03 2.3420707400315702e-03
      2.7223194216639574e-02 3.0187804476514098e-02
      7.0500554345220880e-03 -1.9660200322488393e-02
      4.6424742239384873e-03 9.1827661294898203e-04
      -4.9961664077563701e-03 -2.6949563132212542e-02
      -2.5977576291956139e-02 1.4239057490674789e-03
      -1.6556139071043315e-02 2.1217660972449200e-02
      1.4960823532351284e-02 2.8710826605257548e-03
      1.2961649481006296e-02 3.3199852474716796e-02
      -5.9627185609882033e-02 -7.2355580649121022e-03
      -2.5881359953820810e-02 1.2090089061762179e-02
      -4.3992605861422262e-03 -2.7604160663914377e-02
      3.4947423658397800e-02 -3.0178897355566509e-03
      -6.1595016616688167e-04 1.4392505260179081e-02
      -1.4305051019776782e-02 -3.4413680599121713e-03
      -8.9985371815648717e-03 2.4979684814059492e-02
      -2.9233515072633349e-02 2.1790094058259640e-02
      2.3764199371213397e-02 4.7987638953208298e-03
      7.3018596757436797e-03 9.6024951607309086e-03
      -2.5422732003704429e-02 -1.3856791447943707e-02
      -1.2568618012651663e-02 -2.2663553517356470e-02
      -1.5380180025022666e-02 3.2418135367044715e-02
      -6.0554696166158798e-03 -2.4698980293696784e-02
      -1.1462290867576929e-02 2.5817958396382963e-02
      9.4848045243924439e-03 1.3470432932449372e-02
      3.9057555073374471e-03 1.5208297362183435e-02
      -6.0562771872709469e-02 8.1375868036320173e-03
      1.4957435362040097e-02 -1.1432864664480475e-02
      -4.7881638783987624e-03 -4.2716673674919978e-02
      -1.6810676939950205e-02 7.0095240251774847e-03
      1.2239392356210058e-03 -8.1824898862935258e-03
      2.6107315609321322e-02 1.6573018684581570e-02
      1.4935905313478810e-03 -2.3561707691559526e-02
      1.3349965734957874e-02 1.5758592026923271e-02
      4.3279161825916009e-03 -1.3964895743299507e-02
      -6.1134382704514777e-03 1.9333989500286957e-02
      -1.6078852391123288e-02 -6.0086993987119267e-02
      -1.5335271559579186e-02 -2.0990073170509459e-02
      1.3254222043623030e-02 2.2746797117873131e-02
      1.4799679667257296e-02 2.4259475567987208e-02
      1.5903580876953351e-02 1.1654322024771414e-02
      -1.7240508048577005e-02 3.2428619116927529e-02
      -2.9658196511337361e-03 -3.5640109884216849e-02
      3.7423388004910424e-03 1.0249454109933330e-02
      1.5307894436452642e-02 4.1745831135818826e-03
      3.0802518046781094e-02 9.4832901058892471e-03
      -1.3528919904396716e-02 -8.3586906299477192e-03
      -4.7166953403314756e-03 -2.3790460225748149e-02
      -9.8617337716649343e-03 -1.3873675604631777e-01
      -4.6370282344946451e-04 -2.4571964841767567e-02
      5.8586543798512716e-03 2.9095792393071005e-02
      -4.3861587974879370e-03 -2.4124524385606621e-02
      -2.6162986652147527e-04 -5.1206687554750663e-03
      -7.2110999221814062e-03 2.0169997636208074e-02
      1.5334430112180805e-03 -3.0731216858488623e-02
      -9.2749757442481956e-02 3.4676067872671541e-03
      6.3276573723698168e-03 1.1229959634703421e-02
      -3.5086386560939965e-03 -6.0802299965551972e-03
      2.2549805552207279e-02 -8.3944433378805913e-03
      -3.2304823349795807e-02 -8.6080029319786852e-03
      9.1150854213351163e-03 -1.9909463328627861e-01
      -1.6117432256304944e-02 -3.4758083722399490e-02
      -7.2905434764138528e-03 -2.6676488423417991e-03
      -2.0479883191307086e-02 2.9163837981768647e-02
      2.4936056217576275e-02 -1.0553557768191758e-02
      3.0317175120749211e-02 -1.0446540969018792e-01
      -5.4970765910392514e-03 -7.0732590451650212e-03
      -7.6775600565669094e-02 1.2553002457523527e-01
      -8.3464365389038855e-03 -3.8576105212603053e-02
      -2.3120365243692105e-02 -2.0598054503045908e-02
      -6.8996740717764489e-04 -1.8482626756883939e-02
      2.5535181276033884e-02 1.6926717233622997e-02
      5.1031755173894175e-03 1.3470796941917182e-02
      1.5461894120946276e-03 1.6246633705611284e-03
      -2.4841529890127841e-02 -8.2591838127095123e-03
      -7.2528791070877591e-03 -3.2062257001308605e-03
      3.4163937912331362e-02 -1.1544538587268593e-02
      -1.0554281088466042e-03 3.6014348701359528e-02
      -1.1621126334771499e-02 -3.5104345089081349e-02
      1.8248132825740681e-02 4.6803345461989068e-03
      -4.5328491356518077e-02 -1.7137888145465069e-01
      1.8617071063370287e-02 -1.8779518331511778e-02
      -1.4505660061899787e-02 -7.6519239174124504e-03
      -7.8162762311665497e-04 -2.7974959128864323e-03
      -1.6084766306034497e-02 -2.2867639953127353e-03
      -1.4677791656944918e-02 -1.6357975179998048e-02
      -3.9119706571423885e-02 3.9952960695226634e-03
      -8.5381373786016262e-02 1.0145553567016265e-02
      1.5093898195706293e-02 -6.3109825226597320e-03
      2.2769817795406815e-03 2.1339785551321447e-02
      3.2510720810681681e-02 3.5884278700812608e-02
      9.8265665995226625e-03 -1.1322922140018326e-03
      -8.9284454040987893e-03 -1.7249203068644739e-01
      -1.4118445513628143e-03 3.2448597276780150e-02
      1.9330883463920312e-02 6.3317048367083394e-03
      2.6633314357483596e-02 2.0847942692622218e-02
      4.1154554556662041e-03 -2.3941810809835300e-02
      2.0788806894548519e-02 -1.0120439661269717e-01
      1.3412141834469458e-02 1.5792817028530751e-02
      -5.7061780442889794e-02 1.6389194908772997e-01
      -3.1946151525467599e-02 -4.7962605737130591e-02
      -1.1976712929339605e-03 3.5423862804077146e-02
      1.1768812569650037e-02 -5.5683219654132539e-02
      -3.6698644847871970e-03 -2.8541549430867185e-02
      1.2147955597476532e-02 -4.4751629654875898e-04
      -1.2472890992553906e-02 1.3203357152523590e-02
      -9.2701722073696216e-03 -8.0821659086361113e-03
      -1.2693183497460205e-02 -1.5030619423646845e-02
      -3.4361211410207428e-04 5.9545984430386433e-03
      -5.8597214593936334e-03 1.8298475316386894e-02
      3.1254097756132644e-02 4.6860773205964551e-03
      -1.1449752350084573e-02 -3.2188760846294001e-03
      -1.7692095422681318e-02 -4.3260497890618588e-02
      -9.5132917154909374e-03 1.3859843876538836e-03
      -1.5090006317887584e-02 3.7726432443314452e-02
      -8.0820216649560815e-03 2.7863690718990475e-02
      5.1664548174268320e-03 -2.0778040574854998e-03
      1.4510256781329650e-03 4.6591646662435332e-05
      -2.5489338320158001e-02 -2.3141519043449795e-02
      -2.1665364933405314e-02 1.1106485951897381e-02
      -5.4890650123643739e-03 1.0824548294473647e-02
      -2.1878982583592634e-03 4.7136346420520716e-03
      -1.6218476082506872e-02 6.9151571480186415e-03
      7.1749848357503965e-03 -2.8691071510176441e-02
      8.7096079842080348e-04 -3.2132745433904514e-02
      1.6744970349934208e-02 4.8563437403025675e-03
      1.0023221236858009e-02 1.9316766190892263e-02
      8.5250944513072489e-03 4.4080814376479087e-03
      1.4230045977728163e-02 9.2665255655917361e-03
      1.5249577704948537e-02 -3.4107146586592224e-02
      -1.5446554700634571e-02 -9.7522461000983350e-03
      -9.8848283717419289e-03 4.1104565307190630e-02
      -3.5498560949940014e-02 -1.0544236855281967e-02
      9.5729203673424294e-03 2.6425512079055826e-02
      1.6301064881304436e-02 -1.8488323970201503e-02
      1.6718685963097783e-02 -2.5910521792516148e-03
      -6.4095467148636513e-03 -1.9731765558003767e-02
      -1.7633299862873528e-02 2.4624718882998414e-02
      5.6396694591384173e-03 6.0097125511289753e-03
      -1.4412328330625159e-02 -6.5047536346856715e-03
      -7.2075326680556160e-03 1.8222533712598681e-02
      -4.6903848123281940e-03 2.4757672600608234e-03
      3.9354796818741031e-02 -1.5270066680180501e-02
      -1.1422671770014575e-02 -7.7470637687839022e-03
      -1.6211447769613637e-02 -1.0892686627644274e-02
      -1.8112265960256200e-02 1.9953577670277649e-02
      -4.3460691487169972e-03 4.4476605270982024e-02
      -9.9185547328034303e-03 1.2582150056119146e-02
      1.2330684447752231e-02 -3.2848892368267132e-03
      -1.3503774065909983e-03 3.9789391005927753e-03
      -2.8500902802055184e-02 -3.2567324975904796e-02
      -8.4952254987097665e-03 7.3486806744880616e-03
      8.3273013775634619e-03 9.1449786540409601e-03
      -5.5031820669552310e-03 5.3303475951732657e-03
      -1.8583969414058564e-02 1.2301992401059808e-02
      2.0776602864700229e-03 -2.8811668999809296e-02
      -1.0438656425884811e-03 1.8216501532460215e-03
      9.3806747455237455e-03 8.1693501000569581e-03
      4.5369869128987182e-03 3.2085249731750115e-02
      1.4735635497049725e-02 1.5236405332719331e-02
      1.5708776968855965e-02 2.4603288496486915e-02
      1.1950169646190268e-02 -3.3001476158697968e-03
      9.1425017564008282e-03 -2.6610783305054740e-03
      -7.5956744366790464e-03 1.7653924430995740e-02
      -2.0825366822944859e-02 7.3822650826130720e-04
      2.9407376076144177e-02 2.6723700369981000e-02
      7.1551570339160016e-03 -8.0417868474698066e-03
      1.1425215895738000e-02 -5.9370959900866358e-03
      8.6117893631666470e-04 -2.7231125350798475e-02
      -1.1217870085334607e-02 9.7057882438461498e-03
      -2.9214251473866332e-04 -1.0653905651132414e-03
      -2.4811513817120785e-02 -1.9441979245455116e-02
      -1.8255719484750590e-02 -1.5598584172529691e-03
      -1.6356674419167948e-02 3.1013594267352172e-03
      3.8664917725538560e-02 -8.2030426744878447e-03
      1.0586680450423287e-02 1.0022457391755984e-02
      -3.0399694659997444e-02 9.5327862718446422e-05
      -7.2247327070344911e-03 1.0254160557187341e-02
      -1.9279959299518745e-03 8.7704848089633792e-03
      -9.1161944642545786e-03 1.0603062832365921e-02
      -6.1827744430448860e-05 -2.4955029300016045e-03
      -4.7938663518724400e-03 2.5498695067462034e-02
      -8.9662129774319890e-03 8.6693782143964940e-04
      -2.6619255449229261e-03 -7.1617421281935749e-04
      -6.2711223158963053e-03 4.8059578700698829e-03
      -2.9702711345457500e-03 6.6523969283317531e-03
      -3.2116392917736408e-02 -9.0473014513900674e-05
      7.7013453309631311e-03 -1.5157631039516598e-02
      1.0439752098645089e-02 2.1402024273020400e-03
      8.3224208499736425e-04 2.3553307670585538e-02
      -8.5852482133793716e-03 2.7036165041315185e-02
      2.1623400944358648e-02 2.6193613620223363e-02
      -1.7730981379715828e-02 1.4738885552369477e-02
      -1.9268025254259454e-03 -6.5607414907307539e-03
      1.8274414951552690e-02 9.5033142451364152e-03
      -7.9712831512622848e-03 2.3218004462112881e-03
      -3.1737159637815468e-02 1.6453591689967659e-02
      3.2483440723205526e-02 3.5593946589548342e-02
      1.8197011493497436e-02 -2.1574576054554602e-02
      5.7310675969674788e-04 -1.3215053044646189e-02
      1.9028611396280568e-02 1.5351954765899986e-03
      9.0554747031590529e-04 -2.1869760963400705e-02
      1.2067242650859190e-02 1.9835305039008058e-02
      -1.5739303758904997e-02 -1.4205412455716583e-02
      -1.0385120108138621e-03 -2.2223935964884808e-02
      4.4867482113633084e-03 -3.7148584953252254e-03
      2.3781059673236106e-02 1.4143152633861898e-02
      1.1317732835809249e-02 1.5481014867142385e-02
      -1.7310470122807614e-03 1.7437808476150216e-02
      -3.7804229394810110e-02 -1.5384324454763708e-03
      4.9340850846395137e-04 -2.2376786159664045e-03
      -1.4644328243589407e-02 -9.6304494389928986e-03
      -9.4230483970741323e-04 -8.3215499765293913e-03
      1.8945046043286212e-02 9.6149508512464558e-03
